{"learner":{"attributes":{},"feature_names":[],"feature_types":[],"gradient_booster":{"model":{"cats":{"enc":[],"feature_segments":[],"sorted_idx":[]},"gbtree_model_param":{"num_parallel_tree":"1","num_trees":"100"},"iteration_indptr":[0,1,2,3,4,5,6,7,8,9,10,11,12,13,14,15,16,17,18,19,20,21,22,23,24,25,26,27,28,29,30,31,32,33,34,35,36,37,38,39,40,41,42,43,44,45,46,47,48,49,50,51,52,53,54,55,56,57,58,59,60,61,62,63,64,65,66,67,68,69,70,71,72,73,74,75,76,77,78,79,80,81,82,83,84,85,86,87,88,89,90,91,92,93,94,95,96,97,98,99,100],"tree_info":[0,0,0,0,0,0,0,0,0,0,0,0,0,0,0,0,0,0,0,0,0,0,0,0,0,0,0,0,0,0,0,0,0,0,0,0,0,0,0,0,0,0,0,0,0,0,0,0,0,0,0,0,0,0,0,0,0,0,0,0,0,0,0,0,0,0,0,0,0,0,0,0,0,0,0,0,0,0,0,0,0,0,0,0,0,0,0,0,0,0,0,0,0,0,0,0,0,0,0,0],"trees":[{"base_weights":[-4.6934467E-8,1.0164008E0,-3.7350714E-1,1.5317342E0,7.9957944E-1,-4.1757157E-1,1.8366667E0,8.3390854E-2,-6.635002E-2,1.959502E-2,6.909544E-2,-9.309547E-3,-3.4821786E-2,1.20789625E-1,1.8223729E-2],"categories":[],"categories_nodes":[],"categories_segments":[],"categories_sizes":[],"default_left":[0,0,0,0,0,0,0,0,0,0,0,0,0,0,0],"id":0,"left_children":[1,3,5,7,9,11,13,-1,-1,-1,-1,-1,-1,-1,-1],"loss_changes":[1.0263237E3,7.995056E1,1.9330399E2,8.548541E1,1.213515E2,1.24990814E2,3.222516E1,0E0,0E0,0E0,0E0,0E0,0E0,0E0,0E0],"parents":[2147483647,0,0,1,1,2,2,3,3,4,4,5,5,6,6],"right_children":[2,4,6,8,10,12,14,-1,-1,-1,-1,-1,-1,-1,-1],"split_conditions":[6.2204725E-1,5.590551E-1,2.2317734E-4,8.964046E-1,4.0562125E-5,7.007874E-1,2.1629983E-4,8.3390854E-2,-6.635002E-2,1.959502E-2,6.909544E-2,-9.309547E-3,-3.4821786E-2,1.20789625E-1,1.8223729E-2],"split_indices":[0,0,5,1,5,0,6,0,0,0,0,0,0,0,0],"split_type":[0,0,0,0,0,0,0,0,0,0,0,0,0,0,0],"sum_hessian":[2.7014636E3,7.2549615E2,1.9759674E3,2.1305357E2,5.1244257E2,1.9381377E3,3.7829773E1,2.0377019E2,9.28338E0,3.024061E2,2.1003647E2,1.060162E3,8.7797565E2,2.6689716E1,1.1140056E1],"tree_param":{"num_deleted":"0","num_feature":"7","num_nodes":"15","size_leaf_vector":"1"}},{"base_weights":[-1.2537834E-4,9.5302314E-1,-3.5673138E-1,1.4270911E0,7.518092E-1,-4.354925E-1,7.6530457E-1,7.758268E-2,-6.4465135E-2,1.8520532E-2,6.450074E-2,-1.5693653E-2,-5.5392127E-2,6.276917E-2,-9.427752E-3],"categories":[],"categories_nodes":[],"categories_segments":[],"categories_sizes":[],"default_left":[0,0,0,0,0,0,0,0,0,0,0,0,0,0,0],"id":1,"left_children":[1,3,5,7,9,11,13,-1,-1,-1,-1,-1,-1,-1,-1],"loss_changes":[9.1860455E2,6.911737E1,1.7414084E2,7.581146E1,1.05993774E2,1.4997897E2,6.0709755E1,0E0,0E0,0E0,0E0,0E0,0E0,0E0,0E0],"parents":[2147483647,0,0,1,1,2,2,3,3,4,4,5,5,6,6],"right_children":[2,4,6,8,10,12,14,-1,-1,-1,-1,-1,-1,-1,-1],"split_conditions":[6.2204725E-1,5.590551E-1,1.6219275E-4,8.964046E-1,4.0562125E-5,7.401575E-1,7.559055E-1,7.758268E-2,-6.4465135E-2,1.8520532E-2,6.450074E-2,-1.5693653E-2,-5.5392127E-2,6.276917E-2,-9.427752E-3],"split_indices":[0,0,5,1,5,0,0,0,0,0,0,0,0,0,0],"split_type":[0,0,0,0,0,0,0,0,0,0,0,0,0,0,0],"sum_hessian":[2.700585E3,7.348311E2,1.9657539E3,2.1714247E2,5.1768866E2,1.8373905E3,1.2836342E2,2.0803178E2,9.11069E0,3.0396942E2,2.1371924E2,1.557183E3,2.8020743E2,8.458751E1,4.3775906E1],"tree_param":{"num_deleted":"0","num_feature":"7","num_nodes":"15","size_leaf_vector":"1"}},{"base_weights":[-2.665437E-4,9.823714E-1,-3.1254548E-1,2.0489316E0,8.920638E-1,-3.512963E-1,1.6363477E0,-2.3166355E-2,1.0601681E-1,7.079453E-2,3.8374998E-2,-6.3386695E-3,-3.2434832E-2,1.0777893E-1,1.4644592E-2],"categories":[],"categories_nodes":[],"categories_segments":[],"categories_sizes":[],"default_left":[0,0,0,0,0,0,0,0,0,0,0,0,0,0,0],"id":2,"left_children":[1,3,5,7,9,11,13,-1,-1,-1,-1,-1,-1,-1,-1],"loss_changes":[8.285511E2,6.089038E1,1.5531525E2,9.962402E0,3.819992E1,1.3412134E2,2.7357079E1,0E0,0E0,0E0,0E0,0E0,0E0,0E0,0E0],"parents":[2147483647,0,0,1,1,2,2,3,3,4,4,5,5,6,6],"right_children":[2,4,6,8,10,12,14,-1,-1,-1,-1,-1,-1,-1,-1],"split_conditions":[6.1417323E-1,-2.3129614E-4,2.2317734E-4,8.4135616E-1,8.189835E-1,7.007874E-1,2.1629983E-4,-2.3166355E-2,1.0601681E-1,7.079453E-2,3.8374998E-2,-6.3386695E-3,-3.2434832E-2,1.0777893E-1,1.4644592E-2],"split_indices":[0,6,5,1,1,0,6,0,0,0,0,0,0,0,0],"split_type":[0,0,0,0,0,0,0,0,0,0,0,0,0,0,0],"sum_hessian":[2.6981194E3,6.5015424E2,2.0479651E3,4.905942E1,6.0109485E2,2.008842E3,3.9123096E1,1.204159E0,4.7855263E1,1.1348616E2,4.8760867E2,1.1454834E3,8.633586E2,2.7781391E1,1.1341704E1],"tree_param":{"num_deleted":"0","num_feature":"7","num_nodes":"15","size_leaf_vector":"1"}},{"base_weights":[-2.83095E-4,8.4627354E-1,-3.2639053E-1,1.2645466E0,6.67237E-1,-4.01118E-1,7.1842504E-1,6.8876766E-2,-6.379628E-2,1.552936E-2,5.8358807E-2,-1.430039E-2,-5.2449014E-2,5.1295724E-2,-2.6813785E-2],"categories":[],"categories_nodes":[],"categories_segments":[],"categories_sizes":[],"default_left":[0,0,0,0,0,0,0,0,0,0,0,0,0,0,0],"id":3,"left_children":[1,3,5,7,9,11,13,-1,-1,-1,-1,-1,-1,-1,-1],"loss_changes":[7.4447845E2,5.5315918E1,1.5228612E2,6.59599E1,9.36508E1,1.3523965E2,5.0821846E1,0E0,0E0,0E0,0E0,0E0,0E0,0E0,0E0],"parents":[2147483647,0,0,1,1,2,2,3,3,4,4,5,5,6,6],"right_children":[2,4,6,8,10,12,14,-1,-1,-1,-1,-1,-1,-1,-1],"split_conditions":[6.2204725E-1,5.590551E-1,1.6219275E-4,8.964046E-1,4.0562125E-5,7.401575E-1,7.7165353E-1,6.8876766E-2,-6.379628E-2,1.552936E-2,5.8358807E-2,-1.430039E-2,-5.2449014E-2,5.1295724E-2,-2.6813785E-2],"split_indices":[0,0,5,1,5,0,0,0,0,0,0,0,0,0,0],"split_type":[0,0,0,0,0,0,0,0,0,0,0,0,0,0,0],"sum_hessian":[2.694717E3,7.489332E2,1.9457838E3,2.2266661E2,5.262666E2,1.8164812E3,1.293026E2,2.1362338E2,9.043232E0,3.080962E2,2.181704E2,1.5436514E3,2.7282986E2,1.0399813E2,2.530447E1],"tree_param":{"num_deleted":"0","num_feature":"7","num_nodes":"15","size_leaf_vector":"1"}},{"base_weights":[-3.9017797E-4,8.747411E-1,-2.8596035E-1,1.842751E0,7.9207575E-1,-3.5809097E-1,6.103828E-1,-2.4310226E-2,9.5442295E-2,6.321714E-2,3.3956572E-2,-6.425374E-3,-3.5228305E-2,5.3593047E-2,-1.2338469E-2],"categories":[],"categories_nodes":[],"categories_segments":[],"categories_sizes":[],"default_left":[0,0,0,0,0,0,0,0,0,0,0,0,0,0,0],"id":4,"left_children":[1,3,5,7,9,11,13,-1,-1,-1,-1,-1,-1,-1,-1],"loss_changes":[6.7270917E2,5.1535675E1,1.3143484E2,8.83284E0,3.1780823E1,1.4937416E2,6.0201572E1,0E0,0E0,0E0,0E0,0E0,0E0,0E0,0E0],"parents":[2147483647,0,0,1,1,2,2,3,3,4,4,5,5,6,6],"right_children":[2,4,6,8,10,12,14,-1,-1,-1,-1,-1,-1,-1,-1],"split_conditions":[6.1417323E-1,-2.3129614E-4,1.5352637E-4,8.4135616E-1,8.189835E-1,7.007874E-1,7.559055E-1,-2.4310226E-2,9.5442295E-2,6.321714E-2,3.3956572E-2,-6.425374E-3,-3.5228305E-2,5.3593047E-2,-1.2338469E-2],"split_indices":[0,6,5,1,1,0,0,0,0,0,0,0,0,0,0],"split_type":[0,0,0,0,0,0,0,0,0,0,0,0,0,0,0],"sum_hessian":[2.68979E3,6.6126794E2,2.0285221E3,5.0352226E1,6.109157E2,1.8779963E3,1.5052579E2,1.2141333E0,4.9138092E1,1.1593767E2,4.9497806E2,1.1303607E3,7.476356E2,9.768379E1,5.2842E1],"tree_param":{"num_deleted":"0","num_feature":"7","num_nodes":"15","size_leaf_vector":"1"}},{"base_weights":[-4.1964225E-4,7.56371E-1,-2.987683E-1,1.1323156E0,5.950316E-1,-3.7373585E-1,5.7677144E-1,6.1630305E-2,-6.7514256E-2,1.2977244E-2,5.318279E-2,-1.3395435E-2,-5.0420444E-2,5.0399777E-2,-1.1777434E-2],"categories":[],"categories_nodes":[],"categories_segments":[],"categories_sizes":[],"default_left":[0,0,0,0,0,0,0,0,0,0,0,0,0,0,0],"id":5,"left_children":[1,3,5,7,9,11,13,-1,-1,-1,-1,-1,-1,-1,-1],"loss_changes":[6.065427E2,4.539856E1,1.2668231E2,5.8179535E1,8.361476E1,1.1897574E2,5.360747E1,0E0,0E0,0E0,0E0,0E0,0E0,0E0,0E0],"parents":[2147483647,0,0,1,1,2,2,3,3,4,4,5,5,6,6],"right_children":[2,4,6,8,10,12,14,-1,-1,-1,-1,-1,-1,-1,-1],"split_conditions":[6.2204725E-1,5.590551E-1,1.5352637E-4,8.994075E-1,4.0562125E-5,7.401575E-1,7.559055E-1,6.1630305E-2,-6.7514256E-2,1.2977244E-2,5.318279E-2,-1.3395435E-2,-5.0420444E-2,5.0399777E-2,-1.1777434E-2],"split_indices":[0,0,5,1,5,0,0,0,0,0,0,0,0,0,0],"split_type":[0,0,0,0,0,0,0,0,0,0,0,0,0,0,0],"sum_hessian":[2.6843425E3,7.5858417E2,1.9257583E3,2.2598572E2,5.3259845E2,1.7743995E3,1.5135872E2,2.1769493E2,8.290791E0,3.1129617E2,2.2130226E2,1.5220336E3,2.5236603E2,9.871467E1,5.264405E1],"tree_param":{"num_deleted":"0","num_feature":"7","num_nodes":"15","size_leaf_vector":"1"}},{"base_weights":[-4.896301E-4,7.836822E-1,-2.6172987E-1,1.680686E0,7.0704406E-1,-2.9595393E-1,1.377517E0,-2.5253484E-2,8.7161735E-2,5.6986656E-2,3.0171636E-2,-4.842426E-3,-2.8320555E-2,9.281748E-2,7.464595E-3],"categories":[],"categories_nodes":[],"categories_segments":[],"categories_sizes":[],"default_left":[0,0,0,0,0,0,0,0,0,0,0,0,0,0,0],"id":6,"left_children":[1,3,5,7,9,11,13,-1,-1,-1,-1,-1,-1,-1,-1],"loss_changes":[5.4891156E2,4.484192E1,1.1316646E2,7.9867706E0,2.7045135E1,1.0600807E2,2.4000916E1,0E0,0E0,0E0,0E0,0E0,0E0,0E0,0E0],"parents":[2147483647,0,0,1,1,2,2,3,3,4,4,5,5,6,6],"right_children":[2,4,6,8,10,12,14,-1,-1,-1,-1,-1,-1,-1,-1],"split_conditions":[6.1417323E-1,-2.3129614E-4,2.2317734E-4,8.4135616E-1,8.189835E-1,7.007874E-1,2.1629983E-4,-2.5253484E-2,8.7161735E-2,5.6986656E-2,3.0171636E-2,-4.842426E-3,-2.8320555E-2,9.281748E-2,7.464595E-3],"split_indices":[0,6,5,1,1,0,6,0,0,0,0,0,0,0,0],"split_type":[0,0,0,0,0,0,0,0,0,0,0,0,0,0,0],"sum_hessian":[2.677482E3,6.685819E2,2.0089001E3,5.097857E1,6.1760333E2,1.9686189E3,4.02812E1,1.2214189E0,4.975715E1,1.1738677E2,5.0021655E2,1.1346611E3,8.339579E2,2.8614298E1,1.1666903E1],"tree_param":{"num_deleted":"0","num_feature":"7","num_nodes":"15","size_leaf_vector":"1"}},{"base_weights":[-4.5343803E-4,6.7914E-1,-2.7336007E-1,1.0663205E0,5.475571E-1,-3.4458625E-1,5.4919404E-1,5.8273878E-2,-6.046909E-2,1.2007798E-2,4.9549006E-2,-1.221459E-2,-4.7961567E-2,4.7113165E-2,-1.0232407E-2],"categories":[],"categories_nodes":[],"categories_segments":[],"categories_sizes":[],"default_left":[0,0,0,0,0,0,0,0,0,0,0,0,0,0,0],"id":7,"left_children":[1,3,5,7,9,11,13,-1,-1,-1,-1,-1,-1,-1,-1],"loss_changes":[4.957015E2,3.8430023E1,1.1191284E2,4.5001633E1,7.7948746E1,1.0799074E2,4.5336777E1,0E0,0E0,0E0,0E0,0E0,0E0,0E0,0E0],"parents":[2147483647,0,0,1,1,2,2,3,3,4,4,5,5,6,6],"right_children":[2,4,6,8,10,12,14,-1,-1,-1,-1,-1,-1,-1,-1],"split_conditions":[6.2204725E-1,5.511811E-1,1.5352637E-4,8.953797E-1,4.0562125E-5,7.401575E-1,7.559055E-1,5.8273878E-2,-6.046909E-2,1.2007798E-2,4.9549006E-2,-1.221459E-2,-4.7961567E-2,4.7113165E-2,-1.0232407E-2],"split_indices":[0,0,5,1,5,0,0,0,0,0,0,0,0,0,0],"split_type":[0,0,0,0,0,0,0,0,0,0,0,0,0,0,0],"sum_hessian":[2.6707405E3,7.647838E2,1.9059568E3,1.9218338E2,5.726004E2,1.7546041E3,1.5135266E2,1.846267E2,7.556692E0,3.3907773E2,2.3352267E2,1.509663E3,2.4494116E2,9.931682E1,5.2035835E1],"tree_param":{"num_deleted":"0","num_feature":"7","num_nodes":"15","size_leaf_vector":"1"}},{"base_weights":[-4.9886806E-4,7.0551103E-1,-2.3952794E-1,1.622662E0,6.394802E-1,-2.7137354E-1,1.2648674E0,1.4056203E-2,8.55942E-2,5.17206E-2,2.7322084E-2,-4.2138174E-3,-2.644655E-2,8.600207E-2,5.2280184E-3],"categories":[],"categories_nodes":[],"categories_segments":[],"categories_sizes":[],"default_left":[0,0,0,0,0,0,0,0,0,0,0,0,0,0,0],"id":8,"left_children":[1,3,5,7,9,11,13,-1,-1,-1,-1,-1,-1,-1,-1],"loss_changes":[4.4968045E2,3.977841E1,9.5713875E1,4.858818E0,2.259668E1,9.393436E1,2.1707787E1,0E0,0E0,0E0,0E0,0E0,0E0,0E0,0E0],"parents":[2147483647,0,0,1,1,2,2,3,3,4,4,5,5,6,6],"right_children":[2,4,6,8,10,12,14,-1,-1,-1,-1,-1,-1,-1,-1],"split_conditions":[6.1417323E-1,-2.4948944E-4,2.2317734E-4,8.5161537E-1,8.189835E-1,7.007874E-1,2.1629983E-4,1.4056203E-2,8.55942E-2,5.17206E-2,2.7322084E-2,-4.2138174E-3,-2.644655E-2,8.600207E-2,5.2280184E-3],"split_indices":[0,6,5,1,1,0,6,0,0,0,0,0,0,0,0],"split_type":[0,0,0,0,0,0,0,0,0,0,0,0,0,0,0],"sum_hessian":[2.6626626E3,6.729747E2,1.9896881E3,4.3614014E1,6.2936066E2,1.9492454E3,4.044274E1,2.978608E0,4.0635403E1,1.1806741E2,5.1129324E2,1.1298307E3,8.194147E2,2.8701212E1,1.1741528E1],"tree_param":{"num_deleted":"0","num_feature":"7","num_nodes":"15","size_leaf_vector":"1"}},{"base_weights":[-4.33491E-4,6.119982E-1,-2.5005674E-1,4.4942054E-1,8.9078796E-1,-3.177008E-1,5.241316E-1,5.136792E-2,1.0002576E-2,5.4656632E-2,7.092811E-3,-1.113218E-2,-4.568388E-2,3.5947047E-2,-4.2319097E-2],"categories":[],"categories_nodes":[],"categories_segments":[],"categories_sizes":[],"default_left":[0,0,0,0,0,0,0,0,0,0,0,0,0,0,0],"id":9,"left_children":[1,3,5,7,9,11,13,-1,-1,-1,-1,-1,-1,-1,-1],"loss_changes":[4.061918E2,3.447162E1,9.901891E1,7.0124176E1,4.263765E1,9.817546E1,4.1204876E1,0E0,0E0,0E0,0E0,0E0,0E0,0E0,0E0],"parents":[2147483647,0,0,1,1,2,2,3,3,4,4,5,5,6,6],"right_children":[2,4,6,8,10,12,14,-1,-1,-1,-1,-1,-1,-1,-1],"split_conditions":[6.2204725E-1,4.0562125E-5,1.5352637E-4,5.511811E-1,9.134024E-1,7.401575E-1,7.7952754E-1,5.136792E-2,1.0002576E-2,5.4656632E-2,7.092811E-3,-1.113218E-2,-4.568388E-2,3.5947047E-2,-4.2319097E-2],"split_indices":[0,5,5,0,1,0,0,0,0,0,0,0,0,0,0],"split_type":[0,0,0,0,0,0,0,0,0,0,0,0,0,0,0],"sum_hessian":[2.65498E3,7.6837604E2,1.886604E3,4.869947E2,2.8138135E2,1.7355513E3,1.510527E2,1.4585083E2,3.411439E2,2.211673E2,6.021405E1,1.4979971E3,2.375542E2,1.3266997E2,1.8382727E1],"tree_param":{"num_deleted":"0","num_feature":"7","num_nodes":"15","size_leaf_vector":"1"}},{"base_weights":[-4.5612577E-4,6.3628316E-1,-2.1883689E-1,1.4436252E0,5.684062E-1,-2.7863404E-1,4.9600893E-1,4.1361596E-3,7.73659E-2,4.7247592E-2,2.3942687E-2,-4.393076E-3,-2.9010782E-2,3.3952665E-2,-4.090481E-2],"categories":[],"categories_nodes":[],"categories_segments":[],"categories_sizes":[],"default_left":[0,0,0,0,0,0,0,0,0,0,0,0,0,0,0],"id":10,"left_children":[1,3,5,7,9,11,13,-1,-1,-1,-1,-1,-1,-1,-1],"loss_changes":[3.6825827E2,3.6242676E1,8.4433525E1,7.182274E0,2.06409E1,1.0468477E2,3.7258465E1,0E0,0E0,0E0,0E0,0E0,0E0,0E0,0E0],"parents":[2147483647,0,0,1,1,2,2,3,3,4,4,5,5,6,6],"right_children":[2,4,6,8,10,12,14,-1,-1,-1,-1,-1,-1,-1,-1],"split_conditions":[6.1417323E-1,-2.3129614E-4,1.5352637E-4,8.5161537E-1,8.189835E-1,7.007874E-1,7.7952754E-1,4.1361596E-3,7.73659E-2,4.7247592E-2,2.3942687E-2,-4.393076E-3,-2.9010782E-2,3.3952665E-2,-4.090481E-2],"split_indices":[0,6,5,1,1,0,0,0,0,0,0,0,0,0,0],"split_type":[0,0,0,0,0,0,0,0,0,0,0,0,0,0,0],"sum_hessian":[2.6463552E3,6.7533813E2,1.9710171E3,5.0803417E1,6.245347E2,1.8194312E3,1.5158592E2,3.7241454E0,4.707927E1,1.1815807E2,5.0637668E2,1.1152468E3,7.0418427E2,1.3347693E2,1.8109007E1],"tree_param":{"num_deleted":"0","num_feature":"7","num_nodes":"15","size_leaf_vector":"1"}},{"base_weights":[-4.4473642E-4,4.7725827E-1,-2.6694566E-1,6.4917713E-1,1.895939E-1,-3.398475E-1,4.69755E-1,7.346788E-2,2.9024398E-2,-7.3554986E-3,2.5521753E-2,-1.2330401E-2,-4.342942E-2,6.8619564E-2,1.0400615E-2],"categories":[],"categories_nodes":[],"categories_segments":[],"categories_sizes":[],"default_left":[0,0,0,0,0,0,0,0,0,0,0,0,0,0,0],"id":11,"left_children":[1,3,5,7,9,11,13,-1,-1,-1,-1,-1,-1,-1,-1],"loss_changes":[3.360776E2,4.6628845E1,9.116735E1,3.2459473E1,3.842979E1,7.583139E1,3.586347E1,0E0,0E0,0E0,0E0,0E0,0E0,0E0,0E0],"parents":[2147483647,0,0,1,1,2,2,3,3,4,4,5,5,6,6],"right_children":[2,4,6,8,10,12,14,-1,-1,-1,-1,-1,-1,-1,-1],"split_conditions":[6.3779527E-1,6.062992E-1,1.5352637E-4,-2.3129614E-4,4.0035513E-5,7.401575E-1,7.0866144E-1,7.346788E-2,2.9024398E-2,-7.3554986E-3,2.5521753E-2,-1.2330401E-2,-4.342942E-2,6.8619564E-2,1.0400615E-2],"split_indices":[0,0,5,6,5,0,0,0,0,0,0,0,0,0,0],"split_type":[0,0,0,0,0,0,0,0,0,0,0,0,0,0,0],"sum_hessian":[2.637871E3,9.443438E2,1.6935273E3,5.903012E2,3.540426E2,1.5415215E3,1.5200595E2,4.404092E1,5.462603E2,1.7301503E2,1.8102757E2,1.3116824E3,2.29839E2,3.321582E1,1.1879013E2],"tree_param":{"num_deleted":"0","num_feature":"7","num_nodes":"15","size_leaf_vector":"1"}},{"base_weights":[-4.2493502E-4,4.5305073E-1,-2.5514424E-1,6.164391E-1,1.7986508E-1,-3.2510632E-1,4.4597515E-1,7.050378E-2,2.7533064E-2,-7.003323E-3,2.4136733E-2,-1.2743043E-2,-5.001807E-2,2.9888725E-2,-4.7957655E-2],"categories":[],"categories_nodes":[],"categories_segments":[],"categories_sizes":[],"default_left":[0,0,0,0,0,0,0,0,0,0,0,0,0,0,0],"id":12,"left_children":[1,3,5,7,9,11,13,-1,-1,-1,-1,-1,-1,-1,-1],"loss_changes":[3.039049E2,4.2127792E1,8.278256E1,3.0114395E1,3.452125E1,7.243335E1,3.3267296E1,0E0,0E0,0E0,0E0,0E0,0E0,0E0,0E0],"parents":[2147483647,0,0,1,1,2,2,3,3,4,4,5,5,6,6],"right_children":[2,4,6,8,10,12,14,-1,-1,-1,-1,-1,-1,-1,-1],"split_conditions":[6.3779527E-1,6.062992E-1,1.5352637E-4,-2.3129614E-4,4.0035513E-5,7.559055E-1,9.7479016E-1,7.050378E-2,2.7533064E-2,-7.003323E-3,2.4136733E-2,-1.2743043E-2,-5.001807E-2,2.9888725E-2,-4.7957655E-2],"split_indices":[0,0,5,6,5,0,1,0,0,0,0,0,0,0,0],"split_type":[0,0,0,0,0,0,0,0,0,0,0,0,0,0,0],"sum_hessian":[2.6290056E3,9.4530493E2,1.6837008E3,5.907371E2,3.5456775E2,1.5314222E3,1.5227858E2,4.364961E1,5.470875E2,1.726885E2,1.8187926E2,1.3883701E3,1.4305206E2,1.3795009E2,1.4328499E1],"tree_param":{"num_deleted":"0","num_feature":"7","num_nodes":"15","size_leaf_vector":"1"}},{"base_weights":[-4.4529053E-4,4.3026978E-1,-2.4384011E-1,5.856974E-1,1.7067748E-1,-3.109349E-1,4.2203838E-1,6.780186E-2,2.6130605E-2,-2.6217505E-2,1.512526E-2,-1.2162471E-2,-4.8720364E-2,3.797289E-2,-1.1419685E-2],"categories":[],"categories_nodes":[],"categories_segments":[],"categories_sizes":[],"default_left":[0,0,0,0,0,0,0,0,0,0,0,0,0,0,0],"id":13,"left_children":[1,3,5,7,9,11,13,-1,-1,-1,-1,-1,-1,-1,-1],"loss_changes":[2.749169E2,3.8103333E1,7.4990036E1,2.8052887E1,3.2777855E1,6.814604E1,3.3927925E1,0E0,0E0,0E0,0E0,0E0,0E0,0E0,0E0],"parents":[2147483647,0,0,1,1,2,2,3,3,4,4,5,5,6,6],"right_children":[2,4,6,8,10,12,14,-1,-1,-1,-1,-1,-1,-1,-1],"split_conditions":[6.3779527E-1,6.062992E-1,1.5352637E-4,-2.3129614E-4,2.5853202E-5,7.559055E-1,7.559055E-1,6.780186E-2,2.6130605E-2,-2.6217505E-2,1.512526E-2,-1.2162471E-2,-4.8720364E-2,3.797289E-2,-1.1419685E-2],"split_indices":[0,0,5,6,5,0,0,0,0,0,0,0,0,0,0],"split_type":[0,0,0,0,0,0,0,0,0,0,0,0,0,0,0],"sum_hessian":[2.6204058E3,9.4584924E2,1.6745566E3,5.908369E2,3.5501233E2,1.5217555E3,1.5280106E2,4.3171455E1,5.4766547E2,5.6125828E1,2.988865E2,1.3821221E3,1.396334E2,1.004986E2,5.2302464E1],"tree_param":{"num_deleted":"0","num_feature":"7","num_nodes":"15","size_leaf_vector":"1"}},{"base_weights":[-4.5315668E-4,4.0870813E-1,-2.3304397E-1,7.553895E-1,2.9905188E-1,-2.6536727E-1,1.0544244E0,4.2288486E-2,-6.99958E-2,2.6752844E-3,3.097398E-2,-1.1107826E-2,-5.5025138E-2,7.513024E-2,-1.8636839E-3],"categories":[],"categories_nodes":[],"categories_segments":[],"categories_sizes":[],"default_left":[0,0,0,0,0,0,0,0,0,0,0,0,0,0,0],"id":14,"left_children":[1,3,5,7,9,11,13,-1,-1,-1,-1,-1,-1,-1,-1],"loss_changes":[2.4870682E2,3.578134E1,6.9619156E1,4.5392258E1,5.671235E1,5.843969E1,2.0120476E1,0E0,0E0,0E0,0E0,0E0,0E0,0E0,0E0],"parents":[2147483647,0,0,1,1,2,2,3,3,4,4,5,5,6,6],"right_children":[2,4,6,8,10,12,14,-1,-1,-1,-1,-1,-1,-1,-1],"split_conditions":[6.3779527E-1,5.590551E-1,2.2317734E-4,8.994075E-1,4.0562125E-5,9.760044E-1,2.1629983E-4,4.2288486E-2,-6.99958E-2,2.6752844E-3,3.097398E-2,-1.1107826E-2,-5.5025138E-2,7.513024E-2,-1.8636839E-3],"split_indices":[0,0,5,1,5,1,6,0,0,0,0,0,0,0,0],"split_type":[0,0,0,0,0,0,0,0,0,0,0,0,0,0,0],"sum_hessian":[2.6113672E3,9.4616583E2,1.6652014E3,2.2594514E2,7.202207E2,1.6251931E3,4.000836E1,2.1743484E2,8.51029E0,4.0841565E2,3.1180505E2,1.5464445E3,7.87486E1,2.8097118E1,1.1911244E1],"tree_param":{"num_deleted":"0","num_feature":"7","num_nodes":"15","size_leaf_vector":"1"}},{"base_weights":[-4.509575E-4,4.9873197E-1,-1.7542888E-1,1.2831931E0,4.4555587E-1,-1.1391305E-1,-7.4302375E-1,1.9950985E-3,6.870958E-2,3.968738E-2,1.8256824E-2,-1.07681565E-2,1.7740866E-2,-7.21468E-3,-5.0335586E-2],"categories":[],"categories_nodes":[],"categories_segments":[],"categories_sizes":[],"default_left":[0,0,0,0,0,0,0,0,0,0,0,0,0,0,0],"id":15,"left_children":[1,3,5,7,9,11,13,-1,-1,-1,-1,-1,-1,-1,-1],"loss_changes":[2.2754103E2,2.7633163E1,6.72654E1,4.7412643E0,1.7483986E1,8.288855E1,2.9604042E1,0E0,0E0,0E0,0E0,0E0,0E0,0E0,0E0],"parents":[2147483647,0,0,1,1,2,2,3,3,4,4,5,5,6,6],"right_children":[2,4,6,8,10,12,14,-1,-1,-1,-1,-1,-1,-1,-1],"split_conditions":[6.1417323E-1,-2.4948944E-4,7.559055E-1,8.5161537E-1,8.189835E-1,8.571531E-5,9.237676E-1,1.9950985E-3,6.870958E-2,3.968738E-2,1.8256824E-2,-1.07681565E-2,1.7740866E-2,-7.21468E-3,-5.0335586E-2],"split_indices":[0,6,0,1,1,5,1,0,0,0,0,0,0,0,0],"split_type":[0,0,0,0,0,0,0,0,0,0,0,0,0,0,0],"sum_hessian":[2.6030525E3,6.7514E2,1.9279125E3,4.1391773E1,6.337482E2,1.7404802E3,1.8743225E2,2.9210215E0,3.8470753E1,1.172446E2,5.1650366E2,1.4312474E3,3.0923276E2,5.7781277E1,1.2965097E2],"tree_param":{"num_deleted":"0","num_feature":"7","num_nodes":"15","size_leaf_vector":"1"}},{"base_weights":[-4.35063E-4,3.7407157E-1,-2.1483E-1,3.9752832E-1,-1.0070984E0,-2.7761757E-1,4.0397352E-1,6.189239E-2,1.7663177E-2,-6.2049475E-2,3.99322E-2,-9.691662E-3,-3.894638E-2,2.7373267E-2,-4.6335693E-2],"categories":[],"categories_nodes":[],"categories_segments":[],"categories_sizes":[],"default_left":[0,0,0,0,0,0,0,0,0,0,0,0,0,0,0],"id":16,"left_children":[1,3,5,7,9,11,13,-1,-1,-1,-1,-1,-1,-1,-1],"loss_changes":[2.0853954E2,3.103418E1,6.428587E1,3.4173386E1,7.7796726E0,6.285771E1,2.9637638E1,0E0,0E0,0E0,0E0,0E0,0E0,0E0,0E0],"parents":[2147483647,0,0,1,1,2,2,3,3,4,4,5,5,6,6],"right_children":[2,4,6,8,10,12,14,-1,-1,-1,-1,-1,-1,-1,-1],"split_conditions":[6.3779527E-1,9.625382E-1,1.5352637E-4,-2.4948944E-4,4.3784815E-1,7.401575E-1,9.7479016E-1,6.189239E-2,1.7663177E-2,-6.2049475E-2,3.99322E-2,-9.691662E-3,-3.894638E-2,2.7373267E-2,-4.6335693E-2],"split_indices":[0,1,5,6,2,0,1,0,0,0,0,0,0,0,0],"split_type":[0,0,0,0,0,0,0,0,0,0,0,0,0,0,0],"sum_hessian":[2.5952527E3,9.44554E2,1.6506986E3,9.294806E2,1.50734215E1,1.4991383E3,1.5156033E2,4.5162094E1,8.8431854E2,1.3621795E1,1.4516261E0,1.2856528E3,2.1348549E2,1.3733923E2,1.4221096E1],"tree_param":{"num_deleted":"0","num_feature":"7","num_nodes":"15","size_leaf_vector":"1"}},{"base_weights":[-4.6256682E-4,4.1586137E-1,-1.7639545E-1,2.7454332E-1,6.61864E-1,-1.352722E-1,-1.0711021E0,3.915602E-2,3.084194E-3,4.2303007E-2,-3.6178326E-4,-1.2522059E-2,1.4365396E-2,-6.423389E-2,-2.1800524E-2],"categories":[],"categories_nodes":[],"categories_segments":[],"categories_sizes":[],"default_left":[0,0,0,0,0,0,0,0,0,0,0,0,0,0,0],"id":17,"left_children":[1,3,5,7,9,11,13,-1,-1,-1,-1,-1,-1,-1,-1],"loss_changes":[1.8964299E2,2.6556519E1,6.682001E1,5.3019463E1,3.4504265E1,8.481287E1,1.0268463E1,0E0,0E0,0E0,0E0,0E0,0E0,0E0,0E0],"parents":[2147483647,0,0,1,1,2,2,3,3,4,4,5,5,6,6],"right_children":[2,4,6,8,10,12,14,-1,-1,-1,-1,-1,-1,-1,-1],"split_conditions":[6.2204725E-1,4.0562125E-5,9.760044E-1,5.511811E-1,9.134024E-1,8.571531E-5,6.2456093E-6,3.915602E-2,3.084194E-3,4.2303007E-2,-3.6178326E-4,-1.2522059E-2,1.4365396E-2,-6.423389E-2,-2.1800524E-2],"split_indices":[0,5,1,0,1,5,6,0,0,0,0,0,0,0,0],"split_type":[0,0,0,0,0,0,0,0,0,0,0,0,0,0,0],"sum_hessian":[2.5871558E3,7.6812256E2,1.8190331E3,4.892089E2,2.7891367E2,1.7401998E3,7.8833275E1,1.4355035E2,3.4565854E2,2.1849875E2,6.041491E1,1.3678239E3,3.7237604E2,5.8228672E1,2.06046E1],"tree_param":{"num_deleted":"0","num_feature":"7","num_nodes":"15","size_leaf_vector":"1"}},{"base_weights":[-4.6691E-4,3.4145895E-1,-1.9755335E-1,3.6336666E-1,-9.638377E-1,-3.0157942E-1,1.3362052E-1,5.8713038E-2,1.6075654E-2,-5.967604E-2,3.9149124E-2,-1.1272318E-2,-4.409626E-2,2.3105538E-2,-1.7222328E-2],"categories":[],"categories_nodes":[],"categories_segments":[],"categories_sizes":[],"default_left":[0,0,0,0,0,0,0,0,0,0,0,0,0,0,0],"id":18,"left_children":[1,3,5,7,9,11,13,-1,-1,-1,-1,-1,-1,-1,-1],"loss_changes":[1.7395964E2,2.7341583E1,5.6454807E1,3.1152596E1,7.2954283E0,5.487269E1,6.173716E1,0E0,0E0,0E0,0E0,0E0,0E0,0E0,0E0],"parents":[2147483647,0,0,1,1,2,2,3,3,4,4,5,5,6,6],"right_children":[2,4,6,8,10,12,14,-1,-1,-1,-1,-1,-1,-1,-1],"split_conditions":[6.3779527E-1,9.625382E-1,8.740388E-5,-2.4948944E-4,4.3784815E-1,7.401575E-1,9.424365E-1,5.8713038E-2,1.6075654E-2,-5.967604E-2,3.9149124E-2,-1.1272318E-2,-4.409626E-2,2.3105538E-2,-1.7222328E-2],"split_indices":[0,1,5,6,2,0,1,0,0,0,0,0,0,0,0],"split_type":[0,0,0,0,0,0,0,0,0,0,0,0,0,0,0],"sum_hessian":[2.5794258E3,9.428829E2,1.6365428E3,9.2802875E2,1.485415E1,1.2454272E3,3.911157E2,4.4220497E1,8.838082E2,1.3407935E1,1.4462149E0,1.1022202E3,1.4320703E2,2.3184401E2,1.5927167E2],"tree_param":{"num_deleted":"0","num_feature":"7","num_nodes":"15","size_leaf_vector":"1"}},{"base_weights":[-4.8989244E-4,4.1627803E-1,-1.4783782E-1,8.8184667E-1,3.3752546E-1,-8.9247115E-2,-7.024277E-1,-4.7529884E-2,4.6002753E-2,3.6446784E-2,1.1927469E-2,-2.2664221E-3,-5.0475176E-2,-5.473958E-3,-4.8439324E-2],"categories":[],"categories_nodes":[],"categories_segments":[],"categories_sizes":[],"default_left":[0,0,0,0,0,0,0,0,0,0,0,0,0,0,0],"id":19,"left_children":[1,3,5,7,9,11,13,-1,-1,-1,-1,-1,-1,-1,-1],"loss_changes":[1.5808316E2,2.4355476E1,6.1735172E1,7.6423492E0,2.2168823E1,6.952124E1,2.8571945E1,0E0,0E0,0E0,0E0,0E0,0E0,0E0,0E0],"parents":[2147483647,0,0,1,1,2,2,3,3,4,4,5,5,6,6],"right_children":[2,4,6,8,10,12,14,-1,-1,-1,-1,-1,-1,-1,-1],"split_conditions":[6.1417323E-1,-1.4059016E-4,7.559055E-1,8.31891E-1,8.189835E-1,9.760044E-1,9.237676E-1,-4.7529884E-2,4.6002753E-2,3.6446784E-2,1.1927469E-2,-2.2664221E-3,-5.0475176E-2,-5.473958E-3,-4.8439324E-2],"split_indices":[0,6,0,1,1,1,1,0,0,0,0,0,0,0,0],"split_type":[0,0,0,0,0,0,0,0,0,0,0,0,0,0,0],"sum_hessian":[2.5722273E3,6.71393E2,1.9008342E3,9.566196E1,5.75731E2,1.7202555E3,1.8057877E2,1.46617E0,9.419579E1,1.1491685E2,4.6081418E2,1.6428984E3,7.735706E1,5.6411224E1,1.2416755E2],"tree_param":{"num_deleted":"0","num_feature":"7","num_nodes":"15","size_leaf_vector":"1"}},{"base_weights":[-5.236188E-4,3.1091473E-1,-1.8119156E-1,3.3144265E-1,-9.294262E-1,-2.1028954E-1,9.646338E-1,9.649666E-3,2.7787218E-2,-5.7695974E-2,3.804623E-2,-7.3970333E-3,-3.5623405E-2,7.053915E-2,-4.5837914E-3],"categories":[],"categories_nodes":[],"categories_segments":[],"categories_sizes":[],"default_left":[0,0,0,0,0,0,0,0,0,0,0,0,0,0,0],"id":20,"left_children":[1,3,5,7,9,11,13,-1,-1,-1,-1,-1,-1,-1,-1],"loss_changes":[1.4444528E2,2.4305153E1,5.4371E1,2.8707329E1,6.800543E0,4.9529068E1,1.9175823E1,0E0,0E0,0E0,0E0,0E0,0E0,0E0,0E0],"parents":[2147483647,0,0,1,1,2,2,3,3,4,4,5,5,6,6],"right_children":[2,4,6,8,10,12,14,-1,-1,-1,-1,-1,-1,-1,-1],"split_conditions":[6.3779527E-1,9.625382E-1,2.2317734E-4,4.0562125E-5,4.3784815E-1,7.559055E-1,2.1629983E-4,9.649666E-3,2.7787218E-2,-5.7695974E-2,3.804623E-2,-7.3970333E-3,-3.5623405E-2,7.053915E-2,-4.5837914E-3],"split_indices":[0,1,5,5,2,0,6,0,0,0,0,0,0,0,0],"split_type":[0,0,0,0,0,0,0,0,0,0,0,0,0,0,0],"sum_hessian":[2.565142E3,9.41481E2,1.6236611E3,9.268738E2,1.4607194E1,1.5842461E3,3.941509E1,5.742689E2,3.526049E2,1.3174814E1,1.4323804E0,1.4104266E3,1.7381944E2,2.7475006E1,1.1940083E1],"tree_param":{"num_deleted":"0","num_feature":"7","num_nodes":"15","size_leaf_vector":"1"}},{"base_weights":[-5.0703826E-4,3.811121E-1,-1.3590853E-1,8.269676E-1,3.064039E-1,-1.0042915E-1,-9.7445655E-1,-4.6389252E-2,4.3212686E-2,-2.5191342E-3,2.0408494E-2,-1.0025117E-2,1.4334095E-2,-5.917551E-2,-1.8017361E-2],"categories":[],"categories_nodes":[],"categories_segments":[],"categories_sizes":[],"default_left":[0,0,0,0,0,0,0,0,0,0,0,0,0,0,0],"id":21,"left_children":[1,3,5,7,9,11,13,-1,-1,-1,-1,-1,-1,-1,-1],"loss_changes":[1.322619E2,2.2075111E1,5.611126E1,7.0577316E0,2.0924511E1,7.032037E1,9.404701E0,0E0,0E0,0E0,0E0,0E0,0E0,0E0,0E0],"parents":[2147483647,0,0,1,1,2,2,3,3,4,4,5,5,6,6],"right_children":[2,4,6,8,10,12,14,-1,-1,-1,-1,-1,-1,-1,-1],"split_conditions":[6.1417323E-1,-1.4059016E-4,9.760044E-1,8.31891E-1,-4.5017227E-5,8.571531E-5,6.2456093E-6,-4.6389252E-2,4.3212686E-2,-2.5191342E-3,2.0408494E-2,-1.0025117E-2,1.4334095E-2,-5.917551E-2,-1.8017361E-2],"split_indices":[0,6,1,1,6,5,6,0,0,0,0,0,0,0,0],"split_type":[0,0,0,0,0,0,0,0,0,0,0,0,0,0,0],"sum_hessian":[2.5576511E3,6.6934283E2,1.8883082E3,9.4615005E1,5.7472784E2,1.8127305E3,7.557774E1,1.4716903E0,9.314331E1,1.27660645E2,4.470672E2,1.440758E3,3.719724E2,5.569201E1,1.9885738E1],"tree_param":{"num_deleted":"0","num_feature":"7","num_nodes":"15","size_leaf_vector":"1"}},{"base_weights":[-5.294562E-4,1.4619575E-1,-3.3855656E-1,-4.436118E-2,3.6609158E-1,-1.5063003E-2,-6.867171E-1,2.1242319E-2,-1.2845437E-2,2.1054449E-2,-4.5647997E-2,-1.74152E-2,1.840459E-2,-4.242919E-2,-1.7384993E-2],"categories":[],"categories_nodes":[],"categories_segments":[],"categories_sizes":[],"default_left":[0,0,0,0,0,0,0,0,0,0,0,0,0,0,0],"id":22,"left_children":[1,3,5,7,9,11,13,-1,-1,-1,-1,-1,-1,-1,-1],"loss_changes":[1.2663345E2,7.462093E1,8.7030266E1,9.532411E1,5.8537537E1,5.1408478E1,2.0129364E1,0E0,0E0,0E0,0E0,0E0,0E0,0E0,0E0],"parents":[2147483647,0,0,1,1,2,2,3,3,4,4,5,5,6,6],"right_children":[2,4,6,8,10,12,14,-1,-1,-1,-1,-1,-1,-1,-1],"split_conditions":[7.007874E-1,4.1610565E-5,9.3286127E-1,5.826771E-1,9.76813E-1,9.079492E-1,9.9762954E-5,2.1242319E-2,-1.2845437E-2,2.1054449E-2,-4.5647997E-2,-1.74152E-2,1.840459E-2,-4.242919E-2,-1.7384993E-2],"split_indices":[0,5,1,0,1,1,5,0,0,0,0,0,0,0,0],"split_type":[0,0,0,0,0,0,0,0,0,0,0,0,0,0,0],"sum_hessian":[2.551245E3,1.779428E3,7.7181714E2,9.537378E2,8.256902E2,4.0062213E2,3.7119504E2,2.970309E2,6.567069E2,7.922935E2,3.3396706E1,2.1431609E2,1.8630603E2,2.5022154E2,1.2097348E2],"tree_param":{"num_deleted":"0","num_feature":"7","num_nodes":"15","size_leaf_vector":"1"}},{"base_weights":[-6.10289E-4,1.3888478E-1,-3.2444182E-1,-3.5116278E-2,3.556878E-1,-1.4382512E-2,-6.6316485E-1,2.2635004E-2,-1.0538909E-2,2.0472232E-2,-4.3994147E-2,-6.1781913E-2,4.345353E-3,-4.1294307E-2,-1.687625E-2],"categories":[],"categories_nodes":[],"categories_segments":[],"categories_sizes":[],"default_left":[0,0,0,0,0,0,0,0,0,0,0,0,0,0,0],"id":23,"left_children":[1,3,5,7,9,11,13,-1,-1,-1,-1,-1,-1,-1,-1],"loss_changes":[1.150397E2,6.715839E1,8.0515434E1,8.478746E1,5.30039E1,4.9751263E1,1.913646E1,0E0,0E0,0E0,0E0,0E0,0E0,0E0,0E0],"parents":[2147483647,0,0,1,1,2,2,3,3,4,4,5,5,6,6],"right_children":[2,4,6,8,10,12,14,-1,-1,-1,-1,-1,-1,-1,-1],"split_conditions":[7.007874E-1,4.2537915E-5,9.3286127E-1,5.748031E-1,9.76813E-1,8.4135616E-1,9.751967E-5,2.2635004E-2,-1.0538909E-2,2.0472232E-2,-4.3994147E-2,-6.1781913E-2,4.345353E-3,-4.1294307E-2,-1.687625E-2],"split_indices":[0,5,1,0,1,1,5,0,0,0,0,0,0,0,0],"split_type":[0,0,0,0,0,0,0,0,0,0,0,0,0,0,0],"sum_hessian":[2.544655E3,1.7789276E3,7.657275E2,9.873452E2,7.915824E2,4.0032324E2,3.6540424E2,2.609911E2,7.263541E2,7.592191E2,3.2363266E1,2.9801792E1,3.7052145E2,2.426277E2,1.2277654E2],"tree_param":{"num_deleted":"0","num_feature":"7","num_nodes":"15","size_leaf_vector":"1"}},{"base_weights":[-7.029529E-4,2.665775E-1,-1.5718445E-1,2.8572336E-1,-9.046117E-1,-2.555598E-1,1.528092E-1,5.263892E-2,1.2411994E-2,-5.6237694E-2,3.752264E-2,-1.033526E-2,-5.1202055E-2,1.3645564E-2,-4.6875592E-2],"categories":[],"categories_nodes":[],"categories_segments":[],"categories_sizes":[],"default_left":[0,0,0,0,0,0,0,0,0,0,0,0,0,0,0],"id":24,"left_children":[1,3,5,7,9,11,13,-1,-1,-1,-1,-1,-1,-1,-1],"loss_changes":[1.06240036E2,2.1291481E1,4.889771E1,2.62958E1,6.4285E0,4.546295E1,5.087846E1,0E0,0E0,0E0,0E0,0E0,0E0,0E0,0E0],"parents":[2147483647,0,0,1,1,2,2,3,3,4,4,5,5,6,6],"right_children":[2,4,6,8,10,12,14,-1,-1,-1,-1,-1,-1,-1,-1],"split_conditions":[6.3779527E-1,9.625382E-1,8.740388E-5,-2.4948944E-4,4.3784815E-1,7.559055E-1,7.7952754E-1,5.263892E-2,1.2411994E-2,-5.6237694E-2,3.752264E-2,-1.033526E-2,-5.1202055E-2,1.3645564E-2,-4.6875592E-2],"split_indices":[0,1,5,6,2,0,0,0,0,0,0,0,0,0,0],"split_type":[0,0,0,0,0,0,0,0,0,0,0,0,0,0,0],"sum_hessian":[2.5381401E3,9.3699274E2,1.6011473E3,9.2266565E2,1.4327116E1,1.2155671E3,3.8558017E2,4.1725082E1,8.8094055E2,1.2927968E1,1.3991475E0,1.1441022E3,7.146495E1,3.4799698E2,3.75832E1],"tree_param":{"num_deleted":"0","num_feature":"7","num_nodes":"15","size_leaf_vector":"1"}},{"base_weights":[-7.281525E-4,1.287994E-1,-3.046607E-1,-4.482033E-2,3.2721025E-1,-6.03959E-3,-6.359247E-1,1.8755719E-2,-1.17780315E-2,1.8806985E-2,-4.2977333E-2,-6.0307212E-2,4.4855042E-3,-3.9130177E-2,-1.5260436E-2],"categories":[],"categories_nodes":[],"categories_segments":[],"categories_sizes":[],"default_left":[0,0,0,0,0,0,0,0,0,0,0,0,0,0,0],"id":25,"left_children":[1,3,5,7,9,11,13,-1,-1,-1,-1,-1,-1,-1,-1],"loss_changes":[9.9721954E1,6.1199665E1,7.487495E1,7.6032555E1,4.8462196E1,4.596813E1,1.7168564E1,0E0,0E0,0E0,0E0,0E0,0E0,0E0,0E0],"parents":[2147483647,0,0,1,1,2,2,3,3,4,4,5,5,6,6],"right_children":[2,4,6,8,10,12,14,-1,-1,-1,-1,-1,-1,-1,-1],"split_conditions":[7.007874E-1,4.1610565E-5,9.3286127E-1,5.826771E-1,9.76813E-1,8.4135616E-1,1.0608446E-4,1.8755719E-2,-1.17780315E-2,1.8806985E-2,-4.2977333E-2,-6.0307212E-2,4.4855042E-3,-3.9130177E-2,-1.5260436E-2],"split_indices":[0,5,1,0,1,1,5,0,0,0,0,0,0,0,0],"split_type":[0,0,0,0,0,0,0,0,0,0,0,0,0,0,0],"sum_hessian":[2.531098E3,1.7751534E3,7.559445E2,9.471353E2,8.280181E2,3.9809564E2,3.5784888E2,2.955295E2,6.5160583E2,7.958871E2,3.2131E1,2.8558096E1,3.6953754E2,2.4695381E2,1.1089507E2],"tree_param":{"num_deleted":"0","num_feature":"7","num_nodes":"15","size_leaf_vector":"1"}},{"base_weights":[-8.125294E-4,1.2239269E-1,-2.9196376E-1,-3.6118288E-2,3.1810898E-1,-5.952538E-3,-6.1399746E-1,3.022926E-2,-7.454934E-3,2.0831272E-2,-1.3345654E-2,-1.594555E-2,1.726474E-2,-3.8381632E-2,-1.5423466E-2],"categories":[],"categories_nodes":[],"categories_segments":[],"categories_sizes":[],"default_left":[0,0,0,0,0,0,0,0,0,0,0,0,0,0,0],"id":26,"left_children":[1,3,5,7,9,11,13,-1,-1,-1,-1,-1,-1,-1,-1],"loss_changes":[9.062395E1,5.508303E1,6.91849E1,7.115313E1,4.589956E1,4.3954716E1,1.6348633E1,0E0,0E0,0E0,0E0,0E0,0E0,0E0,0E0],"parents":[2147483647,0,0,1,1,2,2,3,3,4,4,5,5,6,6],"right_children":[2,4,6,8,10,12,14,-1,-1,-1,-1,-1,-1,-1,-1],"split_conditions":[7.007874E-1,4.2537915E-5,9.3286127E-1,5.511811E-1,9.606641E-1,9.079492E-1,9.9762954E-5,3.022926E-2,-7.454934E-3,2.0831272E-2,-1.3345654E-2,-1.594555E-2,1.726474E-2,-3.8381632E-2,-1.5423466E-2],"split_indices":[0,5,1,0,1,1,5,0,0,0,0,0,0,0,0],"split_type":[0,0,0,0,0,0,0,0,0,0,0,0,0,0,0],"sum_hessian":[2.524364E3,1.774174E3,7.5019E2,9.8071027E2,7.934636E2,3.9785623E2,3.5233377E2,1.4636035E2,8.343499E2,6.7935034E2,1.14113304E2,2.1044423E2,1.8741199E2,2.334372E2,1.1889658E2],"tree_param":{"num_deleted":"0","num_feature":"7","num_nodes":"15","size_leaf_vector":"1"}},{"base_weights":[-8.354322E-4,3.3754E-1,-1.0141317E-1,4.4539306E-1,-1.739629E-2,-9.832105E-1,-7.117428E-2,6.337776E-2,2.0197112E-2,-2.344227E-2,3.1213148E-2,-1.9125482E-2,-6.1727475E-2,-1.9914124E-3,-4.335166E-2],"categories":[],"categories_nodes":[],"categories_segments":[],"categories_sizes":[],"default_left":[0,0,0,0,0,0,0,0,0,0,0,0,0,0,0],"id":27,"left_children":[1,3,5,7,9,11,13,-1,-1,-1,-1,-1,-1,-1,-1],"loss_changes":[8.575807E1,2.211023E1,5.172505E1,1.4580193E1,3.9549572E1,9.239555E0,4.684444E1,0E0,0E0,0E0,0E0,0E0,0E0,0E0,0E0],"parents":[2147483647,0,0,1,1,2,2,3,3,4,4,5,5,6,6],"right_children":[2,4,6,8,10,12,14,-1,-1,-1,-1,-1,-1,-1,-1],"split_conditions":[6.062992E-1,7.623031E-5,8.4135616E-1,-3.2962346E-4,3.7418256E-5,6.535433E-1,9.760044E-1,6.337776E-2,2.0197112E-2,-2.344227E-2,3.1213148E-2,-1.9125482E-2,-6.1727475E-2,-1.9914124E-3,-4.335166E-2],"split_indices":[0,6,1,6,5,0,1,0,0,0,0,0,0,0,0],"split_type":[0,0,0,0,0,0,0,0,0,0,0,0,0,0,0],"sum_hessian":[2.5178418E3,5.763755E2,1.9414662E3,4.4185574E2,1.3451974E2,6.3325134E1,1.8781411E3,1.978801E1,4.2206775E2,7.912176E1,5.539799E1,1.9423883E1,4.390125E1,1.8079812E3,7.015985E1],"tree_param":{"num_deleted":"0","num_feature":"7","num_nodes":"15","size_leaf_vector":"1"}},{"base_weights":[-8.265907E-4,1.1401449E-1,-2.744412E-1,-4.402345E-2,2.932002E-1,-5.4720235E-3,-5.9567565E-1,1.2617782E-2,-1.3479717E-2,1.6807856E-2,-4.0030908E-2,-5.7928838E-2,3.908676E-3,-3.1773616E-2,3.2702934E-2],"categories":[],"categories_nodes":[],"categories_segments":[],"categories_sizes":[],"default_left":[0,0,0,0,0,0,0,0,0,0,0,0,0,0,0],"id":28,"left_children":[1,3,5,7,9,11,13,-1,-1,-1,-1,-1,-1,-1,-1],"loss_changes":[7.900317E1,5.0163E1,6.4219315E1,6.303662E1,3.927204E1,3.9208603E1,1.726239E1,0E0,0E0,0E0,0E0,0E0,0E0,0E0,0E0],"parents":[2147483647,0,0,1,1,2,2,3,3,4,4,5,5,6,6],"right_children":[2,4,6,8,10,12,14,-1,-1,-1,-1,-1,-1,-1,-1],"split_conditions":[7.007874E-1,4.1610565E-5,9.3318826E-1,6.062992E-1,9.76813E-1,8.4135616E-1,2.2317734E-4,1.2617782E-2,-1.3479717E-2,1.6807856E-2,-4.0030908E-2,-5.7928838E-2,3.908676E-3,-3.1773616E-2,3.2702934E-2],"split_indices":[0,5,1,0,1,1,5,0,0,0,0,0,0,0,0],"split_type":[0,0,0,0,0,0,0,0,0,0,0,0,0,0,0],"sum_hessian":[2.512251E3,1.7699526E3,7.422983E2,9.4087524E2,8.290774E2,4.045696E2,3.3772867E2,4.0656635E2,5.3430896E2,7.984144E2,3.0663015E1,2.6493235E1,3.780764E2,3.2778226E2,9.946418E0],"tree_param":{"num_deleted":"0","num_feature":"7","num_nodes":"15","size_leaf_vector":"1"}},{"base_weights":[-8.7862136E-4,2.202742E-1,-1.3152033E-1,2.3782231E-1,-8.6632055E-1,-1.7992531E-1,4.6130884E-1,4.876448E-2,1.0167552E-2,-5.426028E-2,3.7766512E-2,-6.200372E-3,-3.8192336E-2,3.2870226E-2,-4.5003936E-2],"categories":[],"categories_nodes":[],"categories_segments":[],"categories_sizes":[],"default_left":[0,0,0,0,0,0,0,0,0,0,0,0,0,0,0],"id":29,"left_children":[1,3,5,7,9,11,13,-1,-1,-1,-1,-1,-1,-1,-1],"loss_changes":[7.2437164E1,1.7959309E1,4.5311172E1,2.311449E1,6.1485577E0,4.750689E1,3.2428963E1,0E0,0E0,0E0,0E0,0E0,0E0,0E0,0E0],"parents":[2147483647,0,0,1,1,2,2,3,3,4,4,5,5,6,6],"right_children":[2,4,6,8,10,12,14,-1,-1,-1,-1,-1,-1,-1,-1],"split_conditions":[6.3779527E-1,9.625382E-1,1.6583808E-4,-2.4948944E-4,4.3784815E-1,7.559055E-1,9.730667E-1,4.876448E-2,1.0167552E-2,-5.426028E-2,3.7766512E-2,-6.200372E-3,-3.8192336E-2,3.2870226E-2,-4.5003936E-2],"split_indices":[0,1,5,6,2,0,1,0,0,0,0,0,0,0,0],"split_type":[0,0,0,0,0,0,0,0,0,0,0,0,0,0,0],"sum_hessian":[2.5051865E3,9.300663E2,1.5751204E3,9.1605347E2,1.40128E1,1.4568628E3,1.1825754E2,3.9688023E1,8.763655E2,1.26377945E1,1.3750054E0,1.3306487E3,1.26214096E2,1.0382027E2,1.443727E1],"tree_param":{"num_deleted":"0","num_feature":"7","num_nodes":"15","size_leaf_vector":"1"}},{"base_weights":[-8.673133E-4,1.0539331E-1,-2.5671294E-1,8.227179E-2,1.2520571E0,6.5753004E-3,-5.6243026E-1,1.4194392E-2,-7.817178E-4,7.7601E-2,-6.837317E-2,-1.4373048E-2,1.6455058E-2,-1.920864E-2,-4.2669527E-2],"categories":[],"categories_nodes":[],"categories_segments":[],"categories_sizes":[],"default_left":[0,0,0,0,0,0,0,0,0,0,0,0,0,0,0],"id":30,"left_children":[1,3,5,7,9,11,13,-1,-1,-1,-1,-1,-1,-1,-1],"loss_changes":[6.797231E1,4.6732746E1,5.906036E1,3.4206978E1,2.9503319E1,3.757239E1,1.7280891E1,0E0,0E0,0E0,0E0,0E0,0E0,0E0,0E0],"parents":[2147483647,0,0,1,1,2,2,3,3,4,4,5,5,6,6],"right_children":[2,4,6,8,10,12,14,-1,-1,-1,-1,-1,-1,-1,-1],"split_conditions":[7.007874E-1,1.481893E-4,9.3286127E-1,6.062992E-1,6.2369465E-5,9.079492E-1,7.401575E-1,1.4194392E-2,-7.817178E-4,7.7601E-2,-6.837317E-2,-1.4373048E-2,1.6455058E-2,-1.920864E-2,-4.2669527E-2],"split_indices":[0,5,1,0,6,1,0,0,0,0,0,0,0,0,0],"split_type":[0,0,0,0,0,0,0,0,0,0,0,0,0,0,0],"sum_hessian":[2.4982446E3,1.7655465E3,7.326982E2,1.7317E3,3.3846542E1,3.941924E2,3.385058E2,5.6542755E2,1.1662723E3,3.073462E1,3.1119223E0,2.0626033E2,1.8793207E2,2.1134512E2,1.2716067E2],"tree_param":{"num_deleted":"0","num_feature":"7","num_nodes":"15","size_leaf_vector":"1"}},{"base_weights":[-8.6842355E-4,1.0026393E-1,-2.4577573E-1,-4.59999E-2,2.7994633E-1,7.331124E-4,-5.4927033E-1,-5.2604987E-3,6.270289E-2,1.8294876E-2,-1.1945757E-2,-5.6575872E-2,3.9582597E-3,-3.27527E-2,-3.2714054E-3],"categories":[],"categories_nodes":[],"categories_segments":[],"categories_sizes":[],"default_left":[0,0,0,0,0,0,0,0,0,0,0,0,0,0,0],"id":31,"left_children":[1,3,5,7,9,11,13,-1,-1,-1,-1,-1,-1,-1,-1],"loss_changes":[6.175375E1,4.638867E1,5.4515713E1,7.50782E1,3.540741E1,3.5885555E1,1.6672913E1,0E0,0E0,0E0,0E0,0E0,0E0,0E0,0E0],"parents":[2147483647,0,0,1,1,2,2,3,3,4,4,5,5,6,6],"right_children":[2,4,6,8,10,12,14,-1,-1,-1,-1,-1,-1,-1,-1],"split_conditions":[7.007874E-1,4.2537915E-5,9.3318826E-1,9.450454E-1,9.606641E-1,8.4135616E-1,1.481893E-4,-5.2604987E-3,6.270289E-2,1.8294876E-2,-1.1945757E-2,-5.6575872E-2,3.9582597E-3,-3.27527E-2,-3.2714054E-3],"split_indices":[0,5,1,1,1,1,5,0,0,0,0,0,0,0,0],"split_type":[0,0,0,0,0,0,0,0,0,0,0,0,0,0,0],"sum_hessian":[2.4912874E3,1.7636104E3,7.2767706E2,9.7262494E2,7.909854E2,4.020862E2,3.2559082E2,9.3113617E2,4.1488773E1,6.788297E2,1.12155685E2,2.5178665E1,3.7690756E2,2.668868E2,5.8704014E1],"tree_param":{"num_deleted":"0","num_feature":"7","num_nodes":"15","size_leaf_vector":"1"}},{"base_weights":[-8.973299E-4,2.8159758E-1,-8.5168146E-2,3.8457072E-1,-5.4848675E-2,-6.2865965E-2,-6.5183386E-2,2.4468672E-2,4.671996E-3,-2.3864485E-2,2.7597813E-2,-2.0180005E-3,-4.5315932E-2],"categories":[],"categories_nodes":[],"categories_segments":[],"categories_sizes":[],"default_left":[0,0,0,0,0,0,0,0,0,0,0,0,0],"id":32,"left_children":[1,3,5,7,9,-1,11,-1,-1,-1,-1,-1,-1],"loss_changes":[5.926269E1,1.983738E1,4.483354E1,1.3320335E1,3.484694E1,0E0,3.934935E1,0E0,0E0,0E0,0E0,0E0,0E0],"parents":[2147483647,0,0,1,1,2,2,3,3,4,4,6,6],"right_children":[2,4,6,8,10,-1,12,-1,-1,-1,-1,-1,-1],"split_conditions":[6.062992E-1,7.623031E-5,8.2338744E-1,8.846904E-1,3.7418256E-5,-6.2865965E-2,7.7952754E-1,2.4468672E-2,4.671996E-3,-2.3864485E-2,2.7597813E-2,-2.0180005E-3,-4.5315932E-2],"split_indices":[0,6,1,1,5,0,0,0,0,0,0,0,0],"split_type":[0,0,0,0,0,0,0,0,0,0,0,0,0],"sum_hessian":[2.487386E3,5.7098224E2,1.9164037E3,4.3706927E2,1.3391298E2,3.1088356E1,1.8853153E3,3.2087735E2,1.1619194E2,7.907592E1,5.483706E1,1.8322893E3,5.3026085E1],"tree_param":{"num_deleted":"0","num_feature":"7","num_nodes":"13","size_leaf_vector":"1"}},{"base_weights":[-9.0286235E-4,1.9056217E-1,-1.1484583E-1,-7.0858175E-1,2.1049774E-1,-2.1236815E-1,1.7663568E-1,-2.2638603E-3,-4.893727E-2,-3.537807E-3,1.3958882E-2,-8.588765E-3,-4.7572684E-2,1.4295967E-2,-4.39381E-2],"categories":[],"categories_nodes":[],"categories_segments":[],"categories_sizes":[],"default_left":[0,0,0,0,0,0,0,0,0,0,0,0,0,0,0],"id":33,"left_children":[1,3,5,7,9,11,13,-1,-1,-1,-1,-1,-1,-1,-1],"loss_changes":[5.419916E1,1.6763428E1,4.4310448E1,3.5995169E0,1.7550354E1,3.4862816E1,4.534867E1,0E0,0E0,0E0,0E0,0E0,0E0,0E0,0E0],"parents":[2147483647,0,0,1,1,2,2,3,3,4,4,5,5,6,6],"right_children":[2,4,6,8,10,12,14,-1,-1,-1,-1,-1,-1,-1,-1],"split_conditions":[6.3779527E-1,1.8166043E-1,8.571531E-5,4.1371015E-5,2.403061E-5,7.559055E-1,7.7952754E-1,-2.2638603E-3,-4.893727E-2,-3.537807E-3,1.3958882E-2,-8.588765E-3,-4.7572684E-2,1.4295967E-2,-4.39381E-2],"split_indices":[0,2,5,5,5,0,0,0,0,0,0,0,0,0,0],"split_type":[0,0,0,0,0,0,0,0,0,0,0,0,0,0,0],"sum_hessian":[2.4823628E3,9.2588E2,1.5564828E3,1.93338E1,9.065462E2,1.1664797E3,3.900031E2,5.933496E0,1.3400303E1,1.7791771E2,7.2862854E2,1.1069169E3,5.9562878E1,3.5406924E2,3.5933853E1],"tree_param":{"num_deleted":"0","num_feature":"7","num_nodes":"15","size_leaf_vector":"1"}},{"base_weights":[-9.4669196E-4,9.0376064E-2,-2.2501457E-1,6.8621665E-2,1.199628E0,-2.366358E-3,-5.481559E-1,-3.1796207E-3,1.0290413E-2,7.481443E-2,-6.6388704E-2,-5.5278945E-3,3.5581034E-2,-2.932599E-2,3.190026E-2],"categories":[],"categories_nodes":[],"categories_segments":[],"categories_sizes":[],"default_left":[0,0,0,0,0,0,0,0,0,0,0,0,0,0,0],"id":34,"left_children":[1,3,5,7,9,11,13,-1,-1,-1,-1,-1,-1,-1,-1],"loss_changes":[5.0723164E1,4.241462E1,5.163903E1,3.1360489E1,2.733908E1,3.2983025E1,1.3698105E1,0E0,0E0,0E0,0E0,0E0,0E0,0E0,0E0],"parents":[2147483647,0,0,1,1,2,2,3,3,4,4,5,5,6,6],"right_children":[2,4,6,8,10,12,14,-1,-1,-1,-1,-1,-1,-1,-1],"split_conditions":[7.007874E-1,1.481893E-4,9.360226E-1,4.0035513E-5,6.2369465E-5,1.6583808E-4,2.2317734E-4,-3.1796207E-3,1.0290413E-2,7.481443E-2,-6.6388704E-2,-5.5278945E-3,3.5581034E-2,-2.932599E-2,3.190026E-2],"split_indices":[0,5,1,5,6,5,5,0,0,0,0,0,0,0,0],"split_type":[0,0,0,0,0,0,0,0,0,0,0,0,0,0,0],"sum_hessian":[2.4768418E3,1.7600852E3,7.1675665E2,1.7272722E3,3.281301E1,4.249609E2,2.9179575E2,8.7985004E2,8.474221E2,2.9731205E1,3.0818064E0,3.6977368E2,5.5187206E1,2.831436E2,8.652158E0],"tree_param":{"num_deleted":"0","num_feature":"7","num_nodes":"15","size_leaf_vector":"1"}},{"base_weights":[-9.033588E-4,2.575998E-1,-7.8145355E-2,3.560772E-1,-6.297171E-2,-6.1688747E-2,-5.9176423E-2,5.884369E-2,1.5953038E-2,-2.2864137E-2,2.5440117E-2,-1.5980722E-3,-3.9704494E-2],"categories":[],"categories_nodes":[],"categories_segments":[],"categories_sizes":[],"default_left":[0,0,0,0,0,0,0,0,0,0,0,0,0],"id":35,"left_children":[1,3,5,7,9,-1,11,-1,-1,-1,-1,-1,-1],"loss_changes":[4.939635E1,1.7989662E1,4.168032E1,1.2857563E1,3.057894E1,0E0,3.7475918E1,0E0,0E0,0E0,0E0,0E0,0E0],"parents":[2147483647,0,0,1,1,2,2,3,3,4,4,6,6],"right_children":[2,4,6,8,10,-1,12,-1,-1,-1,-1,-1,-1],"split_conditions":[6.062992E-1,7.623031E-5,8.2338744E-1,-3.2962346E-4,3.7418256E-5,-6.1688747E-2,9.760044E-1,5.884369E-2,1.5953038E-2,-2.2864137E-2,2.5440117E-2,-1.5980722E-3,-3.9704494E-2],"split_indices":[0,6,1,6,5,0,1,0,0,0,0,0,0],"split_type":[0,0,0,0,0,0,0,0,0,0,0,0,0],"sum_hessian":[2.471854E3,5.68141E2,1.903713E3,4.345419E2,1.3359906E2,2.9709387E1,1.8740037E3,1.742261E1,4.171193E2,7.918865E1,5.4410416E1,1.8080908E3,6.59129E1],"tree_param":{"num_deleted":"0","num_feature":"7","num_nodes":"13","size_leaf_vector":"1"}},{"base_weights":[-8.828056E-4,3.441505E-2,-5.310908E-1,6.666052E-2,-5.5307734E-1,5.1753335E-2,-8.167133E-1,3.0840961E-2,5.534267E-4,4.8203107E-2,-3.1487014E-2,-4.530726E-2,4.1029226E-2,-5.2828975E-2,-1.7215703E-2],"categories":[],"categories_nodes":[],"categories_segments":[],"categories_sizes":[],"default_left":[0,0,0,0,0,0,0,0,0,0,0,0,0,0,0],"id":36,"left_children":[1,3,5,7,9,11,13,-1,-1,-1,-1,-1,-1,-1,-1],"loss_changes":[4.620538E1,4.3888172E1,2.569619E1,6.7133354E1,1.4627838E1,3.8761036E1,1.1361839E1,0E0,0E0,0E0,0E0,0E0,0E0,0E0,0E0],"parents":[2147483647,0,0,1,1,2,2,3,3,4,4,5,5,6,6],"right_children":[2,4,6,8,10,12,14,-1,-1,-1,-1,-1,-1,-1,-1],"split_conditions":[7.559055E-1,9.698093E-1,9.237676E-1,-2.3129614E-4,-8.646355E-4,8.9110676E-5,-7.512088E-5,3.0840961E-2,5.534267E-4,4.8203107E-2,-3.1487014E-2,-4.530726E-2,4.1029226E-2,-5.2828975E-2,-1.7215703E-2],"split_indices":[0,1,1,6,6,5,6,0,0,0,0,0,0,0,0],"split_type":[0,0,0,0,0,0,0,0,0,0,0,0,0,0,0],"sum_hessian":[2.4668916E3,2.3137896E3,1.5310222E2,2.1942415E3,1.1954796E2,5.062175E1,1.0248046E2,2.004472E2,1.9937943E3,5.193552E0,1.1435441E2,2.2459951E1,2.8161798E1,6.7148445E1,3.533202E1],"tree_param":{"num_deleted":"0","num_feature":"7","num_nodes":"15","size_leaf_vector":"1"}},{"base_weights":[-8.984167E-4,2.4352798E-1,-7.389126E-2,3.3037078E-1,-8.834617E-2,-8.8871646E-1,-4.8252124E-2,5.7340797E-2,1.48235215E-2,-2.7274912E-2,2.5419233E-2,-1.6451085E-2,-5.7694074E-2,-1.1319335E-3,-3.7675302E-2],"categories":[],"categories_nodes":[],"categories_segments":[],"categories_sizes":[],"default_left":[0,0,0,0,0,0,0,0,0,0,0,0,0,0,0],"id":37,"left_children":[1,3,5,7,9,11,13,-1,-1,-1,-1,-1,-1,-1,-1],"loss_changes":[4.3991272E1,1.6370728E1,3.962314E1,1.2104404E1,3.2572857E1,8.207947E0,3.325342E1,0E0,0E0,0E0,0E0,0E0,0E0,0E0,0E0],"parents":[2147483647,0,0,1,1,2,2,3,3,4,4,5,5,6,6],"right_children":[2,4,6,8,10,12,14,-1,-1,-1,-1,-1,-1,-1,-1],"split_conditions":[6.062992E-1,8.6436994E-5,8.4135616E-1,-3.2962346E-4,3.7216578E-5,6.535433E-1,9.760044E-1,5.7340797E-2,1.48235215E-2,-2.7274912E-2,2.5419233E-2,-1.6451085E-2,-5.7694074E-2,-1.1319335E-3,-3.7675302E-2],"split_indices":[0,6,1,6,5,0,1,0,0,0,0,0,0,0,0],"split_type":[0,0,0,0,0,0,0,0,0,0,0,0,0,0,0],"sum_hessian":[2.4636794E3,5.660036E2,1.8976759E3,4.4861682E2,1.17386795E2,5.6863438E1,1.8408125E3,1.657603E1,4.3204077E2,6.65155E1,5.0871292E1,1.9000053E1,3.7863384E1,1.7772966E3,6.3515858E1],"tree_param":{"num_deleted":"0","num_feature":"7","num_nodes":"15","size_leaf_vector":"1"}},{"base_weights":[-8.8655384E-4,3.2593917E-2,-5.121433E-1,3.6347494E-3,6.5394455E-1,5.555672E-2,-7.9458266E-1,7.845837E-3,-5.24901E-3,4.1518606E-2,-3.9870963E-2,-4.419252E-2,3.8502317E-2,-5.1753122E-2,-1.6505366E-2],"categories":[],"categories_nodes":[],"categories_segments":[],"categories_sizes":[],"default_left":[0,0,0,0,0,0,0,0,0,0,0,0,0,0,0],"id":38,"left_children":[1,3,5,7,9,11,13,-1,-1,-1,-1,-1,-1,-1,-1],"loss_changes":[4.2120792E1,4.1554733E1,2.4294281E1,3.677157E1,2.699559E1,3.503316E1,1.0946415E1,0E0,0E0,0E0,0E0,0E0,0E0,0E0,0E0],"parents":[2147483647,0,0,1,1,2,2,3,3,4,4,5,5,6,6],"right_children":[2,4,6,8,10,12,14,-1,-1,-1,-1,-1,-1,-1,-1],"split_conditions":[7.559055E-1,1.5352637E-4,9.237676E-1,6.3779527E-1,4.9637264E-4,8.9110676E-5,-7.512088E-5,7.845837E-3,-5.24901E-3,4.1518606E-2,-3.9870963E-2,-4.419252E-2,3.8502317E-2,-5.1753122E-2,-1.6505366E-2],"split_indices":[0,5,1,0,6,5,6,0,0,0,0,0,0,0,0],"split_type":[0,0,0,0,0,0,0,0,0,0,0,0,0,0,0],"sum_hessian":[2.4587656E3,2.3085244E3,1.5024117E2,2.2066838E3,1.0184063E2,5.018106E1,1.00060104E2,9.149803E2,1.2917035E3,9.118416E1,1.06564665E1,2.1576008E1,2.8605055E1,6.511743E1,3.4942677E1],"tree_param":{"num_deleted":"0","num_feature":"7","num_nodes":"15","size_leaf_vector":"1"}},{"base_weights":[-9.0405403E-4,8.8546015E-2,-1.7915249E-1,1.1527889E-2,4.7950298E-1,2.8267667E-2,-4.2984518E-1,8.254121E-3,-1.2894298E-2,4.0453468E-2,-9.715888E-3,-1.2629318E-2,1.5655296E-2,-3.0163795E-2,-1.5621952E-3],"categories":[],"categories_nodes":[],"categories_segments":[],"categories_sizes":[],"default_left":[0,0,0,0,0,0,0,0,0,0,0,0,0,0,0],"id":39,"left_children":[1,3,5,7,9,11,13,-1,-1,-1,-1,-1,-1,-1,-1],"loss_changes":[3.9142723E1,4.9215218E1,4.2667267E1,5.6580612E1,5.989429E1,3.6065083E1,2.566108E1,0E0,0E0,0E0,0E0,0E0,0E0,0E0,0E0],"parents":[2147483647,0,0,1,1,2,2,3,3,4,4,5,5,6,6],"right_children":[2,4,6,8,10,12,14,-1,-1,-1,-1,-1,-1,-1,-1],"split_conditions":[6.929134E-1,9.402695E-1,9.3286127E-1,6.3779527E-1,9.6308905E-1,9.079492E-1,1.0608446E-4,8.254121E-3,-1.2894298E-2,4.0453468E-2,-9.715888E-3,-1.2629318E-2,1.5655296E-2,-3.0163795E-2,-1.5621952E-3],"split_indices":[0,1,1,0,1,1,5,0,0,0,0,0,0,0,0],"split_type":[0,0,0,0,0,0,0,0,0,0,0,0,0,0,0],"sum_hessian":[2.4529666E3,1.6336556E3,8.1931104E2,1.3656528E3,2.6800272E2,4.488364E2,3.704746E2,8.701127E2,4.9554022E2,1.798414E2,8.816132E1,2.2605582E2,2.2278058E2,2.5779498E2,1.12679634E2],"tree_param":{"num_deleted":"0","num_feature":"7","num_nodes":"15","size_leaf_vector":"1"}},{"base_weights":[-9.165877E-4,3.0769404E-2,-4.9328113E-1,1.223091E0,1.66155E-2,1.3963504E-1,-7.3651695E-1,7.1405225E-2,3.3502076E-3,2.3649447E-3,-2.867536E-2,-4.6517E-2,5.3349372E-2,-4.8653677E-2,-1.4193994E-2],"categories":[],"categories_nodes":[],"categories_segments":[],"categories_sizes":[],"default_left":[0,0,0,0,0,0,0,0,0,0,0,0,0,0,0],"id":40,"left_children":[1,3,5,7,9,11,13,-1,-1,-1,-1,-1,-1,-1,-1],"loss_changes":[3.821222E1,3.881586E1,2.290184E1,6.2998314E0,4.1225594E1,4.2621918E1,1.1195793E1,0E0,0E0,0E0,0E0,0E0,0E0,0E0,0E0],"parents":[2147483647,0,0,1,1,2,2,3,3,4,4,5,5,6,6],"right_children":[2,4,6,8,10,12,14,-1,-1,-1,-1,-1,-1,-1,-1],"split_conditions":[7.559055E-1,-1.0305952E-3,9.203684E-1,7.1653545E-1,9.698093E-1,8.9110676E-5,-7.512088E-5,7.1405225E-2,3.3502076E-3,2.3649447E-3,-2.867536E-2,-4.6517E-2,5.3349372E-2,-4.8653677E-2,-1.4193994E-2],"split_indices":[0,6,1,0,1,5,6,0,0,0,0,0,0,0,0],"split_type":[0,0,0,0,0,0,0,0,0,0,0,0,0,0,0],"sum_hessian":[2.447362E3,2.3002666E3,1.4709555E2,2.5983797E1,2.2742827E3,4.0954662E1,1.0614089E2,2.1870178E1,4.1136184E0,2.1627505E3,1.11532234E2,1.9013615E1,2.1941048E1,6.89543E1,3.7186592E1],"tree_param":{"num_deleted":"0","num_feature":"7","num_nodes":"15","size_leaf_vector":"1"}},{"base_weights":[-9.079678E-4,2.9261483E-2,-4.7746587E-1,2.0970847E-3,6.163869E-1,1.3288553E-1,-7.1587694E-1,1.3568937E-3,-2.7859798E-2,3.9244268E-2,-3.806446E-2,-4.5712084E-2,4.991976E-2,-4.761524E-2,-1.3619167E-2],"categories":[],"categories_nodes":[],"categories_segments":[],"categories_sizes":[],"default_left":[0,0,0,0,0,0,0,0,0,0,0,0,0,0,0],"id":41,"left_children":[1,3,5,7,9,11,13,-1,-1,-1,-1,-1,-1,-1,-1],"loss_changes":[3.5165947E1,3.6686104E1,2.1285488E1,3.082068E1,2.420998E1,3.8748978E1,1.073727E1,0E0,0E0,0E0,0E0,0E0,0E0,0E0,0E0],"parents":[2147483647,0,0,1,1,2,2,3,3,4,4,5,5,6,6],"right_children":[2,4,6,8,10,12,14,-1,-1,-1,-1,-1,-1,-1,-1],"split_conditions":[7.559055E-1,1.5352637E-4,9.203684E-1,9.698093E-1,4.9637264E-4,8.9110676E-5,-7.512088E-5,1.3568937E-3,-2.7859798E-2,3.9244268E-2,-3.806446E-2,-4.5712084E-2,4.991976E-2,-4.761524E-2,-1.3619167E-2],"split_indices":[0,5,1,1,6,5,6,0,0,0,0,0,0,0,0],"split_type":[0,0,0,0,0,0,0,0,0,0,0,0,0,0,0],"sum_hessian":[2.4439312E3,2.2993076E3,1.4462366E2,2.1985894E3,1.0071807E2,4.0748047E1,1.0387562E2,2.1052827E3,9.3306694E1,9.012544E1,1.0592626E1,1.8413895E1,2.233415E1,6.70068E1,3.686882E1],"tree_param":{"num_deleted":"0","num_feature":"7","num_nodes":"15","size_leaf_vector":"1"}},{"base_weights":[-9.3181344E-4,8.117493E-2,-1.6634877E-1,6.559594E-3,4.589435E-1,2.4834286E-2,-4.0233678E-1,6.8754773E-3,-1.4154402E-2,3.7763204E-2,-8.199415E-3,-1.2291799E-2,1.4860935E-2,-2.8714437E-2,-5.4210937E-4],"categories":[],"categories_nodes":[],"categories_segments":[],"categories_sizes":[],"default_left":[0,0,0,0,0,0,0,0,0,0,0,0,0,0,0],"id":42,"left_children":[1,3,5,7,9,11,13,-1,-1,-1,-1,-1,-1,-1,-1],"loss_changes":[3.317227E1,4.600522E1,3.656246E1,5.1775627E1,4.981529E1,3.3140556E1,2.4407124E1,0E0,0E0,0E0,0E0,0E0,0E0,0E0,0E0],"parents":[2147483647,0,0,1,1,2,2,3,3,4,4,5,5,6,6],"right_children":[2,4,6,8,10,12,14,-1,-1,-1,-1,-1,-1,-1,-1],"split_conditions":[6.929134E-1,9.402695E-1,9.3286127E-1,6.456693E-1,9.6308905E-1,9.079492E-1,1.0608446E-4,6.8754773E-3,-1.4154402E-2,3.7763204E-2,-8.199415E-3,-1.2291799E-2,1.4860935E-2,-2.8714437E-2,-5.4210937E-4],"split_indices":[0,1,1,0,1,1,5,0,0,0,0,0,0,0,0],"split_type":[0,0,0,0,0,0,0,0,0,0,0,0,0,0,0],"sum_hessian":[2.440403E3,1.6312308E3,8.091723E2,1.3630283E3,2.6820255E2,4.475165E2,3.6165576E2,9.3902124E2,4.2400708E2,1.8160362E2,8.659894E1,2.2451343E2,2.230031E2,2.5096167E2,1.106941E2],"tree_param":{"num_deleted":"0","num_feature":"7","num_nodes":"15","size_leaf_vector":"1"}},{"base_weights":[-9.3828444E-4,1.5375893E-2,-8.1593895E-1,-1.3545856E-2,5.060596E-1,7.571615E-1,-9.7690517E-1,3.2314942E-3,-1.0404482E-2,4.042118E-2,1.7570934E-3,1.1444353E-1,-3.0801384E-2,-6.089815E-2,-1.9290438E-2],"categories":[],"categories_nodes":[],"categories_segments":[],"categories_sizes":[],"default_left":[0,0,0,0,0,0,0,0,0,0,0,0,0,0,0],"id":43,"left_children":[1,3,5,7,9,11,13,-1,-1,-1,-1,-1,-1,-1,-1],"loss_changes":[3.2404037E1,3.3915066E1,1.2850302E1,3.4344204E1,1.8912014E1,1.19328785E1,5.7745514E0,0E0,0E0,0E0,0E0,0E0,0E0,0E0,0E0],"parents":[2147483647,0,0,1,1,2,2,3,3,4,4,5,5,6,6],"right_children":[2,4,6,8,10,12,14,-1,-1,-1,-1,-1,-1,-1,-1],"split_conditions":[7.7952754E-1,1.5352637E-4,2.3762377E1,6.929134E-1,9.424365E-1,9.2166877E-1,3.492954E-5,3.2314942E-3,-1.0404482E-2,4.042118E-2,1.7570934E-3,1.1444353E-1,-3.0801384E-2,-6.089815E-2,-1.9290438E-2],"split_indices":[0,5,4,0,1,1,6,0,0,0,0,0,0,0,0],"split_type":[0,0,0,0,0,0,0,0,0,0,0,0,0,0,0],"sum_hessian":[2.4351711E3,2.388344E3,4.682725E1,2.2563247E3,1.3201929E2,4.0029664E0,4.2824284E1,1.6100199E3,6.463048E2,7.996144E1,5.205785E1,1.5770426E0,2.4259236E0,2.966567E1,1.3158614E1],"tree_param":{"num_deleted":"0","num_feature":"7","num_nodes":"15","size_leaf_vector":"1"}},{"base_weights":[-8.999963E-4,2.6897576E-2,-4.522079E-1,5.804721E-2,-4.8239714E-1,6.080944E-2,-7.232091E-1,-6.0929287E-5,2.4707709E-2,4.014198E-2,-3.550916E-2,-4.09784E-2,3.2225475E-2,-4.853001E-2,-1.3725832E-2],"categories":[],"categories_nodes":[],"categories_segments":[],"categories_sizes":[],"default_left":[0,0,0,0,0,0,0,0,0,0,0,0,0,0,0],"id":44,"left_children":[1,3,5,7,9,11,13,-1,-1,-1,-1,-1,-1,-1,-1],"loss_changes":[3.0524675E1,3.6389427E1,1.967079E1,5.5849365E1,3.9276684E1,2.6077765E1,9.9959755E0,0E0,0E0,0E0,0E0,0E0,0E0,0E0,0E0],"parents":[2147483647,0,0,1,1,2,2,3,3,4,4,5,5,6,6],"right_children":[2,4,6,8,10,12,14,-1,-1,-1,-1,-1,-1,-1,-1],"split_conditions":[7.559055E-1,2.8235523E-4,9.237676E-1,8.571531E-5,6.456693E-1,8.9110676E-5,-7.512088E-5,-6.0929287E-5,2.4707709E-2,4.014198E-2,-3.550916E-2,-4.09784E-2,3.2225475E-2,-4.853001E-2,-1.3725832E-2],"split_indices":[0,6,1,5,0,5,6,0,0,0,0,0,0,0,0],"split_type":[0,0,0,0,0,0,0,0,0,0,0,0,0,0,0],"sum_hessian":[2.4311936E3,2.2910222E3,1.4017136E2,2.1598093E3,1.3121288E2,4.871925E1,9.145211E1,1.9022903E3,2.5751907E2,1.9374071E1,1.118388E2,1.9262344E1,2.9456907E1,5.819986E1,3.3252247E1],"tree_param":{"num_deleted":"0","num_feature":"7","num_nodes":"15","size_leaf_vector":"1"}},{"base_weights":[-9.1387116E-4,1.6924731E-2,-6.967607E-1,-8.819194E-3,5.4429835E-1,-9.5702994E-1,3.585801E-2,1.5231823E-3,-2.3830444E-2,3.8521167E-2,-2.0077879E-2,-2.8507734E-2,-5.9676867E-2,-2.7228227E-2,7.078331E-2],"categories":[],"categories_nodes":[],"categories_segments":[],"categories_sizes":[],"default_left":[0,0,0,0,0,0,0,0,0,0,0,0,0,0,0],"id":45,"left_children":[1,3,5,7,9,11,13,-1,-1,-1,-1,-1,-1,-1,-1],"loss_changes":[3.017126E1,3.218051E1,1.1618715E1,4.1555664E1,2.3904827E1,3.4245262E0,1.4297217E1,0E0,0E0,0E0,0E0,0E0,0E0,0E0,0E0],"parents":[2147483647,0,0,1,1,2,2,3,3,4,4,5,5,6,6],"right_children":[2,4,6,8,10,12,14,-1,-1,-1,-1,-1,-1,-1,-1],"split_conditions":[9.760044E-1,1.6583808E-4,6.2456093E-6,7.401575E-1,7.7165353E-1,9.80933E-1,9.829E-1,1.5231823E-3,-2.3830444E-2,3.8521167E-2,-2.0077879E-2,-2.8507734E-2,-5.9676867E-2,-2.7228227E-2,7.078331E-2],"split_indices":[1,5,6,0,0,1,1,0,0,0,0,0,0,0,0],"split_type":[0,0,0,0,0,0,0,0,0,0,0,0,0,0,0],"sum_hessian":[2.4286804E3,2.3689268E3,5.9753696E1,2.2596064E3,1.0932019E2,4.386423E1,1.5889464E1,2.0854177E3,1.7418895E2,8.837737E1,2.0942822E1,1.793582E1,2.5928411E1,1.16107025E1,4.278762E0],"tree_param":{"num_deleted":"0","num_feature":"7","num_nodes":"15","size_leaf_vector":"1"}},{"base_weights":[-9.160006E-4,1.9883738E-1,-6.1039563E-2,2.8196925E-1,-1.1665559E-1,-5.9813526E-2,-4.4043463E-2,1.898092E-2,5.092986E-4,-2.748386E-2,2.2764074E-2,-1.1429713E-3,-3.3828113E-2],"categories":[],"categories_nodes":[],"categories_segments":[],"categories_sizes":[],"default_left":[0,0,0,0,0,0,0,0,0,0,0,0,0],"id":46,"left_children":[1,3,5,7,9,-1,11,-1,-1,-1,-1,-1,-1],"loss_changes":[2.9148966E1,1.4760063E1,3.5942245E1,1.1798378E1,2.9427114E1,0E0,2.462685E1,0E0,0E0,0E0,0E0,0E0,0E0],"parents":[2147483647,0,0,1,1,2,2,3,3,4,4,6,6],"right_children":[2,4,6,8,10,-1,12,-1,-1,-1,-1,-1,-1],"split_conditions":[6.062992E-1,8.6436994E-5,8.2338744E-1,8.846904E-1,3.7216578E-5,-5.9813526E-2,9.760044E-1,1.898092E-2,5.092986E-4,-2.748386E-2,2.2764074E-2,-1.1429713E-3,-3.3828113E-2],"split_indices":[0,6,1,1,5,0,1,0,0,0,0,0,0],"split_type":[0,0,0,0,0,0,0,0,0,0,0,0,0],"sum_hessian":[2.4250706E3,5.605159E2,1.8645546E3,4.4370633E2,1.1680961E2,2.6479925E1,1.8380746E3,3.2613303E2,1.1757328E2,6.650025E1,5.0309357E1,1.7795122E3,5.856249E1],"tree_param":{"num_deleted":"0","num_feature":"7","num_nodes":"13","size_leaf_vector":"1"}},{"base_weights":[-9.1794546E-4,1.3763259E-2,-7.7376854E-1,-1.2569193E-2,4.6415952E-1,7.868637E-1,-9.414634E-1,9.828032E-4,-2.1849748E-2,3.7212517E-2,1.3305462E-3,1.08531035E-1,-2.8458996E-2,-5.9687015E-2,-1.7413732E-2],"categories":[],"categories_nodes":[],"categories_segments":[],"categories_sizes":[],"default_left":[0,0,0,0,0,0,0,0,0,0,0,0,0,0,0],"id":47,"left_children":[1,3,5,7,9,11,13,-1,-1,-1,-1,-1,-1,-1,-1],"loss_changes":[2.7490677E1,2.8206083E1,1.2561468E1,3.0746662E1,1.60792E1,1.0480967E1,5.7557106E0,0E0,0E0,0E0,0E0,0E0,0E0,0E0,0E0],"parents":[2147483647,0,0,1,1,2,2,3,3,4,4,5,5,6,6],"right_children":[2,4,6,8,10,12,14,-1,-1,-1,-1,-1,-1,-1,-1],"split_conditions":[7.7952754E-1,1.5352637E-4,2.3762377E1,2.3567949E-4,9.424365E-1,9.2166877E-1,3.492954E-5,9.828032E-4,-2.1849748E-2,3.7212517E-2,1.3305462E-3,1.08531035E-1,-2.8458996E-2,-5.9687015E-2,-1.7413732E-2],"split_indices":[0,5,4,6,1,1,6,0,0,0,0,0,0,0,0],"split_type":[0,0,0,0,0,0,0,0,0,0,0,0,0,0,0],"sum_hessian":[2.4209207E3,2.3767537E3,4.4167038E1,2.2463904E3,1.303633E2,3.927159E0,4.023988E1,2.088752E3,1.5763841E2,7.905583E1,5.130747E1,1.6464051E0,2.2807539E0,2.7522457E1,1.271742E1],"tree_param":{"num_deleted":"0","num_feature":"7","num_nodes":"15","size_leaf_vector":"1"}},{"base_weights":[-8.8358554E-4,1.8843417E-1,-5.7849728E-2,8.257752E-1,1.5082644E-1,-8.386056E-1,-3.4422018E-2,-3.9496563E-2,5.0911255E-2,9.628653E-3,-5.039611E-2,-1.5414188E-2,-5.5590022E-2,-6.819417E-4,-3.282687E-2],"categories":[],"categories_nodes":[],"categories_segments":[],"categories_sizes":[],"default_left":[0,0,0,0,0,0,0,0,0,0,0,0,0,0,0],"id":48,"left_children":[1,3,5,7,9,11,13,-1,-1,-1,-1,-1,-1,-1,-1],"loss_changes":[2.6107763E1,1.3296671E1,3.400875E1,1.0436136E1,2.5830582E1,7.50523E0,2.3363684E1,0E0,0E0,0E0,0E0,0E0,0E0,0E0,0E0],"parents":[2147483647,0,0,1,1,2,2,3,3,4,4,5,5,6,6],"right_children":[2,4,6,8,10,12,14,-1,-1,-1,-1,-1,-1,-1,-1],"split_conditions":[6.062992E-1,-2.3129614E-4,8.4135616E-1,8.5161537E-1,7.179627E-5,6.535433E-1,9.760044E-1,-3.9496563E-2,5.0911255E-2,9.628653E-3,-5.039611E-2,-1.5414188E-2,-5.5590022E-2,-6.819417E-4,-3.282687E-2],"split_indices":[0,6,1,1,5,0,1,0,0,0,0,0,0,0,0],"split_type":[0,0,0,0,0,0,0,0,0,0,0,0,0,0,0],"sum_hessian":[2.4188035E3,5.5894214E2,1.8598615E3,2.997616E1,5.2896594E2,5.3168358E1,1.8066931E3,2.8600552E0,2.7116104E1,5.1137625E2,1.7589708E1,1.8800858E1,3.43675E1,1.7492765E3,5.7416645E1],"tree_param":{"num_deleted":"0","num_feature":"7","num_nodes":"15","size_leaf_vector":"1"}},{"base_weights":[-9.058505E-4,1.30651705E-2,-7.542031E-1,-3.306233E-2,2.6036263E-1,7.567837E-1,-9.229169E-1,7.5706528E-3,-6.78396E-3,2.4230702E-2,-9.026044E-3,1.01905264E-1,-2.779751E-2,-5.8995254E-2,-1.6707823E-2],"categories":[],"categories_nodes":[],"categories_segments":[],"categories_sizes":[],"default_left":[0,0,0,0,0,0,0,0,0,0,0,0,0,0,0],"id":49,"left_children":[1,3,5,7,9,11,13,-1,-1,-1,-1,-1,-1,-1,-1],"loss_changes":[2.5434328E1,2.7075363E1,1.1916508E1,3.789348E1,3.697757E1,9.491923E0,5.663349E0,0E0,0E0,0E0,0E0,0E0,0E0,0E0,0E0],"parents":[2147483647,0,0,1,1,2,2,3,3,4,4,5,5,6,6],"right_children":[2,4,6,8,10,12,14,-1,-1,-1,-1,-1,-1,-1,-1],"split_conditions":[7.7952754E-1,8.571531E-5,2.3762377E1,6.2204725E-1,9.4600195E-1,9.2166877E-1,3.492954E-5,7.5706528E-3,-6.78396E-3,2.4230702E-2,-9.026044E-3,1.01905264E-1,-2.779751E-2,-5.8995254E-2,-1.6707823E-2],"split_indices":[0,5,4,0,1,1,6,0,0,0,0,0,0,0,0],"split_type":[0,0,0,0,0,0,0,0,0,0,0,0,0,0,0],"sum_hessian":[2.4147805E3,2.3717751E3,4.300545E1,1.9996533E3,3.7212183E2,3.9694824E0,3.903597E1,7.145765E2,1.2850769E3,2.4659454E2,1.2552727E2,1.7291471E0,2.2403355E0,2.6475584E1,1.2560385E1],"tree_param":{"num_deleted":"0","num_feature":"7","num_nodes":"15","size_leaf_vector":"1"}},{"base_weights":[-8.80854E-4,2.3534724E-2,-4.1341472E-1,5.2484512E-2,-4.5593977E-1,8.716778E-2,-6.837294E-1,-1.1833043E-4,2.2838471E-2,3.911438E-2,-3.3995498E-2,-3.8838573E-2,3.078377E-2,-4.6881504E-2,-1.19297765E-2],"categories":[],"categories_nodes":[],"categories_segments":[],"categories_sizes":[],"default_left":[0,0,0,0,0,0,0,0,0,0,0,0,0,0,0],"id":50,"left_children":[1,3,5,7,9,11,13,-1,-1,-1,-1,-1,-1,-1,-1],"loss_changes":[2.4295269E1,3.1635124E1,1.8297544E1,4.7646767E1,3.6522163E1,2.2462553E1,9.680607E0,0E0,0E0,0E0,0E0,0E0,0E0,0E0,0E0],"parents":[2147483647,0,0,1,1,2,2,3,3,4,4,5,5,6,6],"right_children":[2,4,6,8,10,12,14,-1,-1,-1,-1,-1,-1,-1,-1],"split_conditions":[7.559055E-1,2.8235523E-4,9.237676E-1,8.571531E-5,6.456693E-1,8.9110676E-5,-7.512088E-5,-1.1833043E-4,2.2838471E-2,3.911438E-2,-3.3995498E-2,-3.8838573E-2,3.078377E-2,-4.6881504E-2,-1.19297765E-2],"split_indices":[0,6,1,5,0,5,6,0,0,0,0,0,0,0,0],"split_type":[0,0,0,0,0,0,0,0,0,0,0,0,0,0,0],"sum_hessian":[2.4101328E3,2.2763513E3,1.3378159E2,2.1475752E3,1.287761E2,4.7148018E1,8.663357E1,1.8918884E3,2.5568672E2,1.9343273E1,1.0943282E2,1.7716887E1,2.9431131E1,5.446232E1,3.2171253E1],"tree_param":{"num_deleted":"0","num_feature":"7","num_nodes":"15","size_leaf_vector":"1"}},{"base_weights":[-8.9017197E-4,1.462197E-2,-6.37471E-1,-8.746681E-3,5.004874E-1,-9.103413E-1,1.1279025E-1,1.3162327E-3,-2.2091908E-2,3.502984E-2,-1.7589413E-2,-2.555032E-2,-5.7947885E-2,-2.3823483E-2,7.136481E-2],"categories":[],"categories_nodes":[],"categories_segments":[],"categories_sizes":[],"default_left":[0,0,0,0,0,0,0,0,0,0,0,0,0,0,0],"id":51,"left_children":[1,3,5,7,9,11,13,-1,-1,-1,-1,-1,-1,-1,-1],"loss_changes":[2.3793943E1,2.671261E1,1.1837379E1,3.411648E1,1.8659616E1,3.591732E0,1.3210505E1,0E0,0E0,0E0,0E0,0E0,0E0,0E0,0E0],"parents":[2147483647,0,0,1,1,2,2,3,3,4,4,5,5,6,6],"right_children":[2,4,6,8,10,12,14,-1,-1,-1,-1,-1,-1,-1,-1],"split_conditions":[9.760044E-1,1.6583808E-4,6.2456093E-6,7.401575E-1,7.7165353E-1,9.80933E-1,9.829E-1,1.3162327E-3,-2.2091908E-2,3.502984E-2,-1.7589413E-2,-2.555032E-2,-5.7947885E-2,-2.3823483E-2,7.136481E-2],"split_indices":[1,5,6,0,0,1,1,0,0,0,0,0,0,0,0],"split_type":[0,0,0,0,0,0,0,0,0,0,0,0,0,0,0],"sum_hessian":[2.4076345E3,2.351315E3,5.6319595E1,2.2443506E3,1.0696445E2,4.1142635E1,1.5176958E1,2.077089E3,1.6726147E2,8.6769455E1,2.0194996E1,1.6958614E1,2.4184021E1,1.0919536E1,4.2574224E0],"tree_param":{"num_deleted":"0","num_feature":"7","num_nodes":"15","size_leaf_vector":"1"}},{"base_weights":[-8.8631513E-4,3.1854326E-1,-3.0279608E-2,4.2271873E-1,-7.8243E-2,-2.0028983E-1,4.8391998E-2,-5.3972146E-3,2.9277254E-2,-1.2620315E-2,3.9320726E-2,8.141175E-3,-1.3574322E-2],"categories":[],"categories_nodes":[],"categories_segments":[],"categories_sizes":[],"default_left":[0,0,0,0,0,0,0,0,0,0,0,0,0],"id":52,"left_children":[1,3,5,7,-1,9,11,-1,-1,-1,-1,-1,-1],"loss_changes":[2.2592703E1,4.0444496E1,2.9481222E1,1.673288E1,0E0,3.60549E1,5.5214237E1,0E0,0E0,0E0,0E0,0E0,0E0],"parents":[2147483647,0,0,1,1,2,2,3,3,5,5,6,6],"right_children":[2,4,6,8,-1,10,12,-1,-1,-1,-1,-1,-1],"split_conditions":[5.590551E-1,8.964046E-1,3.6384234E-5,5.03937E-1,-7.8243E-2,9.41053E-1,7.1653545E-1,-5.3972146E-3,2.9277254E-2,-1.2620315E-2,3.9320726E-2,8.141175E-3,-1.3574322E-2],"split_indices":[0,1,5,0,0,1,0,0,0,0,0,0,0],"split_type":[0,0,0,0,0,0,0,0,0,0,0,0,0],"sum_hessian":[2.4042454E3,2.0176299E2,2.2024824E3,1.9192284E2,9.84015E0,6.962761E2,1.5062064E3,4.5141243E1,1.467816E2,6.620516E2,3.4224525E1,1.1097145E3,3.9649194E2],"tree_param":{"num_deleted":"0","num_feature":"7","num_nodes":"13","size_leaf_vector":"1"}},{"base_weights":[-8.7143603E-4,1.39896255E-2,-6.2003666E-1,-8.608143E-3,4.8629564E-1,-8.920656E-1,1.09576605E-1,1.1861428E-3,-2.081702E-2,3.378994E-2,-1.6308574E-2,-2.4762683E-2,-5.7171382E-2,1.0873964E-1,-1.1594231E-2],"categories":[],"categories_nodes":[],"categories_segments":[],"categories_sizes":[],"default_left":[0,0,0,0,0,0,0,0,0,0,0,0,0,0,0],"id":53,"left_children":[1,3,5,7,9,11,13,-1,-1,-1,-1,-1,-1,-1,-1],"loss_changes":[2.2109222E1,2.5048893E1,1.12758255E1,2.9543337E1,1.6719685E1,3.536518E0,1.1918552E1,0E0,0E0,0E0,0E0,0E0,0E0,0E0,0E0],"parents":[2147483647,0,0,1,1,2,2,3,3,4,4,5,5,6,6],"right_children":[2,4,6,8,10,12,14,-1,-1,-1,-1,-1,-1,-1,-1],"split_conditions":[9.760044E-1,1.6583808E-4,6.2456093E-6,7.401575E-1,7.7165353E-1,9.80933E-1,6.850394E-1,1.1861428E-3,-2.081702E-2,3.378994E-2,-1.6308574E-2,-2.4762683E-2,-5.7171382E-2,1.0873964E-1,-1.1594231E-2],"split_indices":[1,5,6,0,0,1,0,0,0,0,0,0,0,0,0],"split_type":[0,0,0,0,0,0,0,0,0,0,0,0,0,0,0],"sum_hessian":[2.400854E3,2.3455344E3,5.5319572E1,2.239372E3,1.06162346E2,4.0133537E1,1.5186039E1,2.0757202E3,1.6365175E2,8.622021E1,1.994214E1,1.671567E1,2.3417866E1,1.3928381E0,1.37932005E1],"tree_param":{"num_deleted":"0","num_feature":"7","num_nodes":"15","size_leaf_vector":"1"}},{"base_weights":[-8.438603E-4,2.3643823E-2,-3.7239754E-1,9.837916E-3,1.0208006E0,7.325397E-1,-5.4423255E-1,1.5469197E-3,-3.0064825E-2,5.9516795E-2,-4.643159E-2,8.407049E-2,3.1516624E-3,-4.4022836E-2,-6.7314836E-3],"categories":[],"categories_nodes":[],"categories_segments":[],"categories_sizes":[],"default_left":[0,0,0,0,0,0,0,0,0,0,0,0,0,0,0],"id":54,"left_children":[1,3,5,7,9,11,13,-1,-1,-1,-1,-1,-1,-1,-1],"loss_changes":[2.183207E1,3.098136E1,2.8568325E1,2.866484E1,1.1262573E1,1.2849849E1,1.7643177E1,0E0,0E0,0E0,0E0,0E0,0E0,0E0,0E0],"parents":[2147483647,0,0,1,1,2,2,3,3,4,4,5,5,6,6],"right_children":[2,4,6,8,10,12,14,-1,-1,-1,-1,-1,-1,-1,-1],"split_conditions":[2.8235523E-4,2.1215729E-4,6.456693E-1,7.637795E-1,7.7165353E-1,7.2413795E1,1.01962054E-4,1.5469197E-3,-3.0064825E-2,5.9516795E-2,-4.643159E-2,8.407049E-2,3.1516624E-3,-4.4022836E-2,-6.7314836E-3],"split_indices":[6,5,0,0,0,4,5,0,0,0,0,0,0,0,0],"split_type":[0,0,0,0,0,0,0,0,0,0,0,0,0,0,0],"sum_hessian":[2.3975588E3,2.2501934E3,1.4736528E2,2.2204604E3,2.9733017E1,1.939407E1,1.2797122E2,2.1472715E3,7.31889E1,2.7712362E1,2.0206542E0,7.3978777E0,1.1996191E1,6.964956E1,5.832166E1],"tree_param":{"num_deleted":"0","num_feature":"7","num_nodes":"15","size_leaf_vector":"1"}},{"base_weights":[-8.078312E-4,1.9709688E-2,-4.3192872E-1,-1.8256092E-3,5.0573325E-1,-1.0906918E0,-2.696712E-1,1.3723244E-3,-1.88936E-2,-6.279543E-3,4.1253608E-2,-5.8366038E-2,-1.733655E-2,-3.1395897E-2,1.2454822E-3],"categories":[],"categories_nodes":[],"categories_segments":[],"categories_sizes":[],"default_left":[0,0,0,0,0,0,0,0,0,0,0,0,0,0,0],"id":55,"left_children":[1,3,5,7,9,11,13,-1,-1,-1,-1,-1,-1,-1,-1],"loss_changes":[2.119973E1,2.3946754E1,1.1343758E1,2.4136375E1,1.9674334E1,8.0321693E-1,9.375223E0,0E0,0E0,0E0,0E0,0E0,0E0,0E0,0E0],"parents":[2147483647,0,0,1,1,2,2,3,3,4,4,5,5,6,6],"right_children":[2,4,6,8,10,12,14,-1,-1,-1,-1,-1,-1,-1,-1],"split_conditions":[9.698093E-1,1.6583808E-4,5.0404968E-5,7.401575E-1,3.9285713E1,1.0173807E-4,-2.7817086E-4,1.3723244E-3,-1.88936E-2,-6.279543E-3,4.1253608E-2,-5.8366038E-2,-1.733655E-2,-3.1395897E-2,1.2454822E-3],"split_indices":[1,5,5,0,4,6,6,0,0,0,0,0,0,0,0],"split_type":[0,0,0,0,0,0,0,0,0,0,0,0,0,0,0],"sum_hessian":[2.3946975E3,2.2868193E3,1.07877975E2,2.1907456E3,9.607386E1,2.0188993E1,8.768898E1,2.03339E3,1.5735556E2,3.247615E1,6.359771E1,1.7787767E1,2.4012246E0,3.9058025E1,4.8630955E1],"tree_param":{"num_deleted":"0","num_feature":"7","num_nodes":"15","size_leaf_vector":"1"}},{"base_weights":[-8.2152954E-4,2.2769196E-2,-3.6184102E-1,9.838495E-3,9.859975E-1,6.9829804E-1,-5.2881116E-1,1.476162E-3,-2.8835073E-2,5.7679802E-2,-4.5484032E-2,8.017651E-2,2.9421982E-3,-3.652607E-2,6.2162955E-3],"categories":[],"categories_nodes":[],"categories_segments":[],"categories_sizes":[],"default_left":[0,0,0,0,0,0,0,0,0,0,0,0,0,0,0],"id":56,"left_children":[1,3,5,7,9,11,13,-1,-1,-1,-1,-1,-1,-1,-1],"loss_changes":[2.0387987E1,2.797817E1,2.6360334E1,2.5629553E1,1.0503235E1,1.17201395E1,1.6878021E1,0E0,0E0,0E0,0E0,0E0,0E0,0E0,0E0],"parents":[2147483647,0,0,1,1,2,2,3,3,4,4,5,5,6,6],"right_children":[2,4,6,8,10,12,14,-1,-1,-1,-1,-1,-1,-1,-1],"split_conditions":[2.8235523E-4,2.1215729E-4,6.456693E-1,7.637795E-1,7.7165353E-1,7.2413795E1,7.401575E-1,1.476162E-3,-2.8835073E-2,5.7679802E-2,-4.5484032E-2,8.017651E-2,2.9421982E-3,-3.652607E-2,6.2162955E-3],"split_indices":[6,5,0,0,0,4,0,0,0,0,0,0,0,0,0],"split_type":[0,0,0,0,0,0,0,0,0,0,0,0,0,0,0],"sum_hessian":[2.3919128E3,2.2460803E3,1.458326E2,2.2173242E3,2.8755894E1,1.941014E1,1.2642246E2,2.1462444E3,7.1079994E1,2.6779734E1,1.9761589E0,7.411095E0,1.1999044E1,9.650123E1,2.9921234E1],"tree_param":{"num_deleted":"0","num_feature":"7","num_nodes":"15","size_leaf_vector":"1"}},{"base_weights":[-7.7657745E-4,3.3099738E-1,-2.5911927E-2,7.1410346E-1,-2.4888676E-1,-1.4133278E-1,8.227701E-2,-5.227571E-3,5.221948E-2,-2.2798246E-2,5.5089768E-2,-9.812837E-3,2.776589E-2,1.0913464E-2,-1.1291992E-2],"categories":[],"categories_nodes":[],"categories_segments":[],"categories_sizes":[],"default_left":[0,0,0,0,0,0,0,0,0,0,0,0,0,0,0],"id":57,"left_children":[1,3,5,7,9,11,13,-1,-1,-1,-1,-1,-1,-1,-1],"loss_changes":[1.9941551E1,3.7590473E1,2.7768955E1,2.7599213E1,1.9448677E1,4.1273975E1,4.8152374E1,0E0,0E0,0E0,0E0,0E0,0E0,0E0,0E0],"parents":[2147483647,0,0,1,1,2,2,3,3,4,4,5,5,6,6],"right_children":[2,4,6,8,10,12,14,-1,-1,-1,-1,-1,-1,-1,-1],"split_conditions":[5.511811E-1,3.2210395E-5,4.571231E-5,5.03937E-1,8.571531E-5,9.4600195E-1,7.1653545E-1,-5.227571E-3,5.221948E-2,-2.2798246E-2,5.5089768E-2,-9.812837E-3,2.776589E-2,1.0913464E-2,-1.1291992E-2],"split_indices":[0,5,5,0,5,1,0,0,0,0,0,0,0,0,0],"split_type":[0,0,0,0,0,0,0,0,0,0,0,0,0,0,0],"sum_hessian":[2.3892588E3,1.6740665E2,2.221852E3,1.0066794E2,6.673871E1,1.0748486E3,1.1470034E3,2.9135489E1,7.1532455E1,5.8441277E1,8.297434E0,9.9696606E2,7.788256E1,7.959776E2,3.5102582E2],"tree_param":{"num_deleted":"0","num_feature":"7","num_nodes":"15","size_leaf_vector":"1"}},{"base_weights":[-6.992751E-4,1.9285176E-2,-4.223544E-1,-1.140285E-3,4.861936E-1,-1.0787302E0,-2.6292703E-1,1.3504304E-3,-1.8270945E-2,-6.0773594E-3,3.962285E-2,-5.7776798E-2,-1.7286168E-2,-3.067692E-2,1.1088612E-3],"categories":[],"categories_nodes":[],"categories_segments":[],"categories_sizes":[],"default_left":[0,0,0,0,0,0,0,0,0,0,0,0,0,0,0],"id":58,"left_children":[1,3,5,7,9,11,13,-1,-1,-1,-1,-1,-1,-1,-1],"loss_changes":[2.0128891E1,2.1751074E1,1.1027601E1,2.2426195E1,1.7888758E1,7.7160835E-1,8.839212E0,0E0,0E0,0E0,0E0,0E0,0E0,0E0,0E0],"parents":[2147483647,0,0,1,1,2,2,3,3,4,4,5,5,6,6],"right_children":[2,4,6,8,10,12,14,-1,-1,-1,-1,-1,-1,-1,-1],"split_conditions":[9.698093E-1,1.6583808E-4,5.0404968E-5,2.3567949E-4,3.9285713E1,1.0173807E-4,-2.7817086E-4,1.3504304E-3,-1.8270945E-2,-6.0773594E-3,3.962285E-2,-5.7776798E-2,-1.7286168E-2,-3.067692E-2,1.1088612E-3],"split_indices":[1,5,5,6,4,6,6,0,0,0,0,0,0,0,0],"split_type":[0,0,0,0,0,0,0,0,0,0,0,0,0,0,0],"sum_hessian":[2.3867812E3,2.279689E3,1.0709218E2,2.185097E3,9.4592094E1,1.980149E1,8.729069E1,2.029219E3,1.5587794E2,3.18979E1,6.2694195E1,1.740168E1,2.3998106E0,3.8631287E1,4.8659397E1],"tree_param":{"num_deleted":"0","num_feature":"7","num_nodes":"15","size_leaf_vector":"1"}},{"base_weights":[-7.143311E-4,1.269532E-2,-5.7967746E-1,-2.9475603E-2,2.419552E-1,-8.284615E-1,2.1153146E-1,7.533723E-3,-5.5900933E-3,3.2984268E-2,2.8514902E-3,1.24937985E-2,-4.4088982E-2,1.1446656E-1,-9.533244E-3],"categories":[],"categories_nodes":[],"categories_segments":[],"categories_sizes":[],"default_left":[0,0,0,0,0,0,0,0,0,0,0,0,0,0,0],"id":59,"left_children":[1,3,5,7,9,11,13,-1,-1,-1,-1,-1,-1,-1,-1],"loss_changes":[1.8530373E1,2.256107E1,1.0810589E1,2.9252943E1,2.7968805E1,2.595377E0,1.1903397E1,0E0,0E0,0E0,0E0,0E0,0E0,0E0,0E0],"parents":[2147483647,0,0,1,1,2,2,3,3,4,4,5,5,6,6],"right_children":[2,4,6,8,10,12,14,-1,-1,-1,-1,-1,-1,-1,-1],"split_conditions":[9.760044E-1,8.571531E-5,4.7824185E-5,6.1417323E-1,7.007874E-1,6.3779527E-1,6.850394E-1,7.533723E-3,-5.5900933E-3,3.2984268E-2,2.8514902E-3,1.24937985E-2,-4.4088982E-2,1.1446656E-1,-9.533244E-3],"split_indices":[1,5,6,0,0,0,0,0,0,0,0,0,0,0,0],"split_type":[0,0,0,0,0,0,0,0,0,0,0,0,0,0,0],"sum_hessian":[2.3848503E3,2.3318198E3,5.3030357E1,1.9702721E3,3.6154782E2,4.0308773E1,1.2721585E1,6.1771967E2,1.3525525E3,1.10153496E2,2.513943E2,1.7254616E0,3.8583313E1,1.3021958E0,1.141939E1],"tree_param":{"num_deleted":"0","num_feature":"7","num_nodes":"15","size_leaf_vector":"1"}},{"base_weights":[-6.4733945E-4,2.1381155E-2,-3.4112114E-1,9.4419615E-3,9.507153E-1,6.813706E-1,-5.045638E-1,1.3976455E-3,-2.7727691E-2,5.5904716E-2,-4.4421695E-2,7.721413E-2,3.524581E-3,-3.502294E-2,6.0604136E-3],"categories":[],"categories_nodes":[],"categories_segments":[],"categories_sizes":[],"default_left":[0,0,0,0,0,0,0,0,0,0,0,0,0,0,0],"id":60,"left_children":[1,3,5,7,9,11,13,-1,-1,-1,-1,-1,-1,-1,-1],"loss_changes":[1.7867105E1,2.4817257E1,2.4536514E1,2.3089512E1,9.726839E0,1.0632266E1,1.5455568E1,0E0,0E0,0E0,0E0,0E0,0E0,0E0,0E0],"parents":[2147483647,0,0,1,1,2,2,3,3,4,4,5,5,6,6],"right_children":[2,4,6,8,10,12,14,-1,-1,-1,-1,-1,-1,-1,-1],"split_conditions":[2.8235523E-4,2.1215729E-4,6.456693E-1,7.637795E-1,7.7165353E-1,7.2413795E1,7.401575E-1,1.3976455E-3,-2.7727691E-2,5.5904716E-2,-4.4421695E-2,7.721413E-2,3.524581E-3,-3.502294E-2,6.0604136E-3],"split_indices":[6,5,0,0,0,4,0,0,0,0,0,0,0,0,0],"split_type":[0,0,0,0,0,0,0,0,0,0,0,0,0,0,0],"sum_hessian":[2.3802686E3,2.236505E3,1.4376361E2,2.2091343E3,2.7370676E1,1.9376434E1,1.2438717E2,2.1398523E3,6.928182E1,2.5446844E1,1.9238313E0,7.3981004E0,1.1978334E1,9.464092E1,2.9746246E1],"tree_param":{"num_deleted":"0","num_feature":"7","num_nodes":"15","size_leaf_vector":"1"}},{"base_weights":[-6.0995016E-4,1.7853001E-2,-3.9751178E-1,-2.1457346E-2,2.3715965E-1,9.24542E-1,-4.7105733E-1,-2.878499E-3,1.760971E-2,-2.3363486E-2,1.7591722E-2,-1.5435435E-2,6.71237E-2,-4.4118058E-2,-1.1089971E-2],"categories":[],"categories_nodes":[],"categories_segments":[],"categories_sizes":[],"default_left":[0,0,0,0,0,0,0,0,0,0,0,0,0,0,0],"id":61,"left_children":[1,3,5,7,9,11,13,-1,-1,-1,-1,-1,-1,-1,-1],"loss_changes":[1.7437952E1,1.9608398E1,1.0720125E1,2.6051693E1,2.8091784E1,3.4613972E0,1.0144857E1,0E0,0E0,0E0,0E0,0E0,0E0,0E0,0E0],"parents":[2147483647,0,0,1,1,2,2,3,3,4,4,5,5,6,6],"right_children":[2,4,6,8,10,12,14,-1,-1,-1,-1,-1,-1,-1,-1],"split_conditions":[9.698093E-1,8.571531E-5,-8.646355E-4,9.526355E-1,8.9064306E-1,1.269357E-4,-2.7817086E-4,-2.878499E-3,1.760971E-2,-2.3363486E-2,1.7591722E-2,-1.5435435E-2,6.71237E-2,-4.4118058E-2,-1.1089971E-2],"split_indices":[1,5,6,1,1,5,6,0,0,0,0,0,0,0,0],"split_type":[0,0,0,0,0,0,0,0,0,0,0,0,0,0,0],"sum_hessian":[2.3776716E3,2.2728967E3,1.0477486E2,1.9281765E3,3.4472025E2,4.9116735E0,9.986318E1,1.7590171E3,1.6915936E2,4.783046E1,2.9688977E2,1.3093456E0,3.602328E0,3.6724182E1,6.3139004E1],"tree_param":{"num_deleted":"0","num_feature":"7","num_nodes":"15","size_leaf_vector":"1"}},{"base_weights":[-5.9598795E-4,3.0975324E-1,-2.399967E-2,6.8050975E-1,-2.4629277E-1,-1.8734185E-1,4.3480225E-2,-1.8539708E-2,4.6399027E-2,6.470324E-2,-2.1166237E-2,-1.2985493E-2,3.6080558E-2,7.072513E-3,-1.2623179E-2],"categories":[],"categories_nodes":[],"categories_segments":[],"categories_sizes":[],"default_left":[0,0,0,0,0,0,0,0,0,0,0,0,0,0,0],"id":62,"left_children":[1,3,5,7,9,11,13,-1,-1,-1,-1,-1,-1,-1,-1],"loss_changes":[1.7286556E1,3.4573486E1,2.4401266E1,2.6463299E1,1.8953758E1,4.2757652E1,4.546575E1,0E0,0E0,0E0,0E0,0E0,0E0,0E0,0E0],"parents":[2147483647,0,0,1,1,2,2,3,3,4,4,5,5,6,6],"right_children":[2,4,6,8,10,12,14,-1,-1,-1,-1,-1,-1,-1,-1],"split_conditions":[5.511811E-1,3.2210395E-5,3.468563E-5,7.98391E-1,4.8031497E-1,7.1653545E-1,7.1653545E-1,-1.8539708E-2,4.6399027E-2,6.470324E-2,-2.1166237E-2,-1.2985493E-2,3.6080558E-2,7.072513E-3,-1.2623179E-2],"split_indices":[0,5,5,1,0,0,0,0,0,0,0,0,0,0,0],"split_type":[0,0,0,0,0,0,0,0,0,0,0,0,0,0,0],"sum_hessian":[2.3779583E3,1.6589108E2,2.2120671E3,9.9394E1,6.649708E1,6.4616956E2,1.5658976E3,1.8843754E1,8.055025E1,6.2042274E0,6.029285E1,5.991791E2,4.6990494E1,1.1768365E3,3.890611E2],"tree_param":{"num_deleted":"0","num_feature":"7","num_nodes":"15","size_leaf_vector":"1"}},{"base_weights":[-5.3435634E-4,2.0866517E-2,-3.3298668E-1,9.557807E-3,9.259325E-1,6.467892E-1,-4.9067706E-1,1.3574666E-3,-2.6839746E-2,5.4611057E-2,-4.3699782E-2,7.376751E-2,3.1574008E-3,-4.0655956E-2,-5.493198E-3],"categories":[],"categories_nodes":[],"categories_segments":[],"categories_sizes":[],"default_left":[0,0,0,0,0,0,0,0,0,0,0,0,0,0,0],"id":63,"left_children":[1,3,5,7,9,11,13,-1,-1,-1,-1,-1,-1,-1,-1],"loss_changes":[1.691685E1,2.2855705E1,2.2535048E1,2.1230011E1,9.202864E0,9.756037E0,1.5190111E1,0E0,0E0,0E0,0E0,0E0,0E0,0E0,0E0],"parents":[2147483647,0,0,1,1,2,2,3,3,4,4,5,5,6,6],"right_children":[2,4,6,8,10,12,14,-1,-1,-1,-1,-1,-1,-1,-1],"split_conditions":[2.8235523E-4,2.1215729E-4,6.456693E-1,7.637795E-1,7.7165353E-1,7.2413795E1,1.01962054E-4,1.3574666E-3,-2.6839746E-2,5.4611057E-2,-4.3699782E-2,7.376751E-2,3.1574008E-3,-4.0655956E-2,-5.493198E-3],"split_indices":[6,5,0,0,0,4,5,0,0,0,0,0,0,0,0],"split_type":[0,0,0,0,0,0,0,0,0,0,0,0,0,0,0],"sum_hessian":[2.375732E3,2.2329292E3,1.428026E2,2.2063713E3,2.6557835E1,1.9367167E1,1.23435425E2,2.1384673E3,6.790429E1,2.4671696E1,1.8861383E0,7.3727164E0,1.199445E1,6.622564E1,5.7209785E1],"tree_param":{"num_deleted":"0","num_feature":"7","num_nodes":"15","size_leaf_vector":"1"}},{"base_weights":[-5.119893E-4,1.7202811E-2,-3.8508958E-1,-2.129121E-2,2.3226541E-1,-1.0489895E0,-2.2720559E-1,5.9085814E-3,-5.5934037E-3,-2.2070948E-2,1.7102558E-2,-5.6397397E-2,-1.62288E-2,-2.8475318E-2,2.0756915E-3],"categories":[],"categories_nodes":[],"categories_segments":[],"categories_sizes":[],"default_left":[0,0,0,0,0,0,0,0,0,0,0,0,0,0,0],"id":64,"left_children":[1,3,5,7,9,11,13,-1,-1,-1,-1,-1,-1,-1,-1],"loss_changes":[1.618024E1,1.8801157E1,1.0723912E1,2.435119E1,2.5650898E1,7.673569E-1,7.9126625E0,0E0,0E0,0E0,0E0,0E0,0E0,0E0,0E0],"parents":[2147483647,0,0,1,1,2,2,3,3,4,4,5,5,6,6],"right_children":[2,4,6,8,10,12,14,-1,-1,-1,-1,-1,-1,-1,-1],"split_conditions":[9.698093E-1,8.571531E-5,5.0404968E-5,8.857839E-1,8.9064306E-1,1.0173807E-4,-2.7817086E-4,5.9085814E-3,-5.5934037E-3,-2.2070948E-2,1.7102558E-2,-5.6397397E-2,-1.62288E-2,-2.8475318E-2,2.0756915E-3],"split_indices":[1,5,5,1,1,6,6,0,0,0,0,0,0,0,0],"split_type":[0,0,0,0,0,0,0,0,0,0,0,0,0,0,0],"sum_hessian":[2.3730334E3,2.269451E3,1.03582466E2,1.9256755E3,3.4377536E2,1.881627E1,8.47662E1,7.581041E2,1.1675714E3,4.774911E1,2.9602625E2,1.6464638E1,2.351634E0,3.6786896E1,4.79793E1],"tree_param":{"num_deleted":"0","num_feature":"7","num_nodes":"15","size_leaf_vector":"1"}},{"base_weights":[-5.4751174E-4,5.6146376E-2,-1.19954765E-1,-1.9933531E-2,4.4248962E-1,3.9053097E-2,-3.6103958E-1,4.603325E-3,-1.3394214E-2,3.419286E-2,-4.872846E-3,-5.145637E-2,4.45342E-3,-8.768204E-3,-3.2623306E-2],"categories":[],"categories_nodes":[],"categories_segments":[],"categories_sizes":[],"default_left":[0,0,0,0,0,0,0,0,0,0,0,0,0,0,0],"id":65,"left_children":[1,3,5,7,9,11,13,-1,-1,-1,-1,-1,-1,-1,-1],"loss_changes":[1.6068247E1,4.7314705E1,2.930706E1,3.7392513E1,3.4581226E1,2.4739672E1,1.6323845E1,0E0,0E0,0E0,0E0,0E0,0E0,0E0,0E0],"parents":[2147483647,0,0,1,1,2,2,3,3,4,4,5,5,6,6],"right_children":[2,4,6,8,10,12,14,-1,-1,-1,-1,-1,-1,-1,-1],"split_conditions":[6.929134E-1,9.402695E-1,9.360226E-1,6.456693E-1,9.6308905E-1,8.4135616E-1,2.0764293E-5,4.603325E-3,-1.3394214E-2,3.419286E-2,-4.872846E-3,-5.145637E-2,4.45342E-3,-8.768204E-3,-3.2623306E-2],"split_indices":[0,1,1,0,1,1,6,0,0,0,0,0,0,0,0],"split_type":[0,0,0,0,0,0,0,0,0,0,0,0,0,0,0],"sum_hessian":[2.3715723E3,1.6084291E3,7.6314325E2,1.3445956E3,2.638335E2,4.6035403E2,3.0278918E2,9.266528E2,4.1794284E2,1.8214452E2,8.168899E1,1.9715363E1,4.4063867E2,1.8593002E2,1.1685917E2],"tree_param":{"num_deleted":"0","num_feature":"7","num_nodes":"15","size_leaf_vector":"1"}},{"base_weights":[-5.885932E-4,9.8033E-3,-6.4143157E-1,-2.92014E-2,2.2331452E-1,9.6628547E-1,-8.3688015E-1,5.731502E-3,-5.9294654E-3,1.8360792E-2,-1.6263952E-2,1.05867796E-1,-2.1745814E-2,-5.6572944E-2,-1.05753755E-2],"categories":[],"categories_nodes":[],"categories_segments":[],"categories_sizes":[],"default_left":[0,0,0,0,0,0,0,0,0,0,0,0,0,0,0],"id":66,"left_children":[1,3,5,7,9,11,13,-1,-1,-1,-1,-1,-1,-1,-1],"loss_changes":[1.5780262E1,1.9425655E1,1.2690043E1,2.5373728E1,2.8562437E1,8.279783E0,6.0700893E0,0E0,0E0,0E0,0E0,0E0,0E0,0E0,0E0],"parents":[2147483647,0,0,1,1,2,2,3,3,4,4,5,5,6,6],"right_children":[2,4,6,8,10,12,14,-1,-1,-1,-1,-1,-1,-1,-1],"split_conditions":[7.7952754E-1,8.571531E-5,2.3762377E1,8.857839E-1,9.5721686E-1,9.2166877E-1,3.492954E-5,5.731502E-3,-5.9294654E-3,1.8360792E-2,-1.6263952E-2,1.05867796E-1,-2.1745814E-2,-5.6572944E-2,-1.05753755E-2],"split_indices":[0,5,4,1,1,1,6,0,0,0,0,0,0,0,0],"split_type":[0,0,0,0,0,0,0,0,0,0,0,0,0,0,0],"sum_hessian":[2.3676167E3,2.3308052E3,3.681157E1,1.9715088E3,3.5929633E2,3.562586E0,3.3248985E1,7.5552826E2,1.2159806E3,2.8489603E2,7.4400314E1,1.6752713E0,1.8873148E0,2.2052164E1,1.119682E1],"tree_param":{"num_deleted":"0","num_feature":"7","num_nodes":"15","size_leaf_vector":"1"}},{"base_weights":[-5.724325E-4,2.0139989E-2,-3.2463184E-1,9.477396E-3,9.0164745E-1,8.338788E-1,-4.4946244E-1,1.3032587E-3,-2.5889248E-2,5.3235024E-2,-4.248667E-2,-2.3178337E-2,4.8983715E-2,-3.0999158E-2,6.2485123E-3],"categories":[],"categories_nodes":[],"categories_segments":[],"categories_sizes":[],"default_left":[0,0,0,0,0,0,0,0,0,0,0,0,0,0,0],"id":67,"left_children":[1,3,5,7,9,11,13,-1,-1,-1,-1,-1,-1,-1,-1],"loss_changes":[1.5888663E1,2.0904566E1,2.0940893E1,1.9249855E1,8.495399E0,3.1370258E0,1.2716034E1,0E0,0E0,0E0,0E0,0E0,0E0,0E0,0E0],"parents":[2147483647,0,0,1,1,2,2,3,3,4,4,5,5,6,6],"right_children":[2,4,6,8,10,12,14,-1,-1,-1,-1,-1,-1,-1,-1],"split_conditions":[2.8235523E-4,2.1215729E-4,6.3779527E-1,7.637795E-1,7.7165353E-1,2.9184797E-4,7.401575E-1,1.3032587E-3,-2.5889248E-2,5.3235024E-2,-4.248667E-2,-2.3178337E-2,4.8983715E-2,-3.0999158E-2,6.2485123E-3],"split_indices":[6,5,0,0,0,6,0,0,0,0,0,0,0,0,0],"split_type":[0,0,0,0,0,0,0,0,0,0,0,0,0,0,0],"sum_hessian":[2.3652092E3,2.223999E3,1.4121017E2,2.198418E3,2.5581013E1,1.3183014E1,1.2802716E2,2.1322864E3,6.613159E1,2.3760954E1,1.8200588E0,1.1115623E0,1.2071452E1,9.866045E1,2.9366716E1],"tree_param":{"num_deleted":"0","num_feature":"7","num_nodes":"15","size_leaf_vector":"1"}},{"base_weights":[-5.5710046E-4,2.2227138E-2,-2.6937142E-1,-1.6844667E-2,2.648797E-1,3.5869992E-1,-4.2722514E-1,5.753508E-3,-5.187341E-3,1.7425247E-2,-4.771791E-2,-8.627751E-3,4.3151204E-2,-3.0623922E-2,1.1449303E-2],"categories":[],"categories_nodes":[],"categories_segments":[],"categories_sizes":[],"default_left":[0,0,0,0,0,0,0,0,0,0,0,0,0,0,0],"id":68,"left_children":[1,3,5,7,9,11,13,-1,-1,-1,-1,-1,-1,-1,-1],"loss_changes":[1.4483448E1,2.067277E1,1.8472069E1,2.1547615E1,3.1164997E1,1.0237626E1,1.8146017E1,0E0,0E0,0E0,0E0,0E0,0E0,0E0,0E0],"parents":[2147483647,0,0,1,1,2,2,3,3,4,4,5,5,6,6],"right_children":[2,4,6,8,10,12,14,-1,-1,-1,-1,-1,-1,-1,-1],"split_conditions":[2.3567949E-4,8.571531E-5,6.6141737E-1,8.857839E-1,9.772276E-1,9.288154E-1,1.481893E-4,5.753508E-3,-5.187341E-3,1.7425247E-2,-4.771791E-2,-8.627751E-3,4.3151204E-2,-3.0623922E-2,1.1449303E-2],"split_indices":[6,5,0,1,1,1,5,0,0,0,0,0,0,0,0],"split_type":[0,0,0,0,0,0,0,0,0,0,0,0,0,0,0],"sum_hessian":[2.3627712E3,2.1790002E3,1.8377101E2,1.8776006E3,3.013998E2,3.665501E1,1.47116E2,7.4555164E2,1.132049E3,2.8272256E2,1.867725E1,1.8171259E1,1.8483751E1,1.14779526E2,3.233647E1],"tree_param":{"num_deleted":"0","num_feature":"7","num_nodes":"15","size_leaf_vector":"1"}},{"base_weights":[-5.6008645E-4,5.2635755E-2,-1.13272205E-1,-3.269014E-2,3.8631082E-1,4.750384E-2,-3.2242382E-1,4.416799E-3,-1.2696615E-2,-2.4221165E-2,2.36776E-2,-1.0358541E-2,1.5080775E-2,-2.3998043E-2,1.8056745E-3],"categories":[],"categories_nodes":[],"categories_segments":[],"categories_sizes":[],"default_left":[0,0,0,0,0,0,0,0,0,0,0,0,0,0,0],"id":69,"left_children":[1,3,5,7,9,11,13,-1,-1,-1,-1,-1,-1,-1,-1],"loss_changes":[1.4161963E1,4.569884E1,2.54817E1,3.4263664E1,2.505828E1,2.7829082E1,1.8615738E1,0E0,0E0,0E0,0E0,0E0,0E0,0E0,0E0],"parents":[2147483647,0,0,1,1,2,2,3,3,4,4,5,5,6,6],"right_children":[2,4,6,8,10,12,14,-1,-1,-1,-1,-1,-1,-1,-1],"split_conditions":[6.929134E-1,9.313852E-1,9.3286127E-1,6.3779527E-1,-4.0055564E-4,9.079492E-1,1.0608446E-4,4.416799E-3,-1.2696615E-2,-2.4221165E-2,2.36776E-2,-1.0358541E-2,1.5080775E-2,-2.3998043E-2,1.8056745E-3],"split_indices":[0,1,1,0,6,1,5,0,0,0,0,0,0,0,0],"split_type":[0,0,0,0,0,0,0,0,0,0,0,0,0,0,0],"sum_hessian":[2.35998E3,1.6036506E3,7.563293E2,1.2777996E3,3.2585117E2,4.2805432E2,3.2827496E2,8.2635767E2,4.5144186E2,2.926011E1,2.9659103E2,2.1388258E2,2.1417174E2,2.2783034E2,1.0044462E2],"tree_param":{"num_deleted":"0","num_feature":"7","num_nodes":"15","size_leaf_vector":"1"}},{"base_weights":[-5.8143906E-4,9.163255E-3,-6.192306E-1,-6.8737015E-2,1.0297136E-1,9.3015575E-1,-8.1675357E-1,-5.451951E-3,3.5962973E-2,9.188489E-3,-1.0652955E-2,9.974087E-2,-2.1127596E-2,-5.6008644E-2,-9.618667E-3],"categories":[],"categories_nodes":[],"categories_segments":[],"categories_sizes":[],"default_left":[0,0,0,0,0,0,0,0,0,0,0,0,0,0,0],"id":70,"left_children":[1,3,5,7,9,11,13,-1,-1,-1,-1,-1,-1,-1,-1],"loss_changes":[1.4214922E1,1.6971329E1,1.1950102E1,4.0374302E1,2.6942085E1,7.4705553E0,6.029358E0,0E0,0E0,0E0,0E0,0E0,0E0,0E0,0E0],"parents":[2147483647,0,0,1,1,2,2,3,3,4,4,5,5,6,6],"right_children":[2,4,6,8,10,12,14,-1,-1,-1,-1,-1,-1,-1,-1],"split_conditions":[7.7952754E-1,4.76111E-5,2.3762377E1,9.532796E-1,1.6940324E-4,9.2166877E-1,3.492954E-5,-5.451951E-3,3.5962973E-2,9.188489E-3,-1.0652955E-2,9.974087E-2,-2.1127596E-2,-5.6008644E-2,-9.618667E-3],"split_indices":[0,5,4,1,6,1,6,0,0,0,0,0,0,0,0],"split_type":[0,0,0,0,0,0,0,0,0,0,0,0,0,0,0],"sum_hessian":[2.355994E3,2.3204287E3,3.55652E1,1.2678479E3,1.0525808E3,3.6019673E0,3.1963232E1,1.2069786E3,6.0869198E1,8.385979E2,2.1398294E2,1.74996E0,1.8520074E0,2.0975887E1,1.0987344E1],"tree_param":{"num_deleted":"0","num_feature":"7","num_nodes":"15","size_leaf_vector":"1"}},{"base_weights":[-5.596161E-4,2.7621952E-1,-2.1334646E-2,6.36899E-1,-2.5860232E-1,-1.2451589E-1,7.6009214E-2,-7.6710037E-3,4.814493E-2,6.260741E-2,-2.1403141E-2,-8.815996E-3,2.6275558E-2,9.757077E-3,-1.0066317E-2],"categories":[],"categories_nodes":[],"categories_segments":[],"categories_sizes":[],"default_left":[0,0,0,0,0,0,0,0,0,0,0,0,0,0,0],"id":71,"left_children":[1,3,5,7,9,11,13,-1,-1,-1,-1,-1,-1,-1,-1],"loss_changes":[1.3558959E1,3.1923054E1,2.2039902E1,2.555531E1,1.7694414E1,3.5960327E1,3.7348824E1,0E0,0E0,0E0,0E0,0E0,0E0,0E0,0E0],"parents":[2147483647,0,0,1,1,2,2,3,3,4,4,5,5,6,6],"right_children":[2,4,6,8,10,12,14,-1,-1,-1,-1,-1,-1,-1,-1],"split_conditions":[5.511811E-1,3.2210395E-5,4.571231E-5,5.03937E-1,4.8031497E-1,9.4600195E-1,7.1653545E-1,-7.6710037E-3,4.814493E-2,6.260741E-2,-2.1403141E-2,-8.815996E-3,2.6275558E-2,9.757077E-3,-1.0066317E-2],"split_indices":[0,5,5,0,0,1,0,0,0,0,0,0,0,0,0],"split_type":[0,0,0,0,0,0,0,0,0,0,0,0,0,0,0],"sum_hessian":[2.3560164E3,1.63637E2,2.1923794E3,9.761522E1,6.6021774E1,1.0641436E3,1.1282358E3,2.8661255E1,6.8953964E1,6.0143614E0,6.0007412E1,9.8627124E2,7.787233E1,7.8942615E2,3.3880972E2],"tree_param":{"num_deleted":"0","num_feature":"7","num_nodes":"15","size_leaf_vector":"1"}},{"base_weights":[-4.89596E-4,1.0794886E-2,-5.154086E-1,-2.4485385E-2,2.0298973E-1,-8.061517E-1,2.081097E-1,5.3247777E-3,-5.359754E-3,-2.1564657E-2,1.5372472E-2,-1.975152E-2,-5.4110702E-2,-1.875526E-2,6.789929E-2],"categories":[],"categories_nodes":[],"categories_segments":[],"categories_sizes":[],"default_left":[0,0,0,0,0,0,0,0,0,0,0,0,0,0,0],"id":72,"left_children":[1,3,5,7,9,11,13,-1,-1,-1,-1,-1,-1,-1,-1],"loss_changes":[1.3688215E1,1.5636202E1,1.07948265E1,2.112154E1,2.3828873E1,3.6858482E0,1.0754068E1,0E0,0E0,0E0,0E0,0E0,0E0,0E0,0E0],"parents":[2147483647,0,0,1,1,2,2,3,3,4,4,5,5,6,6],"right_children":[2,4,6,8,10,12,14,-1,-1,-1,-1,-1,-1,-1,-1],"split_conditions":[9.760044E-1,8.571531E-5,6.2456093E-6,8.857839E-1,8.921988E-1,9.80933E-1,9.829E-1,5.3247777E-3,-5.359754E-3,-2.1564657E-2,1.5372472E-2,-1.975152E-2,-5.4110702E-2,-1.875526E-2,6.789929E-2],"split_indices":[1,5,6,1,1,1,1,0,0,0,0,0,0,0,0],"split_type":[0,0,0,0,0,0,0,0,0,0,0,0,0,0,0],"sum_hessian":[2.3537769E3,2.304258E3,4.951893E1,1.9476162E3,3.566418E2,3.5242607E1,1.4276321E1,7.537202E2,1.193896E3,4.9987465E1,3.0665436E2,1.51346E1,2.0108007E1,9.91914E0,4.357182E0],"tree_param":{"num_deleted":"0","num_feature":"7","num_nodes":"15","size_leaf_vector":"1"}},{"base_weights":[-4.968985E-4,1.8568438E-2,-3.0291992E-1,8.680484E-3,8.681646E-1,7.810611E-1,-4.217255E-1,1.2181912E-3,-2.5040075E-2,5.150182E-2,-4.1574597E-2,-2.2073844E-2,4.6007946E-2,-2.9427597E-2,6.71808E-3],"categories":[],"categories_nodes":[],"categories_segments":[],"categories_sizes":[],"default_left":[0,0,0,0,0,0,0,0,0,0,0,0,0,0,0],"id":73,"left_children":[1,3,5,7,9,11,13,-1,-1,-1,-1,-1,-1,-1,-1],"loss_changes":[1.3573771E1,1.8596817E1,1.8308937E1,1.7512203E1,7.863344E0,2.8108969E0,1.1811741E1,0E0,0E0,0E0,0E0,0E0,0E0,0E0,0E0],"parents":[2147483647,0,0,1,1,2,2,3,3,4,4,5,5,6,6],"right_children":[2,4,6,8,10,12,14,-1,-1,-1,-1,-1,-1,-1,-1],"split_conditions":[2.8235523E-4,2.1215729E-4,6.3779527E-1,7.637795E-1,7.7165353E-1,2.9184797E-4,7.401575E-1,1.2181912E-3,-2.5040075E-2,5.150182E-2,-4.1574597E-2,-2.2073844E-2,4.6007946E-2,-2.9427597E-2,6.71808E-3],"split_indices":[6,5,0,0,0,6,0,0,0,0,0,0,0,0,0],"split_type":[0,0,0,0,0,0,0,0,0,0,0,0,0,0,0],"sum_hessian":[2.352213E3,2.2136018E3,1.3861116E2,2.1891338E3,2.446783E1,1.3140754E1,1.254704E2,2.1246821E3,6.445172E1,2.2699911E1,1.7679207E0,1.1203223E0,1.20204315E1,9.647074E1,2.8999659E1],"tree_param":{"num_deleted":"0","num_feature":"7","num_nodes":"15","size_leaf_vector":"1"}},{"base_weights":[-4.8435677E-4,1.5272007E-2,-3.5066107E-1,-1.2700584E-3,4.091026E-1,-1.0387565E0,-1.8593682E-1,1.4693283E-2,-1.5292892E-3,-2.2089179E-3,4.0255625E-2,-5.5969685E-2,-1.5529226E-2,4.6427336E-2,-1.3314279E-2],"categories":[],"categories_nodes":[],"categories_segments":[],"categories_sizes":[],"default_left":[0,0,0,0,0,0,0,0,0,0,0,0,0,0,0],"id":74,"left_children":[1,3,5,7,9,11,13,-1,-1,-1,-1,-1,-1,-1,-1],"loss_changes":[1.2976234E1,1.4662609E1,1.12848425E1,1.8705067E1,1.6320889E1,7.880287E-1,7.6728354E0,0E0,0E0,0E0,0E0,0E0,0E0,0E0,0E0],"parents":[2147483647,0,0,1,1,2,2,3,3,4,4,5,5,6,6],"right_children":[2,4,6,8,10,12,14,-1,-1,-1,-1,-1,-1,-1,-1],"split_conditions":[9.698093E-1,1.6583808E-4,5.0404968E-5,-2.3129614E-4,4.6153847E1,1.0173807E-4,-8.646355E-4,1.4693283E-2,-1.5292892E-3,-2.2089179E-3,4.0255625E-2,-5.5969685E-2,-1.5529226E-2,4.6427336E-2,-1.3314279E-2],"split_indices":[1,5,5,6,4,6,6,0,0,0,0,0,0,0,0],"split_type":[0,0,0,0,0,0,0,0,0,0,0,0,0,0,0],"sum_hessian":[2.3498564E3,2.2495913E3,1.0026502E2,2.1598672E3,8.972413E1,1.8341566E1,8.1923454E1,1.9433885E2,1.9655284E3,4.2251106E1,4.7473026E1,1.6029236E1,2.312331E0,4.7992086E0,7.7124245E1],"tree_param":{"num_deleted":"0","num_feature":"7","num_nodes":"15","size_leaf_vector":"1"}},{"base_weights":[-4.6309695E-4,5.016786E-2,-1.0837585E-1,-1.785699E-2,4.094776E-1,-4.8026154E-3,-4.2240268E-1,3.8894233E-3,-1.1416416E-2,3.176214E-2,-6.5424936E-3,-5.0715383E-2,1.5965492E-3,-8.789747E-3,-3.6954593E-2],"categories":[],"categories_nodes":[],"categories_segments":[],"categories_sizes":[],"default_left":[0,0,0,0,0,0,0,0,0,0,0,0,0,0,0],"id":75,"left_children":[1,3,5,7,9,11,13,-1,-1,-1,-1,-1,-1,-1,-1],"loss_changes":[1.284255E1,3.91116E1,2.44122E1,2.7116884E1,3.1155376E1,2.100171E1,1.44088745E1,0E0,0E0,0E0,0E0,0E0,0E0,0E0,0E0],"parents":[2147483647,0,0,1,1,2,2,3,3,4,4,5,5,6,6],"right_children":[2,4,6,8,10,12,14,-1,-1,-1,-1,-1,-1,-1,-1],"split_conditions":[6.929134E-1,9.4071704E-1,9.473629E-1,6.456693E-1,7.5796306E-5,8.4135616E-1,-3.9879844E-5,3.8894233E-3,-1.1416416E-2,3.176214E-2,-6.5424936E-3,-5.0715383E-2,1.5965492E-3,-8.789747E-3,-3.6954593E-2],"split_indices":[0,1,1,0,5,1,6,0,0,0,0,0,0,0,0],"split_type":[0,0,0,0,0,0,0,0,0,0,0,0,0,0,0],"sum_hessian":[2.3485164E3,1.5988815E3,7.496348E2,1.3451641E3,2.537174E2,5.6447375E2,1.8516106E2,9.253042E2,4.198599E2,1.7882375E2,7.489366E1,1.8884392E1,5.4558936E2,1.0497304E2,8.018803E1],"tree_param":{"num_deleted":"0","num_feature":"7","num_nodes":"15","size_leaf_vector":"1"}},{"base_weights":[-5.0919614E-4,8.571455E-3,-5.950123E-1,-2.5655871E-2,1.965859E-1,9.1174155E-1,-7.9536307E-1,5.18461E-3,-5.3159064E-3,1.6341148E-2,-1.5672043E-2,8.578488E-2,-3.348237E-2,-5.5353492E-2,-8.849706E-3],"categories":[],"categories_nodes":[],"categories_segments":[],"categories_sizes":[],"default_left":[0,0,0,0,0,0,0,0,0,0,0,0,0,0,0],"id":76,"left_children":[1,3,5,7,9,11,13,-1,-1,-1,-1,-1,-1,-1,-1],"loss_changes":[1.2672671E1,1.4884538E1,1.1386449E1,2.0429163E1,2.3763798E1,7.010865E0,5.9153156E0,0E0,0E0,0E0,0E0,0E0,0E0,0E0,0E0],"parents":[2147483647,0,0,1,1,2,2,3,3,4,4,5,5,6,6],"right_children":[2,4,6,8,10,12,14,-1,-1,-1,-1,-1,-1,-1,-1],"split_conditions":[7.7952754E-1,8.571531E-5,2.3762377E1,8.857839E-1,9.5721686E-1,9.272159E-1,3.492954E-5,5.18461E-3,-5.3159064E-3,1.6341148E-2,-1.5672043E-2,8.578488E-2,-3.348237E-2,-5.5353492E-2,-8.849706E-3],"split_indices":[0,5,4,1,1,1,6,0,0,0,0,0,0,0,0],"split_type":[0,0,0,0,0,0,0,0,0,0,0,0,0,0,0],"sum_hessian":[2.3455088E3,2.3111924E3,3.4316387E1,1.9559775E3,3.5521487E2,3.6107469E0,3.0705643E1,7.5115607E2,1.2048215E3,2.832462E2,7.196868E1,2.337476E0,1.273271E0,1.9889471E1,1.0816171E1],"tree_param":{"num_deleted":"0","num_feature":"7","num_nodes":"15","size_leaf_vector":"1"}},{"base_weights":[-5.0694804E-4,1.7943947E-2,-2.9533058E-1,8.607224E-3,8.483621E-1,5.593851E-1,-4.3794963E-1,1.1723876E-3,-2.4184791E-2,5.0276447E-2,-4.013702E-2,6.822846E-2,2.2299272E-4,-3.71794E-2,-4.5005684E-3],"categories":[],"categories_nodes":[],"categories_segments":[],"categories_sizes":[],"default_left":[0,0,0,0,0,0,0,0,0,0,0,0,0,0,0],"id":77,"left_children":[1,3,5,7,9,11,13,-1,-1,-1,-1,-1,-1,-1,-1],"loss_changes":[1.2757485E1,1.7105413E1,1.708244E1,1.5964799E1,7.1725388E0,9.015707E0,1.2581047E1,0E0,0E0,0E0,0E0,0E0,0E0,0E0,0E0],"parents":[2147483647,0,0,1,1,2,2,3,3,4,4,5,5,6,6],"right_children":[2,4,6,8,10,12,14,-1,-1,-1,-1,-1,-1,-1,-1],"split_conditions":[2.8235523E-4,2.1215729E-4,6.456693E-1,7.637795E-1,7.7165353E-1,7.2413795E1,1.01962054E-4,1.1723876E-3,-2.4184791E-2,5.0276447E-2,-4.013702E-2,6.822846E-2,2.2299272E-4,-3.71794E-2,-4.5005684E-3],"split_indices":[6,5,0,0,0,4,5,0,0,0,0,0,0,0,0],"split_type":[0,0,0,0,0,0,0,0,0,0,0,0,0,0,0],"sum_hessian":[2.3432554E3,2.206129E3,1.3712662E2,2.1825994E3,2.3529469E1,1.919125E1,1.1793537E2,2.1196545E3,6.2944847E1,2.1841404E1,1.6880662E0,7.2347603E0,1.1956489E1,6.217875E1,5.575662E1],"tree_param":{"num_deleted":"0","num_feature":"7","num_nodes":"15","size_leaf_vector":"1"}},{"base_weights":[-4.842175E-4,1.7050046E-2,-2.8323606E-1,-5.855508E-2,1.1517146E-1,4.0566936E-1,-4.4961265E-1,-4.8437123E-3,3.4991E-2,8.424944E-3,-2.023782E-2,7.971779E-3,8.355577E-2,-4.0828444E-2,-4.285496E-3],"categories":[],"categories_nodes":[],"categories_segments":[],"categories_sizes":[],"default_left":[0,0,0,0,0,0,0,0,0,0,0,0,0,0,0],"id":78,"left_children":[1,3,5,7,9,11,13,-1,-1,-1,-1,-1,-1,-1,-1],"loss_changes":[1.1615088E1,1.6371893E1,1.5861934E1,3.62949E1,2.6696053E1,8.189299E0,1.4707375E1,0E0,0E0,0E0,0E0,0E0,0E0,0E0,0E0],"parents":[2147483647,0,0,1,1,2,2,3,3,4,4,5,5,6,6],"right_children":[2,4,6,8,10,12,14,-1,-1,-1,-1,-1,-1,-1,-1],"split_conditions":[2.8235523E-4,4.76111E-5,6.6141737E-1,9.532796E-1,7.559055E-1,6.391186E-5,1.01962054E-4,-4.8437123E-3,3.4991E-2,8.424944E-3,-2.023782E-2,7.971779E-3,8.355577E-2,-4.0828444E-2,-4.285496E-3],"split_indices":[6,5,0,1,0,5,5,0,0,0,0,0,0,0,0],"split_type":[0,0,0,0,0,0,0,0,0,0,0,0,0,0,0],"sum_hessian":[2.3407954E3,2.2049968E3,1.3579857E2,1.2456184E3,9.593785E2,2.6136885E1,1.0966168E2,1.1865374E3,5.908109E1,8.7074475E2,8.863372E1,2.2822094E1,3.3147907E0,5.39824E1,5.5679283E1],"tree_param":{"num_deleted":"0","num_feature":"7","num_nodes":"15","size_leaf_vector":"1"}},{"base_weights":[-4.5720657E-4,1.4618259E-2,-3.3815676E-1,-9.1884803E-4,3.907775E-1,-1.0324382E0,-1.7278466E-1,1.3924293E-2,-1.4358334E-3,-2.19267E-3,3.8519915E-2,-5.566969E-2,-1.5417064E-2,-2.59016E-2,4.4934135E-3],"categories":[],"categories_nodes":[],"categories_segments":[],"categories_sizes":[],"default_left":[0,0,0,0,0,0,0,0,0,0,0,0,0,0,0],"id":79,"left_children":[1,3,5,7,9,11,13,-1,-1,-1,-1,-1,-1,-1,-1],"loss_changes":[1.1921964E1,1.3102033E1,1.1311532E1,1.6736332E1,1.470572E1,7.734108E-1,7.484448E0,0E0,0E0,0E0,0E0,0E0,0E0,0E0,0E0],"parents":[2147483647,0,0,1,1,2,2,3,3,4,4,5,5,6,6],"right_children":[2,4,6,8,10,12,14,-1,-1,-1,-1,-1,-1,-1,-1],"split_conditions":[9.698093E-1,1.6583808E-4,5.0404968E-5,-2.3129614E-4,4.6153847E1,1.0173807E-4,-2.7817086E-4,1.3924293E-2,-1.4358334E-3,-2.19267E-3,3.8519915E-2,-5.566969E-2,-1.5417064E-2,-2.59016E-2,4.4934135E-3],"split_indices":[1,5,5,6,4,6,6,0,0,0,0,0,0,0,0],"split_type":[0,0,0,0,0,0,0,0,0,0,0,0,0,0,0],"sum_hessian":[2.3398115E3,2.240738E3,9.9073524E1,2.1528145E3,8.792358E1,1.8050215E1,8.1023315E1,1.9398555E2,1.9588289E3,4.140413E1,4.6519447E1,1.575153E1,2.298686E0,3.4587303E1,4.643601E1],"tree_param":{"num_deleted":"0","num_feature":"7","num_nodes":"15","size_leaf_vector":"1"}},{"base_weights":[-4.6182517E-4,4.803035E-2,-1.0444877E-1,-2.807848E-2,3.423206E-1,-6.1285393E-3,-4.0594676E-1,4.061734E-3,-1.1491067E-2,