{"learner":{"attributes":{},"feature_names":[],"feature_types":[],"gradient_booster":{"model":{"cats":{"enc":[],"feature_segments":[],"sorted_idx":[]},"gbtree_model_param":{"num_parallel_tree":"1","num_trees":"100"},"iteration_indptr":[0,1,2,3,4,5,6,7,8,9,10,11,12,13,14,15,16,17,18,19,20,21,22,23,24,25,26,27,28,29,30,31,32,33,34,35,36,37,38,39,40,41,42,43,44,45,46,47,48,49,50,51,52,53,54,55,56,57,58,59,60,61,62,63,64,65,66,67,68,69,70,71,72,73,74,75,76,77,78,79,80,81,82,83,84,85,86,87,88,89,90,91,92,93,94,95,96,97,98,99,100],"tree_info":[0,0,0,0,0,0,0,0,0,0,0,0,0,0,0,0,0,0,0,0,0,0,0,0,0,0,0,0,0,0,0,0,0,0,0,0,0,0,0,0,0,0,0,0,0,0,0,0,0,0,0,0,0,0,0,0,0,0,0,0,0,0,0,0,0,0,0,0,0,0,0,0,0,0,0,0,0,0,0,0,0,0,0,0,0,0,0,0,0,0,0,0,0,0,0,0,0,0,0,0],"trees":[{"base_weights":[-6.202866E-8,9.128113E-1,-6.657214E-1,1.1705344E0,1.5750892E-1,-2.7042112E-1,-1.5131615E0,7.4720636E-2,4.365041E-2,1.4228642E-2,-8.611026E-2,-2.3887431E-2,3.6194527E-3,-6.1410185E-2,-9.078333E-2],"categories":[],"categories_nodes":[],"categories_segments":[],"categories_sizes":[],"default_left":[0,0,0,0,0,0,0,0,0,0,0,0,0,0,0],"id":0,"left_children":[1,3,5,7,9,11,13,-1,-1,-1,-1,-1,-1,-1,-1],"loss_changes":[1.5013093E3,2.026352E2,4.7817706E2,7.3539185E1,6.407757E1,6.9362114E1,3.6924072E1,0E0,0E0,0E0,0E0,0E0,0E0,0E0,0E0],"parents":[2147483647,0,0,1,1,2,2,3,3,4,4,5,5,6,6],"right_children":[2,4,6,8,10,12,14,-1,-1,-1,-1,-1,-1,-1,-1],"split_conditions":[8.719537E-1,5.9055114E-1,6.3779527E-1,5.2755904E-1,6.771654E-1,6.913959E-5,6.692914E-1,7.4720636E-2,4.365041E-2,1.4228642E-2,-8.611026E-2,-2.3887431E-2,3.6194527E-3,-6.1410185E-2,-9.078333E-2],"split_indices":[1,0,0,0,0,6,0,0,0,0,0,0,0,0,0],"split_type":[0,0,0,0,0,0,0,0,0,0,0,0,0,0,0],"sum_hessian":[2.4685671E3,1.0409229E3,1.4276442E3,7.756925E2,2.6523035E2,9.744278E2,4.5321643E2,3.6947263E2,4.062199E2,2.4923154E2,1.5998815E1,6.06955E2,3.6747278E2,2.3598251E2,2.172339E2],"tree_param":{"num_deleted":"0","num_feature":"7","num_nodes":"15","size_leaf_vector":"1"}},{"base_weights":[-4.22316E-5,7.6209193E-1,-7.2421134E-1,1.0023975E0,7.16054E-2,-3.314839E-1,-1.4566766E0,7.2400294E-2,3.8376354E-2,9.746872E-3,-8.458745E-2,-2.1910114E-2,6.0626687E-3,-5.9879538E-2,-8.639826E-2],"categories":[],"categories_nodes":[],"categories_segments":[],"categories_sizes":[],"default_left":[0,0,0,0,0,0,0,0,0,0,0,0,0,0,0],"id":1,"left_children":[1,3,5,7,9,11,13,-1,-1,-1,-1,-1,-1,-1,-1],"loss_changes":[1.3627078E3,1.9953851E2,3.637119E2,9.228088E1,6.810857E1,3.9935654E1,2.89693E1,0E0,0E0,0E0,0E0,0E0,0E0,0E0,0E0],"parents":[2147483647,0,0,1,1,2,2,3,3,4,4,5,5,6,6],"right_children":[2,4,6,8,10,12,14,-1,-1,-1,-1,-1,-1,-1,-1],"split_conditions":[8.78909E-1,5.9055114E-1,6.3779527E-1,5.11811E-1,6.771654E-1,4.6239493E-5,6.692914E-1,7.2400294E-2,3.8376354E-2,9.746872E-3,-8.458745E-2,-2.1910114E-2,6.0626687E-3,-5.9879538E-2,-8.639826E-2],"split_indices":[1,0,0,0,0,5,0,0,0,0,0,0,0,0,0],"split_type":[0,0,0,0,0,0,0,0,0,0,0,0,0,0,0],"sum_hessian":[2.467058E3,1.2019952E3,1.265063E3,8.913372E2,3.10658E2,8.24462E2,4.4060098E2,3.0586642E2,5.8547076E2,2.9118167E2,1.9476297E1,6.6721857E2,1.5724342E2,2.281386E2,2.124624E2],"tree_param":{"num_deleted":"0","num_feature":"7","num_nodes":"15","size_leaf_vector":"1"}},{"base_weights":[-9.017682E-5,8.306926E-1,-6.048654E-1,1.0653454E0,1.4540622E-1,-2.4808693E-1,-1.3729559E0,6.813963E-2,3.9657198E-2,1.3039372E-2,-7.851909E-2,-2.2193264E-2,3.780761E-3,-5.5630505E-2,-8.2519524E-2],"categories":[],"categories_nodes":[],"categories_segments":[],"categories_sizes":[],"default_left":[0,0,0,0,0,0,0,0,0,0,0,0,0,0,0],"id":2,"left_children":[1,3,5,7,9,11,13,-1,-1,-1,-1,-1,-1,-1,-1],"loss_changes":[1.2385426E3,1.6683905E2,3.9059686E2,6.15412E1,5.3079453E1,6.184385E1,3.0829468E1,0E0,0E0,0E0,0E0,0E0,0E0,0E0,0E0],"parents":[2147483647,0,0,1,1,2,2,3,3,4,4,5,5,6,6],"right_children":[2,4,6,8,10,12,14,-1,-1,-1,-1,-1,-1,-1,-1],"split_conditions":[8.719537E-1,5.9055114E-1,6.3779527E-1,5.2755904E-1,6.771654E-1,6.913959E-5,6.692914E-1,6.813963E-2,3.9657198E-2,1.3039372E-2,-7.851909E-2,-2.2193264E-2,3.780761E-3,-5.5630505E-2,-8.2519524E-2],"split_indices":[1,0,0,0,0,6,0,0,0,0,0,0,0,0,0],"split_type":[0,0,0,0,0,0,0,0,0,0,0,0,0,0,0],"sum_hessian":[2.4630715E3,1.0374912E3,1.4255804E3,7.7244073E2,2.6505045E2,9.7432776E2,4.512527E2,3.6718936E2,4.0525134E2,2.491443E2,1.5906142E1,6.068983E2,3.6742944E2,2.3538074E2,2.1587195E2],"tree_param":{"num_deleted":"0","num_feature":"7","num_nodes":"15","size_leaf_vector":"1"}},{"base_weights":[-1.328627E-4,6.936197E-1,-6.5836483E-1,9.1338396E-1,6.531492E-2,-3.0215955E-1,-1.3287971E0,5.513543E-2,2.223098E-2,8.868168E-3,-7.774652E-2,-2.0193862E-2,6.45866E-3,-5.4460913E-2,-7.907852E-2],"categories":[],"categories_nodes":[],"categories_segments":[],"categories_sizes":[],"default_left":[0,0,0,0,0,0,0,0,0,0,0,0,0,0,0],"id":3,"left_children":[1,3,5,7,9,11,13,-1,-1,-1,-1,-1,-1,-1,-1],"loss_changes":[1.1227726E3,1.6522894E2,3.0089648E2,7.821039E1,5.67868E1,3.625724E1,2.4769165E1,0E0,0E0,0E0,0E0,0E0,0E0,0E0,0E0],"parents":[2147483647,0,0,1,1,2,2,3,3,4,4,5,5,6,6],"right_children":[2,4,6,8,10,12,14,-1,-1,-1,-1,-1,-1,-1,-1],"split_conditions":[8.78909E-1,5.9055114E-1,6.3779527E-1,8.63778E-1,6.771654E-1,4.6239493E-5,6.692914E-1,5.513543E-2,2.223098E-2,8.868168E-3,-7.774652E-2,-2.0193862E-2,6.45866E-3,-5.4460913E-2,-7.907852E-2],"split_indices":[1,0,0,1,0,5,0,0,0,0,0,0,0,0,0],"split_type":[0,0,0,0,0,0,0,0,0,0,0,0,0,0,0],"sum_hessian":[2.456715E3,1.1960587E3,1.2606562E3,8.857821E2,3.1027664E2,8.242025E2,4.3645377E2,6.299895E2,2.5579262E2,2.9104022E2,1.9236422E1,6.6697815E2,1.5722435E2,2.2680075E2,2.0965302E2],"tree_param":{"num_deleted":"0","num_feature":"7","num_nodes":"15","size_leaf_vector":"1"}},{"base_weights":[-1.940616E-4,7.57623E-1,-5.50328E-1,1.2596033E0,4.8356766E-1,-2.2602358E-1,-1.2576772E0,8.543383E-2,5.5316538E-2,3.1229207E-2,-1.514964E-2,-2.0578872E-2,4.029704E-3,-5.070051E-2,-7.6010756E-2],"categories":[],"categories_nodes":[],"categories_segments":[],"categories_sizes":[],"default_left":[0,0,0,0,0,0,0,0,0,0,0,0,0,0,0],"id":4,"left_children":[1,3,5,7,9,11,13,-1,-1,-1,-1,-1,-1,-1,-1],"loss_changes":[1.02170825E3,1.4119733E2,3.254426E2,2.312268E1,7.4326065E1,5.549287E1,2.6998901E1,0E0,0E0,0E0,0E0,0E0,0E0,0E0,0E0],"parents":[2147483647,0,0,1,1,2,2,3,3,4,4,5,5,6,6],"right_children":[2,4,6,8,10,12,14,-1,-1,-1,-1,-1,-1,-1,-1],"split_conditions":[8.719537E-1,5.2755904E-1,6.3779527E-1,4.5669293E-1,6.2992126E-1,6.913959E-5,6.692914E-1,8.543383E-2,5.5316538E-2,3.1229207E-2,-1.514964E-2,-2.0578872E-2,4.029704E-3,-5.070051E-2,-7.6010756E-2],"split_indices":[1,0,0,0,0,6,0,0,0,0,0,0,0,0,0],"split_type":[0,0,0,0,0,0,0,0,0,0,0,0,0,0,0],"sum_hessian":[2.448722E3,1.029792E3,1.4189298E3,3.6239893E2,6.673931E2,9.737883E2,4.4514154E2,8.963355E1,2.7276535E2,5.6610614E2,1.0128699E2,6.064466E2,3.673417E2,2.3338985E2,2.117517E2],"tree_param":{"num_deleted":"0","num_feature":"7","num_nodes":"15","size_leaf_vector":"1"}},{"base_weights":[-1.8275501E-4,6.303735E-1,-6.032615E-1,1.2309153E0,4.2961672E-1,-2.7555797E-1,-1.2387942E0,7.336316E-2,3.8736295E-2,2.8173268E-2,-1.2204322E-2,-1.8629575E-2,6.776707E-3,-5.120976E-2,-7.318138E-2],"categories":[],"categories_nodes":[],"categories_segments":[],"categories_sizes":[],"default_left":[0,0,0,0,0,0,0,0,0,0,0,0,0,0,0],"id":5,"left_children":[1,3,5,7,9,11,13,-1,-1,-1,-1,-1,-1,-1,-1],"loss_changes":[9.283134E2,1.4335025E2,2.595266E2,3.1042603E1,8.092813E1,3.294156E1,1.8969116E1,0E0,0E0,0E0,0E0,0E0,0E0,0E0,0E0],"parents":[2147483647,0,0,1,1,2,2,3,3,4,4,5,5,6,6],"right_children":[2,4,6,8,10,12,14,-1,-1,-1,-1,-1,-1,-1,-1],"split_conditions":[8.8064873E-1,5.11811E-1,6.3779527E-1,8.136116E-5,6.2204725E-1,4.6239493E-5,6.692914E-1,7.336316E-2,3.8736295E-2,2.8173268E-2,-1.2204322E-2,-1.8629575E-2,6.776707E-3,-5.120976E-2,-7.318138E-2],"split_indices":[1,0,0,6,0,5,0,0,0,0,0,0,0,0,0],"split_type":[0,0,0,0,0,0,0,0,0,0,0,0,0,0,0],"sum_hessian":[2.4391628E3,1.1923948E3,1.2467681E3,2.9745612E2,8.9493866E2,8.235498E2,4.2321826E2,1.944809E2,1.02975235E2,7.467425E2,1.4819614E2,6.663575E2,1.5719232E2,2.1937987E2,2.038384E2],"tree_param":{"num_deleted":"0","num_feature":"7","num_nodes":"15","size_leaf_vector":"1"}},{"base_weights":[-1.8652527E-4,6.9427264E-1,-5.0289035E-1,9.3797016E-1,1.9683148E-1,-2.0738393E-1,-1.160082E0,7.685591E-2,4.0983018E-2,1.39992535E-2,-7.145399E-2,-1.9151209E-2,4.129923E-3,-4.6357825E-2,-7.075783E-2],"categories":[],"categories_nodes":[],"categories_segments":[],"categories_sizes":[],"default_left":[0,0,0,0,0,0,0,0,0,0,0,0,0,0,0],"id":6,"left_children":[1,3,5,7,9,11,13,-1,-1,-1,-1,-1,-1,-1,-1],"loss_changes":[8.4854083E2,1.2354266E2,2.7358E2,4.7280273E1,4.5944725E1,4.9631786E1,2.4658875E1,0E0,0E0,0E0,0E0,0E0,0E0,0E0,0E0],"parents":[2147483647,0,0,1,1,2,2,3,3,4,4,5,5,6,6],"right_children":[2,4,6,8,10,12,14,-1,-1,-1,-1,-1,-1,-1,-1],"split_conditions":[8.719537E-1,5.748031E-1,6.3779527E-1,4.6456695E-1,6.771654E-1,6.913959E-5,6.692914E-1,7.685591E-2,4.0983018E-2,1.39992535E-2,-7.145399E-2,-1.9151209E-2,4.129923E-3,-4.6357825E-2,-7.075783E-2],"split_indices":[1,0,0,0,0,6,0,0,0,0,0,0,0,0,0],"split_type":[0,0,0,0,0,0,0,0,0,0,0,0,0,0,0],"sum_hessian":[2.4286016E3,1.0196404E3,1.4089612E3,6.8377295E2,3.3586743E2,9.728393E2,4.3612195E2,1.1077756E2,5.729954E2,3.203135E2,1.5553924E1,6.05669E2,3.6717023E2,2.3038081E2,2.0574113E2],"tree_param":{"num_deleted":"0","num_feature":"7","num_nodes":"15","size_leaf_vector":"1"}},{"base_weights":[-2.1808107E-4,6.6377914E-1,-4.799428E-1,1.1267362E0,4.16835E-1,-1.9713967E-1,-1.1162846E0,7.787871E-2,4.9115673E-2,2.7107177E-2,-1.3874537E-2,-1.4908661E-2,1.3913654E-2,-4.4394903E-2,-6.844517E-2],"categories":[],"categories_nodes":[],"categories_segments":[],"categories_sizes":[],"default_left":[0,0,0,0,0,0,0,0,0,0,0,0,0,0,0],"id":7,"left_children":[1,3,5,7,9,11,13,-1,-1,-1,-1,-1,-1,-1,-1],"loss_changes":[7.7040784E2,1.1550775E2,2.5246692E2,2.0391052E1,5.784854E1,4.6834232E1,2.3697693E1,0E0,0E0,0E0,0E0,0E0,0E0,0E0,0E0],"parents":[2147483647,0,0,1,1,2,2,3,3,4,4,5,5,6,6],"right_children":[2,4,6,8,10,12,14,-1,-1,-1,-1,-1,-1,-1,-1],"split_conditions":[8.719537E-1,5.2755904E-1,6.3779527E-1,4.5669293E-1,6.2992126E-1,4.6962617E-5,6.692914E-1,7.787871E-2,4.9115673E-2,2.7107177E-2,-1.3874537E-2,-1.4908661E-2,1.3913654E-2,-4.4394903E-2,-6.844517E-2],"split_indices":[1,0,0,0,0,5,0,0,0,0,0,0,0,0,0],"split_type":[0,0,0,0,0,0,0,0,0,0,0,0,0,0,0],"sum_hessian":[2.4165906E3,1.013458E3,1.4031326E3,3.512992E2,6.621589E2,9.723226E2,4.3080997E2,8.573923E1,2.6555997E2,5.611114E2,1.0104745E2,8.0221136E2,1.701112E2,2.2862779E2,2.0218219E2],"tree_param":{"num_deleted":"0","num_feature":"7","num_nodes":"15","size_leaf_vector":"1"}},{"base_weights":[-2.016845E-4,5.539064E-1,-5.2920026E-1,7.431287E-1,3.5164393E-2,-2.4162793E-1,-1.1070651E0,7.22047E-2,3.209849E-2,-1.5003166E-2,2.4212979E-2,4.5306288E-2,-1.3726224E-2,-4.5272354E-2,-6.622883E-2],"categories":[],"categories_nodes":[],"categories_segments":[],"categories_sizes":[],"default_left":[0,0,0,0,0,0,0,0,0,0,0,0,0,0,0],"id":8,"left_children":[1,3,5,7,9,11,13,-1,-1,-1,-1,-1,-1,-1,-1],"loss_changes":[7.0521216E2,1.15313354E2,2.042673E2,6.0120728E1,4.7585087E1,3.1327187E1,1.672409E1,0E0,0E0,0E0,0E0,0E0,0E0,0E0,0E0],"parents":[2147483647,0,0,1,1,2,2,3,3,4,4,5,5,6,6],"right_children":[2,4,6,8,10,12,14,-1,-1,-1,-1,-1,-1,-1,-1],"split_conditions":[8.8064873E-1,5.9055114E-1,6.3779527E-1,4.6456695E-1,7.5914286E-5,-2.9285738E-4,6.692914E-1,7.22047E-2,3.209849E-2,-1.5003166E-2,2.4212979E-2,4.5306288E-2,-1.3726224E-2,-4.5272354E-2,-6.622883E-2],"split_indices":[1,0,0,0,6,6,0,0,0,0,0,0,0,0,0],"split_type":[0,0,0,0,0,0,0,0,0,0,0,0,0,0,0],"sum_hessian":[2.4038623E3,1.1740441E3,1.2298184E3,8.599325E2,3.1411154E2,8.2211426E2,4.077041E2,1.06775154E2,7.5315735E2,1.8004704E2,1.340645E2,2.2167013E1,7.999472E2,2.1426147E2,1.9344263E2],"tree_param":{"num_deleted":"0","num_feature":"7","num_nodes":"15","size_leaf_vector":"1"}},{"base_weights":[-1.921226E-4,6.1029094E-1,-4.396965E-1,1.0539453E0,3.781349E-1,-1.810556E-1,-1.0372266E0,5.9780754E-2,3.2285687E-2,2.108844E-2,-6.843294E-2,-1.7399108E-2,4.7036167E-3,-4.0762268E-2,-6.441363E-2],"categories":[],"categories_nodes":[],"categories_segments":[],"categories_sizes":[],"default_left":[0,0,0,0,0,0,0,0,0,0,0,0,0,0,0],"id":9,"left_children":[1,3,5,7,9,11,13,-1,-1,-1,-1,-1,-1,-1,-1],"loss_changes":[6.4206586E2,1.0276984E2,2.1483728E2,1.9095947E1,5.0815666E1,4.4683937E1,2.2360718E1,0E0,0E0,0E0,0E0,0E0,0E0,0E0,0E0],"parents":[2147483647,0,0,1,1,2,2,3,3,4,4,5,5,6,6],"right_children":[2,4,6,8,10,12,14,-1,-1,-1,-1,-1,-1,-1,-1],"split_conditions":[8.719537E-1,5.2755904E-1,6.3779527E-1,1.0760973E-4,6.771654E-1,6.913959E-5,6.692914E-1,5.9780754E-2,3.2285687E-2,2.108844E-2,-6.843294E-2,-1.7399108E-2,4.7036167E-3,-4.0762268E-2,-6.441363E-2],"split_indices":[1,0,0,6,0,6,0,0,0,0,0,0,0,0,0],"split_type":[0,0,0,0,0,0,0,0,0,0,0,0,0,0,0],"sum_hessian":[2.391E3,1.0006636E3,1.3903364E3,3.4253436E2,6.581292E2,9.712388E2,4.1909772E2,2.5285623E2,8.967814E1,6.4283026E2,1.5298967E1,6.043193E2,3.669195E2,2.2467865E2,1.9441907E2],"tree_param":{"num_deleted":"0","num_feature":"7","num_nodes":"15","size_leaf_vector":"1"}},{"base_weights":[-2.2800725E-4,5.0804144E-1,-4.8502946E-1,1.0353394E0,3.4032527E-1,-2.2037382E-1,-1.0323262E0,6.2406678E-2,2.6759688E-2,1.8968435E-2,-6.8359934E-2,4.3912698E-2,-1.2598093E-2,4.1011587E-2,-5.2657034E-2],"categories":[],"categories_nodes":[],"categories_segments":[],"categories_sizes":[],"default_left":[0,0,0,0,0,0,0,0,0,0,0,0,0,0,0],"id":10,"left_children":[1,3,5,7,9,11,13,-1,-1,-1,-1,-1,-1,-1,-1],"loss_changes":[5.86223E2,1.02359314E2,1.7614172E2,2.9108032E1,5.9362312E1,2.8748299E1,1.6157288E1,0E0,0E0,0E0,0E0,0E0,0E0,0E0,0E0],"parents":[2147483647,0,0,1,1,2,2,3,3,4,4,5,5,6,6],"right_children":[2,4,6,8,10,12,14,-1,-1,-1,-1,-1,-1,-1,-1],"split_conditions":[8.8064873E-1,5.11811E-1,6.3779527E-1,1.0062948E-4,6.771654E-1,-2.9285738E-4,-4.0875404E-4,6.2406678E-2,2.6759688E-2,1.8968435E-2,-6.8359934E-2,4.3912698E-2,-1.2598093E-2,4.1011587E-2,-5.2657034E-2],"split_indices":[1,0,0,6,0,6,6,0,0,0,0,0,0,0,0],"split_type":[0,0,0,0,0,0,0,0,0,0,0,0,0,0,0],"sum_hessian":[2.3770576E3,1.1604185E3,1.2166392E3,2.7877606E2,8.8164233E2,8.210215E2,3.956177E2,1.9451942E2,8.4256645E1,8.626942E2,1.894813E1,2.219735E1,7.9882416E2,3.9688385E0,3.9164886E2],"tree_param":{"num_deleted":"0","num_feature":"7","num_nodes":"15","size_leaf_vector":"1"}},{"base_weights":[-2.0674992E-4,5.6139773E-1,-4.0296343E-1,7.788355E-1,1.3277163E-1,-1.319702E-1,-9.0090305E-1,4.7266413E-2,1.9870358E-2,1.01214815E-2,-6.4067036E-2,-1.1955099E-2,1.9400062E-2,-3.4738164E-2,-6.1197247E-2],"categories":[],"categories_nodes":[],"categories_segments":[],"categories_sizes":[],"default_left":[0,0,0,0,0,0,0,0,0,0,0,0,0,0,0],"id":11,"left_children":[1,3,5,7,9,11,13,-1,-1,-1,-1,-1,-1,-1,-1],"loss_changes":[5.350296E2,9.1967255E1,1.8576015E2,4.123288E1,3.3128937E1,4.9849453E1,3.1466766E1,0E0,0E0,0E0,0E0,0E0,0E0,0E0,0E0],"parents":[2147483647,0,0,1,1,2,2,3,3,4,4,5,5,6,6],"right_children":[2,4,6,8,10,12,14,-1,-1,-1,-1,-1,-1,-1,-1],"split_conditions":[8.719537E-1,5.748031E-1,6.2992126E-1,1.0760973E-4,6.771654E-1,4.6962617E-5,6.692914E-1,4.7266413E-2,1.9870358E-2,1.01214815E-2,-6.4067036E-2,-1.1955099E-2,1.9400062E-2,-3.4738164E-2,-6.1197247E-2],"split_indices":[1,0,0,6,0,5,0,0,0,0,0,0,0,0,0],"split_type":[0,0,0,0,0,0,0,0,0,0,0,0,0,0,0],"sum_hessian":[2.3633997E3,9.868879E2,1.3765117E3,6.542011E2,3.3268677E2,8.922101E2,4.8430164E2,4.5438464E2,1.9981645E2,3.1788486E2,1.4801892E1,7.402364E2,1.519737E2,2.975679E2,1.8673372E2],"tree_param":{"num_deleted":"0","num_feature":"7","num_nodes":"15","size_leaf_vector":"1"}},{"base_weights":[-2.4490233E-4,4.6639764E-1,-4.4481876E-1,9.749668E-1,3.081696E-1,-2.0052062E-1,-9.656324E-1,6.046496E-2,2.7133388E-2,1.7182535E-2,-6.444756E-2,4.2112704E-2,-1.1529173E-2,-3.838645E-2,-5.944517E-2],"categories":[],"categories_nodes":[],"categories_segments":[],"categories_sizes":[],"default_left":[0,0,0,0,0,0,0,0,0,0,0,0,0,0,0],"id":12,"left_children":[1,3,5,7,9,11,13,-1,-1,-1,-1,-1,-1,-1,-1],"loss_changes":[4.8773795E2,9.200221E1,1.5299393E2,2.6870117E1,5.0101776E1,2.5925827E1,1.6062073E1,0E0,0E0,0E0,0E0,0E0,0E0,0E0,0E0],"parents":[2147483647,0,0,1,1,2,2,3,3,4,4,5,5,6,6],"right_children":[2,4,6,8,10,12,14,-1,-1,-1,-1,-1,-1,-1,-1],"split_conditions":[8.8064873E-1,5.11811E-1,6.3779527E-1,8.136116E-5,6.771654E-1,-2.9285738E-4,6.692914E-1,6.046496E-2,2.7133388E-2,1.7182535E-2,-6.444756E-2,4.2112704E-2,-1.1529173E-2,-3.838645E-2,-5.944517E-2],"split_indices":[1,0,0,6,0,6,0,0,0,0,0,0,0,0,0],"split_type":[0,0,0,0,0,0,0,0,0,0,0,0,0,0,0],"sum_hessian":[2.3490308E3,1.146046E3,1.2029849E3,2.7072675E2,8.753192E2,8.1981775E2,3.8316708E2,1.743961E2,9.633065E1,8.5706384E2,1.8255383E1,2.2215712E1,7.9760205E2,2.054757E2,1.7769139E2],"tree_param":{"num_deleted":"0","num_feature":"7","num_nodes":"15","size_leaf_vector":"1"}},{"base_weights":[-2.6387154E-4,5.1678985E-1,-3.6956835E-1,8.85655E-1,2.8354076E-1,-1.19967125E-1,-8.404812E-1,5.2590627E-2,2.2020962E-2,1.5868828E-2,-8.174785E-2,-1.1087485E-2,1.8672856E-2,-3.211837E-2,-5.806781E-2],"categories":[],"categories_nodes":[],"categories_segments":[],"categories_sizes":[],"default_left":[0,0,0,0,0,0,0,0,0,0,0,0,0,0,0],"id":13,"left_children":[1,3,5,7,9,11,13,-1,-1,-1,-1,-1,-1,-1,-1],"loss_changes":[4.4618182E2,8.351236E1,1.6011493E2,2.7402802E1,3.933066E1,4.4882824E1,2.9260742E1,0E0,0E0,0E0,0E0,0E0,0E0,0E0,0E0],"parents":[2147483647,0,0,1,1,2,2,3,3,4,4,5,5,6,6],"right_children":[2,4,6,8,10,12,14,-1,-1,-1,-1,-1,-1,-1,-1],"split_conditions":[8.719537E-1,5.3543305E-1,6.2992126E-1,1.0760973E-4,3.4978703E-4,4.6962617E-5,6.692914E-1,5.2590627E-2,2.2020962E-2,1.5868828E-2,-8.174785E-2,-1.1087485E-2,1.8672856E-2,-3.211837E-2,-5.806781E-2],"split_indices":[1,0,0,6,6,5,0,0,0,0,0,0,0,0,0],"split_type":[0,0,0,0,0,0,0,0,0,0,0,0,0,0,0],"sum_hessian":[2.3346387E3,9.7256964E2,1.3620691E3,3.7567386E2,5.968958E2,8.910398E2,4.710293E2,2.7258536E2,1.0308851E2,5.8737115E2,9.524669E0,7.391251E2,1.5191467E2,2.9307907E2,1.7795023E2],"tree_param":{"num_deleted":"0","num_feature":"7","num_nodes":"15","size_leaf_vector":"1"}},{"base_weights":[-2.89777E-4,2.980916E-1,-5.9207374E-1,6.139801E-1,-5.977932E-2,-3.817264E-1,-1.0143951E0,6.410087E-2,2.6211634E-2,-9.036932E-3,2.8800061E-2,-2.6226405E-2,2.8052356E-3,5.4284114E-2,-5.2396465E-2],"categories":[],"categories_nodes":[],"categories_segments":[],"categories_sizes":[],"default_left":[0,0,0,0,0,0,0,0,0,0,0,0,0,0,0],"id":14,"left_children":[1,3,5,7,9,11,13,-1,-1,-1,-1,-1,-1,-1,-1],"loss_changes":[4.100749E2,1.7457118E2,6.876547E1,4.8499268E1,5.5841022E1,3.2618652E1,1.9322083E1,0E0,0E0,0E0,0E0,0E0,0E0,0E0,0E0],"parents":[2147483647,0,0,1,1,2,2,3,3,4,4,5,5,6,6],"right_children":[2,4,6,8,10,12,14,-1,-1,-1,-1,-1,-1,-1,-1],"split_conditions":[6.1417323E-1,8.719537E-1,6.6141737E-1,4.6456695E-1,1.5825925E-4,4.583862E-5,-4.0875404E-4,6.410087E-2,2.6211634E-2,-9.036932E-3,2.8800061E-2,-2.6226405E-2,2.8052356E-3,5.4284114E-2,-5.2396465E-2],"split_indices":[0,1,0,0,6,5,6,0,0,0,0,0,0,0,0],"split_type":[0,0,0,0,0,0,0,0,0,0,0,0,0,0,0],"sum_hessian":[2.3203538E3,1.5429065E3,7.774473E2,8.191429E2,7.237636E2,5.202355E2,2.5721185E2,9.5440926E1,7.237019E2,6.086766E2,1.1508699E2,3.921387E2,1.2809679E2,3.549487E0,2.5366237E2],"tree_param":{"num_deleted":"0","num_feature":"7","num_nodes":"15","size_leaf_vector":"1"}},{"base_weights":[-2.4275362E-4,3.9180925E-1,-4.16307E-1,7.202506E-1,9.146279E-2,-2.503544E-1,-9.836131E-1,4.6989385E-2,2.0494334E-2,-1.1186531E-3,3.4126155E-2,4.787307E-3,-2.0870531E-2,5.1282328E-2,-5.0846256E-2],"categories":[],"categories_nodes":[],"categories_segments":[],"categories_sizes":[],"default_left":[0,0,0,0,0,0,0,0,0,0,0,0,0,0,0],"id":15,"left_children":[1,3,5,7,9,11,13,-1,-1,-1,-1,-1,-1,-1,-1],"loss_changes":[3.7653998E2,1.1717363E2,1.05187164E2,3.828531E1,4.1861736E1,5.021339E1,1.798465E1,0E0,0E0,0E0,0E0,0E0,0E0,0E0,0E0],"parents":[2147483647,0,0,1,1,2,2,3,3,4,4,5,5,6,6],"right_children":[2,4,6,8,10,12,14,-1,-1,-1,-1,-1,-1,-1,-1],"split_conditions":[5.9055114E-1,8.63778E-1,6.6141737E-1,7.693954E-5,1.5428729E-4,8.8232005E-1,-4.0875404E-4,4.6989385E-2,2.0494334E-2,-1.1186531E-3,3.4126155E-2,4.787307E-3,-2.0870531E-2,5.1282328E-2,-5.0846256E-2],"split_indices":[0,1,0,6,6,1,6,0,0,0,0,0,0,0,0],"split_type":[0,0,0,0,0,0,0,0,0,0,0,0,0,0,0],"sum_hessian":[2.3063784E3,1.187485E3,1.1188936E3,5.6654565E2,6.209393E2,8.667784E2,2.5211516E2,3.3063892E2,2.3590674E2,5.214686E2,9.9470634E1,2.823153E2,5.844631E2,3.6258914E0,2.4848927E2],"tree_param":{"num_deleted":"0","num_feature":"7","num_nodes":"15","size_leaf_vector":"1"}},{"base_weights":[-1.9791676E-4,2.4601036E-1,-6.13115E-1,6.250384E-1,-2.0707184E-2,-4.666871E-1,-1.1481587E0,6.1846603E-2,2.6377136E-2,-8.714097E-3,1.11910375E-2,-1.7449895E-2,-6.404995E-2,5.5475384E-2,-6.0658436E-2],"categories":[],"categories_nodes":[],"categories_segments":[],"categories_sizes":[],"default_left":[0,0,0,0,0,0,0,0,0,0,0,0,0,0,0],"id":16,"left_children":[1,3,5,7,9,11,13,-1,-1,-1,-1,-1,-1,-1,-1],"loss_changes":[3.4624374E2,1.6549304E2,5.0979507E1,3.9683655E1,3.615656E1,4.919017E1,2.1982224E1,0E0,0E0,0E0,0E0,0E0,0E0,0E0,0E0],"parents":[2147483647,0,0,1,1,2,2,3,3,4,4,5,5,6,6],"right_children":[2,4,6,8,10,12,14,-1,-1,-1,-1,-1,-1,-1,-1],"split_conditions":[6.2204725E-1,8.63778E-1,6.771654E-1,4.6456695E-1,6.742044E-5,9.512837E-1,-4.0875404E-4,6.1846603E-2,2.6377136E-2,-8.714097E-3,1.11910375E-2,-1.7449895E-2,-6.404995E-2,5.5475384E-2,-6.0658436E-2],"split_indices":[0,1,0,0,6,1,6,0,0,0,0,0,0,0,0],"split_type":[0,0,0,0,0,0,0,0,0,0,0,0,0,0,0],"sum_hessian":[2.2924448E3,1.6359028E3,6.565421E2,6.751354E2,9.607674E2,5.169408E2,1.3960136E2,9.118171E1,5.839537E2,5.903118E2,3.704556E2,4.5291183E2,6.402894E1,3.457645E0,1.361437E2],"tree_param":{"num_deleted":"0","num_feature":"7","num_nodes":"15","size_leaf_vector":"1"}},{"base_weights":[-2.065974E-4,3.8348958E-1,-3.642845E-1,8.460665E-1,2.4823022E-1,-1.6038266E-1,-8.3439773E-1,5.428938E-2,2.1293085E-2,1.3598973E-2,-8.459468E-2,4.207945E-2,-9.470339E-3,-3.486872E-2,-5.9013944E-2],"categories":[],"categories_nodes":[],"categories_segments":[],"categories_sizes":[],"default_left":[0,0,0,0,0,0,0,0,0,0,0,0,0,0,0],"id":17,"left_children":[1,3,5,7,9,11,13,-1,-1,-1,-1,-1,-1,-1,-1],"loss_changes":[3.1858105E2,6.926256E1,1.120367E2,2.4801254E1,4.0111454E1,2.3931137E1,1.5943146E1,0E0,0E0,0E0,0E0,0E0,0E0,0E0,0E0],"parents":[2147483647,0,0,1,1,2,2,3,3,4,4,5,5,6,6],"right_children":[2,4,6,8,10,12,14,-1,-1,-1,-1,-1,-1,-1,-1],"split_conditions":[8.8064873E-1,5.11811E-1,6.3779527E-1,8.136116E-5,3.7557786E-4,-2.9285738E-4,9.500798E-1,5.428938E-2,2.1293085E-2,1.3598973E-2,-8.459468E-2,4.207945E-2,-9.470339E-3,-3.486872E-2,-5.9013944E-2],"split_indices":[1,0,0,6,6,6,1,0,0,0,0,0,0,0,0],"split_type":[0,0,0,0,0,0,0,0,0,0,0,0,0,0,0],"sum_hessian":[2.2785425E3,1.1093558E3,1.1691866E3,2.4980075E2,8.5955505E2,8.164219E2,3.527648E2,1.5805093E2,9.174982E1,8.500098E2,9.545226E0,2.2195402E1,7.9422644E2,2.5482877E2,9.7936035E1],"tree_param":{"num_deleted":"0","num_feature":"7","num_nodes":"15","size_leaf_vector":"1"}},{"base_weights":[-2.2848006E-4,3.5190707E-1,-3.746155E-1,6.5006137E-1,8.764548E-2,-2.2582504E-1,-9.098976E-1,3.4466308E-2,-4.8881467E-2,-9.329614E-4,3.206302E-2,-2.8598202E-2,-3.4133194E-3,4.8863746E-2,-4.7183704E-2],"categories":[],"categories_nodes":[],"categories_segments":[],"categories_sizes":[],"default_left":[0,0,0,0,0,0,0,0,0,0,0,0,0,0,0],"id":18,"left_children":[1,3,5,7,9,11,13,-1,-1,-1,-1,-1,-1,-1,-1],"loss_changes":[2.988852E2,9.199237E1,8.731149E1,3.574698E1,3.6529297E1,4.6926468E1,1.6135788E1,0E0,0E0,0E0,0E0,0E0,0E0,0E0,0E0],"parents":[2147483647,0,0,1,1,2,2,3,3,4,4,5,5,6,6],"right_children":[2,4,6,8,10,12,14,-1,-1,-1,-1,-1,-1,-1,-1],"split_conditions":[5.9055114E-1,8.63778E-1,6.6141737E-1,3.20201E-4,1.5428729E-4,-4.466459E-5,-4.0875404E-4,3.4466308E-2,-4.8881467E-2,-9.329614E-4,3.206302E-2,-2.8598202E-2,-3.4133194E-3,4.8863746E-2,-4.7183704E-2],"split_indices":[0,1,0,6,6,6,6,0,0,0,0,0,0,0,0],"split_type":[0,0,0,0,0,0,0,0,0,0,0,0,0,0,0],"sum_hessian":[2.265116E3,1.1672762E3,1.0978398E3,5.477805E2,6.194957E2,8.601648E2,2.3767503E2,5.354406E2,1.233995E1,5.205134E2,9.898229E1,2.6824026E2,5.919245E2,3.6879144E0,2.3398712E2],"tree_param":{"num_deleted":"0","num_feature":"7","num_nodes":"15","size_leaf_vector":"1"}},{"base_weights":[-2.2859014E-4,2.186123E-1,-5.5388033E-1,5.6261927E-1,-1.7217314E-2,-4.14878E-1,-1.0891012E0,6.3691586E-2,2.3985729E-2,-7.92963E-3,1.03953E-2,-4.2494494E-2,-1.0384169E-2,5.302943E-2,-5.7832506E-2],"categories":[],"categories_nodes":[],"categories_segments":[],"categories_sizes":[],"default_left":[0,0,0,0,0,0,0,0,0,0,0,0,0,0,0],"id":19,"left_children":[1,3,5,7,9,11,13,-1,-1,-1,-1,-1,-1,-1,-1],"loss_changes":[2.7314813E2,1.3109116E2,4.706221E1,3.813846E1,3.0573078E1,4.5664864E1,2.0257004E1,0E0,0E0,0E0,0E0,0E0,0E0,0E0,0E0],"parents":[2147483647,0,0,1,1,2,2,3,3,4,4,5,5,6,6],"right_children":[2,4,6,8,10,12,14,-1,-1,-1,-1,-1,-1,-1,-1],"split_conditions":[6.2204725E-1,8.63778E-1,6.771654E-1,4.5669293E-1,6.742044E-5,-5.2843418E-5,-4.0875404E-4,6.3691586E-2,2.3985729E-2,-7.92963E-3,1.03953E-2,-4.2494494E-2,-1.0384169E-2,5.302943E-2,-5.7832506E-2],"split_indices":[0,1,0,0,6,6,6,0,0,0,0,0,0,0,0],"split_type":[0,0,0,0,0,0,0,0,0,0,0,0,0,0,0],"sum_hessian":[2.2524116E3,1.6147555E3,6.3765625E2,6.561855E2,9.5856995E2,5.0760202E2,1.3005423E2,6.700515E1,5.8918036E2,5.8898724E2,3.6958273E2,1.6276654E2,3.4483548E2,3.5142674E0,1.2653996E2],"tree_param":{"num_deleted":"0","num_feature":"7","num_nodes":"15","size_leaf_vector":"1"}},{"base_weights":[-2.1835491E-4,3.2536095E-1,-3.465105E-1,6.032625E-1,8.4454164E-2,-2.3085043E-1,-9.7225887E-1,3.934237E-2,1.1748649E-2,-7.2571053E-4,3.010185E-2,-2.828524E-2,-2.5137365E-3,5.0241824E-2,-5.1052965E-2],"categories":[],"categories_nodes":[],"categories_segments":[],"categories_sizes":[],"default_left":[0,0,0,0,0,0,0,0,0,0,0,0,0,0,0],"id":20,"left_children":[1,3,5,7,9,11,13,-1,-1,-1,-1,-1,-1,-1,-1],"loss_changes":[2.5268057E2,7.7282776E1,7.8376205E1,3.606993E1,3.1763191E1,5.5475174E1,1.7342285E1,0E0,0E0,0E0,0E0,0E0,0E0,0E0,0E0],"parents":[2147483647,0,0,1,1,2,2,3,3,4,4,5,5,6,6],"right_children":[2,4,6,8,10,12,14,-1,-1,-1,-1,-1,-1,-1,-1],"split_conditions":[5.9055114E-1,8.63778E-1,6.692914E-1,1.0760973E-4,1.5428729E-4,-2.6776115E-5,-4.0875404E-4,3.934237E-2,1.1748649E-2,-7.2571053E-4,3.010185E-2,-2.828524E-2,-2.5137365E-3,5.0241824E-2,-5.1052965E-2],"split_indices":[0,1,0,6,6,6,6,0,0,0,0,0,0,0,0],"split_type":[0,0,0,0,0,0,0,0,0,0,0,0,0,0,0],"sum_hessian":[2.2391577E3,1.154125E3,1.0850327E3,5.3521545E2,6.1890955E2,9.1692236E2,1.6811028E2,3.564138E2,1.7880164E2,5.2037854E2,9.853099E1,3.2048724E2,5.964351E2,3.5775886E0,1.6453268E2],"tree_param":{"num_deleted":"0","num_feature":"7","num_nodes":"15","size_leaf_vector":"1"}},{"base_weights":[-1.9294008E-4,3.3396998E-1,-3.1609124E-1,1.1480539E0,2.6678404E-1,-1.3807876E-1,-7.5216407E-1,5.906109E-2,-2.8734757E-2,1.4443199E-2,-7.161159E-2,4.2179424E-2,-8.329787E-3,-3.059409E-2,-5.5720177E-2],"categories":[],"categories_nodes":[],"categories_segments":[],"categories_sizes":[],"default_left":[0,0,0,0,0,0,0,0,0,0,0,0,0,0,0],"id":21,"left_children":[1,3,5,7,9,11,13,-1,-1,-1,-1,-1,-1,-1,-1],"loss_changes":[2.3524414E2,5.8925346E1,8.882171E1,5.379097E0,3.799112E1,2.2947573E1,1.6181442E1,0E0,0E0,0E0,0E0,0E0,0E0,0E0,0E0],"parents":[2147483647,0,0,1,1,2,2,3,3,4,4,5,5,6,6],"right_children":[2,4,6,8,10,12,14,-1,-1,-1,-1,-1,-1,-1,-1],"split_conditions":[8.8064873E-1,4.6456695E-1,6.3779527E-1,2.8657232E-4,3.7557786E-4,-2.9285738E-4,9.500798E-1,5.906109E-2,-2.8734757E-2,1.4443199E-2,-7.161159E-2,4.2179424E-2,-8.329787E-3,-3.059409E-2,-5.5720177E-2],"split_indices":[1,0,0,6,6,6,1,0,0,0,0,0,0,0,0],"split_type":[0,0,0,0,0,0,0,0,0,0,0,0,0,0,0],"sum_hessian":[2.226503E3,1.081945E3,1.1445581E3,8.125844E1,1.0006865E3,8.137059E2,3.308522E2,8.003193E1,1.2265098E0,9.886681E2,1.2018462E1,2.216365E1,7.9154224E2,2.4043108E2,9.042113E1],"tree_param":{"num_deleted":"0","num_feature":"7","num_nodes":"15","size_leaf_vector":"1"}},{"base_weights":[-2.3012378E-4,1.9469303E-1,-5.012936E-1,5.074007E-1,-1.4351413E-2,-3.706441E-1,-1.0349814E0,6.1279338E-2,2.1431753E-2,4.93357E-2,-2.1300742E-3,-1.3200742E-2,-5.8229905E-2,5.0526213E-2,-5.5274244E-2],"categories":[],"categories_nodes":[],"categories_segments":[],"categories_sizes":[],"default_left":[0,0,0,0,0,0,0,0,0,0,0,0,0,0,0],"id":22,"left_children":[1,3,5,7,9,11,13,-1,-1,-1,-1,-1,-1,-1,-1],"loss_changes":[2.1646783E2,1.0431259E2,4.2897125E1,3.564035E1,2.7114452E1,4.203972E1,1.8641434E1,0E0,0E0,0E0,0E0,0E0,0E0,0E0,0E0],"parents":[2147483647,0,0,1,1,2,2,3,3,4,4,5,5,6,6],"right_children":[2,4,6,8,10,12,14,-1,-1,-1,-1,-1,-1,-1,-1],"split_conditions":[6.2204725E-1,8.63778E-1,6.771654E-1,4.5669293E-1,-2.9285738E-4,9.512837E-1,-4.0875404E-4,6.1279338E-2,2.1431753E-2,4.93357E-2,-2.1300742E-3,-1.3200742E-2,-5.8229905E-2,5.0526213E-2,-5.5274244E-2],"split_indices":[0,1,0,0,6,1,6,0,0,0,0,0,0,0,0],"split_type":[0,0,0,0,0,0,0,0,0,0,0,0,0,0,0],"sum_hessian":[2.2143447E3,1.5946193E3,6.197255E2,6.38326E2,9.562933E2,4.9921066E2,1.2051486E2,6.1649086E1,5.766769E2,2.5314775E1,9.3097845E2,4.412788E2,5.7931877E1,3.571201E0,1.1694366E2],"tree_param":{"num_deleted":"0","num_feature":"7","num_nodes":"15","size_leaf_vector":"1"}},{"base_weights":[-2.1530829E-4,2.9260758E-1,-3.1224343E-1,5.45498E-1,7.989602E-2,-2.0790139E-1,-9.141464E-1,4.4208556E-2,1.7141592E-2,-7.3917746E-4,2.8826326E-2,-2.2701798E-2,1.1073033E-3,4.7933687E-2,-4.823013E-2],"categories":[],"categories_nodes":[],"categories_segments":[],"categories_sizes":[],"default_left":[0,0,0,0,0,0,0,0,0,0,0,0,0,0,0],"id":23,"left_children":[1,3,5,7,9,11,13,-1,-1,-1,-1,-1,-1,-1,-1],"loss_changes":[2.0133913E2,6.110669E1,6.680949E1,3.53313E1,2.909596E1,5.1564358E1,1.5790527E1,0E0,0E0,0E0,0E0,0E0,0E0,0E0,0E0],"parents":[2147483647,0,0,1,1,2,2,3,3,4,4,5,5,6,6],"right_children":[2,4,6,8,10,12,14,-1,-1,-1,-1,-1,-1,-1,-1],"split_conditions":[5.9055114E-1,8.63778E-1,6.692914E-1,3.0987027E-5,1.5428729E-4,2.9809906E-5,-4.0875404E-4,4.4208556E-2,1.7141592E-2,-7.3917746E-4,2.8826326E-2,-2.2701798E-2,1.1073033E-3,4.7933687E-2,-4.823013E-2],"split_indices":[0,1,0,5,6,6,6,0,0,0,0,0,0,0,0],"split_type":[0,0,0,0,0,0,0,0,0,0,0,0,0,0,0],"sum_hessian":[2.201583E3,1.135776E3,1.0658071E3,5.1816766E2,6.1760834E2,9.0948926E2,1.5631781E2,1.9273228E2,3.2543536E2,5.1953284E2,9.8075516E1,4.3891138E2,4.7057788E2,3.6286912E0,1.5268912E2],"tree_param":{"num_deleted":"0","num_feature":"7","num_nodes":"15","size_leaf_vector":"1"}},{"base_weights":[-1.8199939E-4,3.494703E-1,-2.4385673E-1,7.0050097E-1,1.9300714E-1,-9.969925E-2,-6.61161E-1,5.9967827E-2,2.8076952E-2,1.10939285E-2,-7.506007E-2,-9.466892E-3,1.649153E-2,-2.6095811E-2,-5.2976143E-2],"categories":[],"categories_nodes":[],"categories_segments":[],"categories_sizes":[],"default_left":[0,0,0,0,0,0,0,0,0,0,0,0,0,0,0],"id":24,"left_children":[1,3,5,7,9,11,13,-1,-1,-1,-1,-1,-1,-1,-1],"loss_changes":[1.867353E2,4.9301926E1,7.7632416E1,1.8537613E1,3.0854675E1,3.7068703E1,1.7831985E1,0E0,0E0,0E0,0E0,0E0,0E0,0E0,0E0],"parents":[2147483647,0,0,1,1,2,2,3,3,4,4,5,5,6,6],"right_children":[2,4,6,8,10,12,14,-1,-1,-1,-1,-1,-1,-1,-1],"split_conditions":[8.719537E-1,5.2755904E-1,6.3779527E-1,4.5669293E-1,3.4978703E-4,4.7206417E-5,9.500798E-1,5.9967827E-2,2.8076952E-2,1.10939285E-2,-7.506007E-2,-9.466892E-3,1.649153E-2,-2.6095811E-2,-5.2976143E-2],"split_indices":[1,0,0,0,6,5,1,0,0,0,0,0,0,0,0],"split_type":[0,0,0,0,0,0,0,0,0,0,0,0,0,0,0],"sum_hessian":[2.1896921E3,8.99111E2,1.2905812E3,2.7612888E2,6.229821E2,9.6014026E2,3.304409E2,5.8497913E1,2.1763097E2,6.133981E2,9.584029E0,7.94827E2,1.6531325E2,2.4656564E2,8.3875244E1],"tree_param":{"num_deleted":"0","num_feature":"7","num_nodes":"15","size_leaf_vector":"1"}},{"base_weights":[-1.9418937E-4,2.7229834E-1,-2.9052356E-1,1.0802178E0,2.1540783E-1,-2.0725864E-1,-9.8616534E-1,5.583752E-2,-3.1264316E-2,2.7828166E-2,5.952166E-3,-2.6451206E-2,-1.6701242E-3,4.8189398E-2,-5.299448E-2],"categories":[],"categories_nodes":[],"categories_segments":[],"categories_sizes":[],"default_left":[0,0,0,0,0,0,0,0,0,0,0,0,0,0,0],"id":25,"left_children":[1,3,5,7,9,11,13,-1,-1,-1,-1,-1,-1,-1,-1],"loss_changes":[1.7240822E2,5.143754E1,6.091002E1,5.2904816E0,3.4501057E1,5.276711E1,1.7197884E1,0E0,0E0,0E0,0E0,0E0,0E0,0E0,0E0],"parents":[2147483647,0,0,1,1,2,2,3,3,4,4,5,5,6,6],"right_children":[2,4,6,8,10,12,14,-1,-1,-1,-1,-1,-1,-1,-1],"split_conditions":[5.9055114E-1,4.6456695E-1,6.771654E-1,2.8657232E-4,2.8590392E-5,-2.6776115E-5,-4.0875404E-4,5.583752E-2,-3.1264316E-2,2.7828166E-2,5.952166E-3,-2.6451206E-2,-1.6701242E-3,4.8189398E-2,-5.299448E-2],"split_indices":[0,0,0,6,5,6,6,0,0,0,0,0,0,0,0],"split_type":[0,0,0,0,0,0,0,0,0,0,0,0,0,0,0],"sum_hessian":[2.177277E3,1.1231715E3,1.0541056E3,7.270322E1,1.0504683E3,9.425811E2,1.11524414E2,7.151651E1,1.1867039E0,2.3031552E2,8.201527E2,3.299258E2,6.1265533E2,3.6231E0,1.0790131E2],"tree_param":{"num_deleted":"0","num_feature":"7","num_nodes":"15","size_leaf_vector":"1"}},{"base_weights":[-1.8699853E-4,2.819466E-1,-2.6609895E-1,1.0621275E0,2.250335E-1,-1.1793436E-1,-6.5814805E-1,5.496685E-2,-3.0178836E-2,1.2297922E-2,-6.737476E-2,-1.540745E-2,1.2735133E-3,-2.7347956E-2,-5.584653E-2],"categories":[],"categories_nodes":[],"categories_segments":[],"categories_sizes":[],"default_left":[0,0,0,0,0,0,0,0,0,0,0,0,0,0,0],"id":26,"left_children":[1,3,5,7,9,11,13,-1,-1,-1,-1,-1,-1,-1,-1],"loss_changes":[1.6275847E2,4.650003E1,6.479684E1,5.0825577E0,3.2654823E1,2.2150175E1,1.500354E1,0E0,0E0,0E0,0E0,0E0,0E0,0E0,0E0],"parents":[2147483647,0,0,1,1,2,2,3,3,4,4,5,5,6,6],"right_children":[2,4,6,8,10,12,14,-1,-1,-1,-1,-1,-1,-1,-1],"split_conditions":[8.8064873E-1,4.6456695E-1,6.3779527E-1,2.8657232E-4,3.7557786E-4,3.449979E-5,9.5603675E-1,5.496685E-2,-3.0178836E-2,1.2297922E-2,-6.737476E-2,-1.540745E-2,1.2735133E-3,-2.7347956E-2,-5.584653E-2],"split_indices":[1,0,0,6,6,5,1,0,0,0,0,0,0,0,0],"split_type":[0,0,0,0,0,0,0,0,0,0,0,0,0,0,0],"sum_hessian":[2.1674563E3,1.0516216E3,1.1158347E3,7.029774E1,9.813238E2,8.107384E2,3.0509634E2,6.9094284E1,1.2034521E0,9.692698E2,1.205404E1,3.479982E2,4.6274023E2,2.4734328E2,5.7753067E1],"tree_param":{"num_deleted":"0","num_feature":"7","num_nodes":"15","size_leaf_vector":"1"}},{"base_weights":[-2.461214E-4,1.620169E-1,-4.28469E-1,4.3259695E-1,-1.1986854E-2,-3.1134892E-1,-9.5714605E-1,5.775842E-2,1.8130334E-2,4.7420956E-2,-1.9511012E-3,-1.0694924E-2,-5.4444294E-2,4.8216563E-2,-5.1686913E-2],"categories":[],"categories_nodes":[],"categories_segments":[],"categories_sizes":[],"default_left":[0,0,0,0,0,0,0,0,0,0,0,0,0,0,0],"id":27,"left_children":[1,3,5,7,9,11,13,-1,-1,-1,-1,-1,-1,-1,-1],"loss_changes":[1.4998177E2,7.3704605E1,3.6428604E1,3.056617E1,2.4798632E1,3.6671795E1,1.6757126E1,0E0,0E0,0E0,0E0,0E0,0E0,0E0,0E0],"parents":[2147483647,0,0,1,1,2,2,3,3,4,4,5,5,6,6],"right_children":[2,4,6,8,10,12,14,-1,-1,-1,-1,-1,-1,-1,-1],"split_conditions":[6.2204725E-1,8.63778E-1,6.771654E-1,4.5669293E-1,-2.9285738E-4,9.512837E-1,-4.0875404E-4,5.775842E-2,1.8130334E-2,4.7420956E-2,-1.9511012E-3,-1.0694924E-2,-5.4444294E-2,4.8216563E-2,-5.1686913E-2],"split_indices":[0,1,0,0,6,1,6,0,0,0,0,0,0,0,0],"split_type":[0,0,0,0,0,0,0,0,0,0,0,0,0,0,0],"sum_hessian":[2.156486E3,1.5643436E3,5.921424E2,6.116801E2,9.526636E2,4.8605377E2,1.06088646E2,5.2647602E1,5.5903253E2,2.5149893E1,9.275137E2,4.330533E2,5.3000435E1,3.622408E0,1.0246623E2],"tree_param":{"num_deleted":"0","num_feature":"7","num_nodes":"15","size_leaf_vector":"1"}},{"base_weights":[-2.2949961E-4,3.0479375E-1,-2.1124674E-1,6.342252E-1,1.6466309E-1,-6.922274E-2,-5.352184E-1,5.705666E-2,2.535005E-2,-1.8132225E-2,1.2519786E-2,-8.231408E-3,1.956268E-2,-2.1621054E-2,-5.558275E-2],"categories":[],"categories_nodes":[],"categories_segments":[],"categories_sizes":[],"default_left":[0,0,0,0,0,0,0,0,0,0,0,0,0,0,0],"id":28,"left_children":[1,3,5,7,9,11,13,-1,-1,-1,-1,-1,-1,-1,-1],"loss_changes":[1.3818457E2,4.042227E1,5.835133E1,1.6294746E1,2.7995455E1,3.887303E1,2.2428192E1,0E0,0E0,0E0,0E0,0E0,0E0,0E0,0E0],"parents":[2147483647,0,0,1,1,2,2,3,3,4,4,5,5,6,6],"right_children":[2,4,6,8,10,12,14,-1,-1,-1,-1,-1,-1,-1,-1],"split_conditions":[8.719537E-1,5.2755904E-1,6.2992126E-1,4.5669293E-1,8.158583E-1,4.6962617E-5,9.5603675E-1,5.705666E-2,2.535005E-2,-1.8132225E-2,1.2519786E-2,-8.231408E-3,1.956268E-2,-2.1621054E-2,-5.558275E-2],"split_indices":[1,0,0,0,1,5,1,0,0,0,0,0,0,0,0],"split_type":[0,0,0,0,0,0,0,0,0,0,0,0,0,0,0],"sum_hessian":[2.144884E3,8.768958E2,1.2679883E3,2.606383E2,6.162575E2,8.8238043E2,3.856078E2,5.069227E1,2.0994604E2,8.5730865E1,5.305267E2,7.314706E2,1.5090985E2,3.28734E2,5.687378E1],"tree_param":{"num_deleted":"0","num_feature":"7","num_nodes":"15","size_leaf_vector":"1"}},{"base_weights":[-2.0802965E-4,2.3816605E-1,-2.549867E-1,1.0134134E0,1.8970881E-1,-1.8074924E-1,-9.300504E-1,5.270061E-2,-3.184786E-2,1.0631814E-2,-5.8009174E-2,-2.456408E-2,-7.1558263E-4,4.8160043E-2,-5.047669E-2],"categories":[],"categories_nodes":[],"categories_segments":[],"categories_sizes":[],"default_left":[0,0,0,0,0,0,0,0,0,0,0,0,0,0,0],"id":29,"left_children":[1,3,5,7,9,11,13,-1,-1,-1,-1,-1,-1,-1,-1],"loss_changes":[1.2971771E2,4.1260918E1,5.157142E1,5.0054398E0,3.2427494E1,4.813011E1,1.6328476E1,0E0,0E0,0E0,0E0,0E0,0E0,0E0,0E0],"parents":[2147483647,0,0,1,1,2,2,3,3,4,4,5,5,6,6],"right_children":[2,4,6,8,10,12,14,-1,-1,-1,-1,-1,-1,-1,-1],"split_conditions":[5.9055114E-1,4.6456695E-1,6.771654E-1,2.8657232E-4,3.357449E-4,-2.6776115E-5,-4.0875404E-4,5.270061E-2,-3.184786E-2,1.0631814E-2,-5.8009174E-2,-2.456408E-2,-7.1558263E-4,4.8160043E-2,-5.047669E-2],"split_indices":[0,0,0,6,6,6,6,0,0,0,0,0,0,0,0],"split_type":[0,0,0,0,0,0,0,0,0,0,0,0,0,0,0],"sum_hessian":[2.1338813E3,1.102466E3,1.0314155E3,6.368484E1,1.0387811E3,9.303695E2,1.0104598E2,6.250849E1,1.1763494E0,1.0222608E3,1.6520262E1,3.2396927E2,6.0640027E2,3.6232748E0,9.742271E1],"tree_param":{"num_deleted":"0","num_feature":"7","num_nodes":"15","size_leaf_vector":"1"}},{"base_weights":[-2.3768944E-4,2.4020794E-1,-2.3778482E-1,1.1162996E0,1.9826359E-1,-1.08326405E-1,-6.027294E-1,5.7759937E-2,-1.7650325E-2,-2.1991232E-2,1.2387948E-2,-4.4085323E-3,-7.212856E-2,-2.475444E-2,-5.295985E-2],"categories":[],"categories_nodes":[],"categories_segments":[],"categories_sizes":[],"default_left":[0,0,0,0,0,0,0,0,0,0,0,0,0,0,0],"id":30,"left_children":[1,3,5,7,9,11,13,-1,-1,-1,-1,-1,-1,-1,-1],"loss_changes":[1.2148742E2,3.862199E1,5.048425E1,3.155758E0,3.2006107E1,2.1144909E1,1.3230431E1,0E0,0E0,0E0,0E0,0E0,0E0,0E0,0E0],"parents":[2147483647,0,0,1,1,2,2,3,3,4,4,5,5,6,6],"right_children":[2,4,6,8,10,12,14,-1,-1,-1,-1,-1,-1,-1,-1],"split_conditions":[8.8373244E-1,4.5669293E-1,6.3779527E-1,2.7872424E-4,8.015357E-1,6.605208E-5,9.5603675E-1,5.7759937E-2,-1.7650325E-2,-2.1991232E-2,1.2387948E-2,-4.4085323E-3,-7.212856E-2,-2.475444E-2,-5.295985E-2],"split_indices":[1,0,0,6,1,5,1,0,0,0,0,0,0,0,0],"split_type":[0,0,0,0,0,0,0,0,0,0,0,0,0,0,0],"sum_hessian":[2.124986E3,1.0560446E3,1.0689414E3,4.707957E1,1.008965E3,7.8999854E2,2.7894287E2,4.607358E1,1.0059919E0,7.2062164E1,9.3690283E2,7.7929224E2,1.070629E1,2.274031E2,5.1539772E1],"tree_param":{"num_deleted":"0","num_feature":"7","num_nodes":"15","size_leaf_vector":"1"}},{"base_weights":[-2.8901044E-4,1.5769115E-1,-3.344082E-1,3.4787235E-1,-3.331791E-2,-2.3893444E-1,-9.0401137E-1,1.889085E-2,-5.1814534E-2,-6.492864E-3,2.3688545E-2,-8.68054E-3,-6.0441848E-2,4.8046734E-2,-4.9324617E-2],"categories":[],"categories_nodes":[],"categories_segments":[],"categories_sizes":[],"default_left":[0,0,0,0,0,0,0,0,0,0,0,0,0,0,0],"id":31,"left_children":[1,3,5,7,9,11,13,-1,-1,-1,-1,-1,-1,-1,-1],"loss_changes":[1.117913E2,5.2248146E1,3.6759163E1,3.026078E1,3.5227234E1,3.6769985E1,1.5906319E1,0E0,0E0,0E0,0E0,0E0,0E0,0E0,0E0],"parents":[2147483647,0,0,1,1,2,2,3,3,4,4,5,5,6,6],"right_children":[2,4,6,8,10,12,14,-1,-1,-1,-1,-1,-1,-1,-1],"split_conditions":[6.1417323E-1,8.719537E-1,6.771654E-1,3.357449E-4,1.5825925E-4,9.5603675E-1,-4.0875404E-4,1.889085E-2,-5.1814534E-2,-6.492864E-3,2.3688545E-2,-8.68054E-3,-6.0441848E-2,4.8046734E-2,-4.9324617E-2],"split_indices":[0,1,0,6,6,1,6,0,0,0,0,0,0,0,0],"split_type":[0,0,0,0,0,0,0,0,0,0,0,0,0,0,0],"sum_hessian":[2.115894E3,1.4369806E3,6.7891345E2,7.196392E2,7.1734143E2,5.826691E2,9.6244316E1,7.0511206E2,1.4527182E1,6.032406E2,1.141008E2,5.4700684E2,3.5662308E1,3.6252291E0,9.261909E1],"tree_param":{"num_deleted":"0","num_feature":"7","num_nodes":"15","size_leaf_vector":"1"}},{"base_weights":[-3.466152E-4,2.1365616E-1,-2.2988753E-1,1.1003664E0,1.7473729E-1,-1.6256997E-1,-8.873247E-1,5.704434E-2,-1.7293874E-2,2.6008347E-2,3.8352422E-3,-1.413945E-2,1.285494E-2,4.5640603E-2,-4.8525948E-2],"categories":[],"categories_nodes":[],"categories_segments":[],"categories_sizes":[],"default_left":[0,0,0,0,0,0,0,0,0,0,0,0,0,0,0],"id":32,"left_children":[1,3,5,7,9,11,13,-1,-1,-1,-1,-1,-1,-1,-1],"loss_changes":[1.035098E2,3.744063E1,4.485106E1,3.0705261E0,3.5375664E1,4.66639E1,1.4994637E1,0E0,0E0,0E0,0E0,0E0,0E0,0E0,0E0],"parents":[2147483647,0,0,1,1,2,2,3,3,4,4,5,5,6,6],"right_children":[2,4,6,8,10,12,14,-1,-1,-1,-1,-1,-1,-1,-1],"split_conditions":[5.9055114E-1,4.5669293E-1,6.771654E-1,2.7872424E-4,2.8590392E-5,4.6239493E-5,-4.0875404E-4,5.704434E-2,-1.7293874E-2,2.6008347E-2,3.8352422E-3,-1.413945E-2,1.285494E-2,4.5640603E-2,-4.8525948E-2],"split_indices":[0,0,0,6,5,5,6,0,0,0,0,0,0,0,0],"split_type":[0,0,0,0,0,0,0,0,0,0,0,0,0,0,0],"sum_hessian":[2.105182E3,1.0895009E3,1.0156809E3,4.466226E1,1.0448386E3,9.224726E2,9.320829E1,4.3650414E1,1.0118454E0,2.300218E2,8.1481683E2,7.1731537E2,2.0515721E2,3.676877E0,8.953141E1],"tree_param":{"num_deleted":"0","num_feature":"7","num_nodes":"15","size_leaf_vector":"1"}},{"base_weights":[-3.0774623E-4,2.6080567E-1,-1.7966326E-1,5.686625E-1,1.3595542E-1,-1.203796E-1,-7.927417E-1,3.650954E-2,8.28298E-3,-1.8066494E-2,1.0889555E-2,-9.876769E-3,1.3608458E-2,4.3407414E-2,-4.296888E-2],"categories":[],"categories_nodes":[],"categories_segments":[],"categories_sizes":[],"default_left":[0,0,0,0,0,0,0,0,0,0,0,0,0,0,0],"id":33,"left_children":[1,3,5,7,9,11,13,-1,-1,-1,-1,-1,-1,-1,-1],"loss_changes":[9.831106E1,3.27773E1,4.5134212E1,1.5913597E1,2.4881386E1,3.4456894E1,1.2869995E1,0E0,0E0,0E0,0E0,0E0,0E0,0E0,0E0],"parents":[2147483647,0,0,1,1,2,2,3,3,4,4,5,5,6,6],"right_children":[2,4,6,8,10,12,14,-1,-1,-1,-1,-1,-1,-1,-1],"split_conditions":[8.719537E-1,5.2755904E-1,6.692914E-1,1.0760973E-4,8.158583E-1,4.7806505E-5,-4.0875404E-4,3.650954E-2,8.28298E-3,-1.8066494E-2,1.0889555E-2,-9.876769E-3,1.3608458E-2,4.3407414E-2,-4.296888E-2],"split_indices":[1,0,0,6,1,5,6,0,0,0,0,0,0,0,0],"split_type":[0,0,0,0,0,0,0,0,0,0,0,0,0,0,0],"sum_hessian":[2.097222E3,8.5378754E2,1.2434344E3,2.4532014E2,6.0846735E2,1.1348889E3,1.085455E2,1.7454756E2,7.0772575E1,8.55E1,5.2296735E2,9.4888214E2,1.8600677E2,3.7229629E0,1.0482254E2],"tree_param":{"num_deleted":"0","num_feature":"7","num_nodes":"15","size_leaf_vector":"1"}},{"base_weights":[-2.7336512E-4,1.257495E-1,-3.4435672E-1,3.5271803E-1,-1.40050305E-2,-6.799564E-1,-1.7515178E-1,3.3261366E-2,1.0674014E-2,4.529723E-2,-1.988639E-3,-4.8247245E-3,-4.4707283E-2,9.429936E-3,-2.1077579E-2],"categories":[],"categories_nodes":[],"categories_segments":[],"categories_sizes":[],"default_left":[0,0,0,0,0,0,0,0,0,0,0,0,0,0,0],"id":34,"left_children":[1,3,5,7,9,11,13,-1,-1,-1,-1,-1,-1,-1,-1],"loss_changes":[9.062869E1,4.8528473E1,3.1696533E1,2.5226608E1,2.2502235E1,2.3339973E1,3.3584972E1,0E0,0E0,0E0,0E0,0E0,0E0,0E0,0E0],"parents":[2147483647,0,0,1,1,2,2,3,3,4,4,5,5,6,6],"right_children":[2,4,6,8,10,12,14,-1,-1,-1,-1,-1,-1,-1,-1],"split_conditions":[6.2204725E-1,8.63778E-1,-5.2843418E-5,3.0715335E-5,-2.9285738E-4,2.6666666E1,8.994075E-1,3.3261366E-2,1.0674014E-2,4.529723E-2,-1.988639E-3,-4.8247245E-3,-4.4707283E-2,9.429936E-3,-2.1077579E-2],"split_indices":[0,1,6,5,6,4,1,0,0,0,0,0,0,0,0],"split_type":[0,0,0,0,0,0,0,0,0,0,0,0,0,0,0],"sum_hessian":[2.0880325E3,1.5287515E3,5.5928107E2,5.820113E2,9.467401E2,1.8645305E2,3.72828E2,1.7822356E2,4.0378775E2,2.4864914E1,9.2187524E2,5.0456795E1,1.3599625E2,1.5065556E2,2.2217244E2],"tree_param":{"num_deleted":"0","num_feature":"7","num_nodes":"15","size_leaf_vector":"1"}},{"base_weights":[-2.5732926E-4,1.9268823E-1,-2.0741905E-1,1.079872E0,1.561682E-1,-4.1532588E-1,-3.4864822E-3,5.6153476E-2,-1.7343732E-2,2.4218043E-2,3.2059748E-3,-2.7548453E-2,-4.4216673E-4,2.8048872E-3,-5.331702E-2],"categories":[],"categories_nodes":[],"categories_segments":[],"categories_sizes":[],"default_left":[0,0,0,0,0,0,0,0,0,0,0,0,0,0,0],"id":35,"left_children":[1,3,5,7,9,11,13,-1,-1,-1,-1,-1,-1,-1,-1],"loss_changes":[8.317802E1,3.474076E1,4.254641E1,3.004593E0,3.126685E1,2.7392776E1,3.220618E1,0E0,0E0,0E0,0E0,0E0,0E0,0E0,0E0],"parents":[2147483647,0,0,1,1,2,2,3,3,4,4,5,5,6,6],"right_children":[2,4,6,8,10,12,14,-1,-1,-1,-1,-1,-1,-1,-1],"split_conditions":[5.9055114E-1,4.5669293E-1,2.9809906E-5,2.7872424E-4,2.8590392E-5,4.7206417E-5,9.5467263E-1,5.6153476E-2,-1.7343732E-2,2.4218043E-2,3.2059748E-3,-2.7548453E-2,-4.4216673E-4,2.8048872E-3,-5.331702E-2],"split_indices":[0,0,6,6,5,5,1,0,0,0,0,0,0,0,0],"split_type":[0,0,0,0,0,0,0,0,0,0,0,0,0,0,0],"sum_hessian":[2.0789626E3,1.0764512E3,1.0025114E3,4.1429615E1,1.0350215E3,4.959053E2,5.0660614E2,4.0418705E1,1.0109107E0,2.2577516E2,8.0924634E2,3.7156024E2,1.24345055E2,4.8061008E2,2.5996069E1],"tree_param":{"num_deleted":"0","num_feature":"7","num_nodes":"15","size_leaf_vector":"1"}},{"base_weights":[-2.4957556E-4,1.872361E-1,-2.0466061E-1,1.0693704E0,1.5253028E-1,-1.6001794E-1,-1.1031561E0,5.5695917E-2,-1.682416E-2,8.717601E-3,-5.7569284E-2,-6.8173693E-3,-6.7271754E-2,2.6574139E-2,-5.9598614E-2],"categories":[],"categories_nodes":[],"categories_segments":[],"categories_sizes":[],"default_left":[0,0,0,0,0,0,0,0,0,0,0,0,0,0,0],"id":36,"left_children":[1,3,5,7,9,11,13,-1,-1,-1,-1,-1,-1,-1,-1],"loss_changes":[7.94856E1,3.2956562E1,3.962303E1,2.9290237E0,2.9850126E1,2.6372982E1,7.427574E0,0E0,0E0,0E0,0E0,0E0,0E0,0E0,0E0],"parents":[2147483647,0,0,1,1,2,2,3,3,4,4,5,5,6,6],"right_children":[2,4,6,8,10,12,14,-1,-1,-1,-1,-1,-1,-1,-1],"split_conditions":[8.864243E-1,4.5669293E-1,9.584976E-1,2.7872424E-4,6.850394E-1,6.605208E-5,-4.0875404E-4,5.5695917E-2,-1.682416E-2,8.717601E-3,-5.7569284E-2,-6.8173693E-3,-6.7271754E-2,2.6574139E-2,-5.9598614E-2],"split_indices":[1,0,1,6,0,5,6,0,0,0,0,0,0,0,0],"split_type":[0,0,0,0,0,0,0,0,0,0,0,0,0,0,0],"sum_hessian":[2.072035E3,1.0808052E3,9.912298E2,3.9783997E1,1.0410211E3,9.454331E2,4.5796715E1,3.8763344E1,1.0206544E0,1.0247379E3,1.6283262E1,9.2801733E2,1.7415745E1,2.103231E0,4.369348E1],"tree_param":{"num_deleted":"0","num_feature":"7","num_nodes":"15","size_leaf_vector":"1"}},{"base_weights":[-3.08007E-4,1.1289717E-1,-3.1269467E-1,3.2138607E-1,-1.3259862E-2,-6.347106E-1,-1.5304527E-1,5.2963246E-2,1.3329359E-2,-6.5994086E-3,8.763182E-3,-3.1298995E-3,-4.24382E-2,-2.1611608E-3,-4.5065608E-2],"categories":[],"categories_nodes":[],"categories_segments":[],"categories_sizes":[],"default_left":[0,0,0,0,0,0,0,0,0,0,0,0,0,0,0],"id":37,"left_children":[1,3,5,7,9,11,13,-1,-1,-1,-1,-1,-1,-1,-1],"loss_changes":[7.307219E1,3.9896416E1,2.8158863E1,2.2838573E1,2.1194624E1,2.2217552E1,3.0264969E1,0E0,0E0,0E0,0E0,0E0,0E0,0E0,0E0],"parents":[2147483647,0,0,1,1,2,2,3,3,4,4,5,5,6,6],"right_children":[2,4,6,8,10,12,14,-1,-1,-1,-1,-1,-1,-1,-1],"split_conditions":[6.2204725E-1,8.63778E-1,-5.2843418E-5,4.5669293E-1,6.742044E-5,2.6666666E1,6.771654E-1,5.2963246E-2,1.3329359E-2,-6.5994086E-3,8.763182E-3,-3.1298995E-3,-4.24382E-2,-2.1611608E-3,-4.5065608E-2],"split_indices":[0,1,6,0,6,4,0,0,0,0,0,0,0,0,0],"split_type":[0,0,0,0,0,0,0,0,0,0,0,0,0,0,0],"sum_hessian":[2.0643015E3,1.515677E3,5.486246E2,5.708066E2,9.448704E2,1.8085693E2,3.6776767E2,3.819345E1,5.326131E2,5.799374E2,3.64933E2,4.9594723E1,1.312622E2,3.216215E2,4.6146164E1],"tree_param":{"num_deleted":"0","num_feature":"7","num_nodes":"15","size_leaf_vector":"1"}},{"base_weights":[-3.185094E-4,1.7311879E-1,-1.8908656E-1,1.0491332E0,1.4107417E-1,-1.4663684E-1,-1.0830168E0,5.4863747E-2,-1.7907813E-2,-2.4598412E-2,9.38583E-3,-6.199939E-3,-6.5191545E-2,2.5675058E-2,-5.8740705E-2],"categories":[],"categories_nodes":[],"categories_segments":[],"categories_sizes":[],"default_left":[0,0,0,0,0,0,0,0,0,0,0,0,0,0,0],"id":38,"left_children":[1,3,5,7,9,11,13,-1,-1,-1,-1,-1,-1,-1,-1],"loss_changes":[6.735636E1,2.9950699E1,3.722411E1,2.945938E0,3.0668123E1,2.4505852E1,7.125492E0,0E0,0E0,0E0,0E0,0E0,0E0,0E0,0E0],"parents":[2147483647,0,0,1,1,2,2,3,3,4,4,5,5,6,6],"right_children":[2,4,6,8,10,12,14,-1,-1,-1,-1,-1,-1,-1,-1],"split_conditions":[8.864243E-1,4.5669293E-1,9.584976E-1,2.7872424E-4,8.015357E-1,6.605208E-5,-4.0875404E-4,5.4863747E-2,-1.7907813E-2,-2.4598412E-2,9.38583E-3,-6.199939E-3,-6.5191545E-2,2.5675058E-2,-5.8740705E-2],"split_indices":[1,0,1,6,1,5,6,0,0,0,0,0,0,0,0],"split_type":[0,0,0,0,0,0,0,0,0,0,0,0,0,0,0],"sum_hessian":[2.0553474E3,1.0712144E3,9.84133E2,3.6682148E1,1.0345322E3,9.4062976E2,4.350328E1,3.5681805E1,1.0003421E0,7.033812E1,9.6419415E2,9.236673E2,1.696245E1,2.1155899E0,4.138769E1],"tree_param":{"num_deleted":"0","num_feature":"7","num_nodes":"15","size_leaf_vector":"1"}},{"base_weights":[-3.450615E-4,1.6990463E-1,-1.8334569E-1,1.9237776E-1,-1.108519E0,-2.9349455E-1,1.7640942E-1,2.6113823E-2,5.463014E-3,-8.858568E-2,1.5795084E-2,-3.0111147E-2,-6.6704876E-3,2.072457E-2,-3.4301918E-2],"categories":[],"categories_nodes":[],"categories_segments":[],"categories_sizes":[],"default_left":[0,0,0,0,0,0,0,0,0,0,0,0,0,0,0],"id":39,"left_children":[1,3,5,7,9,11,13,-1,-1,-1,-1,-1,-1,-1,-1],"loss_changes":[6.3908215E1,3.0743225E1,3.922669E1,2.8601036E1,1.8040945E1,3.734458E1,4.7995552E1,0E0,0E0,0E0,0E0,0E0,0E0,0E0,0E0],"parents":[2147483647,0,0,1,1,2,2,3,3,4,4,5,5,6,6],"right_children":[2,4,6,8,10,12,14,-1,-1,-1,-1,-1,-1,-1,-1],"split_conditions":[5.9055114E-1,3.357449E-4,4.6239493E-5,2.805928E-5,3.865472E-5,-2.6776115E-5,9.4600195E-1,2.6113823E-2,5.463014E-3,-8.858568E-2,1.5795084E-2,-3.0111147E-2,-6.6704876E-3,2.072457E-2,-3.4301918E-2],"split_indices":[0,6,5,5,5,6,1,0,0,0,0,0,0,0,0],"split_type":[0,0,0,0,0,0,0,0,0,0,0,0,0,0,0],"sum_hessian":[2.049246E3,1.0616449E3,9.876012E2,1.0441398E3,1.7505182E1,7.562414E2,2.3135977E2,2.0906473E2,8.35075E2,1.1777769E1,5.7274137E0,2.572893E2,4.989521E2,1.8171582E2,4.9643944E1],"tree_param":{"num_deleted":"0","num_feature":"7","num_nodes":"15","size_leaf_vector":"1"}},{"base_weights":[-3.8541207E-4,2.0758702E-1,-1.4162053E-1,2.3508078E-1,-9.4024736E-1,-1.0850656E-1,-1.0596629E0,2.632213E-2,6.263143E-3,-9.0517096E-2,-1.569902E-2,-9.827187E-3,1.5566625E-2,2.6005147E-2,-5.7779368E-2],"categories":[],"categories_nodes":[],"categories_segments":[],"categories_sizes":[],"default_left":[0,0,0,0,0,0,0,0,0,0,0,0,0,0,0],"id":40,"left_children":[1,3,5,7,9,11,13,-1,-1,-1,-1,-1,-1,-1,-1],"loss_changes":[6.0087296E1,2.6331043E1,3.6921494E1,2.5813171E1,1.0086742E1,4.356495E1,7.011154E0,0E0,0E0,0E0,0E0,0E0,0E0,0E0,0E0],"parents":[2147483647,0,0,1,1,2,2,3,3,4,4,5,5,6,6],"right_children":[2,4,6,8,10,12,14,-1,-1,-1,-1,-1,-1,-1,-1],"split_conditions":[8.719537E-1,3.357449E-4,9.584976E-1,5.2755904E-1,8.0370826E-1,4.7206417E-5,-4.0875404E-4,2.632213E-2,6.263143E-3,-9.0517096E-2,-1.569902E-2,-9.827187E-3,1.5566625E-2,2.6005147E-2,-5.7779368E-2],"split_indices":[1,6,1,0,1,5,6,0,0,0,0,0,0,0,0],"split_type":[0,0,0,0,0,0,0,0,0,0,0,0,0,0,0],"sum_hessian":[2.0436626E3,8.2635834E2,1.2173042E3,8.078044E2,1.8553919E1,1.1760038E3,4.1300484E1,2.2008781E2,5.877166E2,6.974005E0,1.1579914E1,9.725905E2,2.0341325E2,2.1110969E0,3.918939E1],"tree_param":{"num_deleted":"0","num_feature":"7","num_nodes":"15","size_leaf_vector":"1"}},{"base_weights":[-4.1970875E-4,9.998143E-2,-2.8043133E-1,1.0334297E0,7.750518E-2,-1.8673655E-1,-8.0968046E-1,5.4206092E-2,-1.7101238E-2,1.861134E-2,9.3134044E-4,-2.8573677E-2,-1.5536897E-3,4.1682746E-2,-4.5042474E-2],"categories":[],"categories_nodes":[],"categories_segments":[],"categories_sizes":[],"default_left":[0,0,0,0,0,0,0,0,0,0,0,0,0,0,0],"id":41,"left_children":[1,3,5,7,9,11,13,-1,-1,-1,-1,-1,-1,-1,-1],"loss_changes":[5.73062E1,3.1399048E1,2.6526325E1,2.8249168E0,2.5435783E1,2.7433563E1,1.28290825E1,0E0,0E0,0E0,0E0,0E0,0E0,0E0,0E0],"parents":[2147483647,0,0,1,1,2,2,3,3,4,4,5,5,6,6],"right_children":[2,4,6,8,10,12,14,-1,-1,-1,-1,-1,-1,-1,-1],"split_conditions":[6.2204725E-1,4.5669293E-1,6.771654E-1,2.7872424E-4,2.7450871E-5,-5.8631304E-5,-4.0875404E-4,5.4206092E-2,-1.7101238E-2,1.861134E-2,9.3134044E-4,-2.8573677E-2,-1.5536897E-3,4.1682746E-2,-4.5042474E-2],"split_indices":[0,0,0,6,5,6,6,0,0,0,0,0,0,0,0],"split_type":[0,0,0,0,0,0,0,0,0,0,0,0,0,0,0],"sum_hessian":[2.0363909E3,1.4994059E3,5.369849E2,3.419733E1,1.4652086E3,4.5736832E2,7.961664E1,3.3186073E1,1.0112562E0,2.4308751E2,1.2221211E3,1.3097601E2,3.263923E2,3.756739E0,7.585989E1],"tree_param":{"num_deleted":"0","num_feature":"7","num_nodes":"15","size_leaf_vector":"1"}},{"base_weights":[-4.0492642E-4,1.951265E-1,-1.3275431E-1,1.0244255E0,1.5927649E-1,-1.0139947E-1,-1.0433877E0,5.3838667E-2,-1.6591204E-2,-2.417058E-2,1.1139478E-2,-9.310781E-3,1.509279E-2,2.3437746E-2,-5.704241E-2],"categories":[],"categories_nodes":[],"categories_segments":[],"categories_sizes":[],"default_left":[0,0,0,0,0,0,0,0,0,0,0,0,0,0,0],"id":42,"left_children":[1,3,5,7,9,11,13,-1,-1,-1,-1,-1,-1,-1,-1],"loss_changes":[5.25863E1,2.422286E1,3.449469E1,2.7573357E0,3.225005E1,4.016146E1,6.4634056E0,0E0,0E0,0E0,0E0,0E0,0E0,0E0,0E0],"parents":[2147483647,0,0,1,1,2,2,3,3,4,4,5,5,6,6],"right_children":[2,4,6,8,10,12,14,-1,-1,-1,-1,-1,-1,-1,-1],"split_conditions":[8.719537E-1,4.5669293E-1,9.584976E-1,2.7872424E-4,8.015357E-1,4.7206417E-5,-4.0875404E-4,5.3838667E-2,-1.6591204E-2,-2.417058E-2,1.1139478E-2,-9.310781E-3,1.509279E-2,2.3437746E-2,-5.704241E-2],"split_indices":[1,0,1,6,1,5,6,0,0,0,0,0,0,0,0],"split_type":[0,0,0,0,0,0,0,0,0,0,0,0,0,0,0],"sum_hessian":[2.0300476E3,8.192391E2,1.2108086E3,3.2804943E1,7.8643414E2,1.1715802E3,3.9228394E1,3.178422E1,1.0207236E0,7.0134346E1,7.162998E2,9.684298E2,2.0315036E2,2.1445832E0,3.7083813E1],"tree_param":{"num_deleted":"0","num_feature":"7","num_nodes":"15","size_leaf_vector":"1"}},{"base_weights":[-3.8490663E-4,4.5750927E-2,-5.455948E-1,1.7909233E-1,-9.453066E-2,-8.179229E-1,-2.8403202E-1,9.882382E-3,-5.8663677E-2,-2.9396613E-3,-3.967206E-2,3.4362774E-2,-4.551303E-2,9.748935E-3,-4.474543E-2],"categories":[],"categories_nodes":[],"categories_segments":[],"categories_sizes":[],"default_left":[0,0,0,0,0,0,0,0,0,0,0,0,0,0,0],"id":43,"left_children":[1,3,5,7,9,11,13,-1,-1,-1,-1,-1,-1,-1,-1],"loss_changes":[5.0956707E1,3.49542E1,1.1025772E1,2.4269451E1,2.2703953E1,1.1313484E1,2.421315E1,0E0,0E0,0E0,0E0,0E0,0E0,0E0,0E0],"parents":[2147483647,0,0,1,1,2,2,3,3,4,4,5,5,6,6],"right_children":[2,4,6,8,10,12,14,-1,-1,-1,-1,-1,-1,-1,-1],"split_conditions":[6.6141737E-1,8.8232005E-1,-1.441983E-5,3.7557786E-4,8.1818184E1,-4.0875404E-4,6.771654E-1,9.882382E-3,-5.8663677E-2,-2.9396613E-3,-3.967206E-2,3.4362774E-2,-4.551303E-2,9.748935E-3,-4.474543E-2],"split_indices":[0,1,6,6,4,6,0,0,0,0,0,0,0,0,0],"split_type":[0,0,0,0,0,0,0,0,0,0,0,0,0,0,0],"sum_hessian":[2.0238203E3,1.8667698E3,1.5705057E2,9.569174E2,9.098523E2,7.589982E1,8.115075E1,9.448079E2,1.2109505E1,8.6662335E2,4.322897E1,4.0146685E0,7.188515E1,4.58662E1,3.5284546E1],"tree_param":{"num_deleted":"0","num_feature":"7","num_nodes":"15","size_leaf_vector":"1"}},{"base_weights":[-4.6951984E-4,1.4756693E-1,-1.600321E-1,4.4573146E-1,6.4093366E-2,-2.6231432E-1,1.7235926E-1,3.315216E-2,1.2455147E-2,2.6776759E-2,2.8553657E-4,-2.7812535E-2,-5.6321085E-3,1.9293038E-2,-3.2047573E-2],"categories":[],"categories_nodes":[],"categories_segments":[],"categories_sizes":[],"default_left":[0,0,0,0,0,0,0,0,0,0,0,0,0,0,0],"id":44,"left_children":[1,3,5,7,9,11,13,-1,-1,-1,-1,-1,-1,-1,-1],"loss_changes":[4.7689808E1,2.603763E1,3.307904E1,9.615784E0,2.2550146E1,3.2642902E1,4.0053284E1,0E0,0E0,0E0,0E0,0E0,0E0,0E0,0E0],"parents":[2147483647,0,0,1,1,2,2,3,3,4,4,5,5,6,6],"right_children":[2,4,6,8,10,12,14,-1,-1,-1,-1,-1,-1,-1,-1],"split_conditions":[5.9055114E-1,2.8590392E-5,4.6239493E-5,8.6491203E-1,2.8571428E1,-2.6776115E-5,9.4600195E-1,3.315216E-2,1.2455147E-2,2.6776759E-2,2.8553657E-4,-2.7812535E-2,-5.6321085E-3,1.9293038E-2,-3.2047573E-2],"split_indices":[0,5,5,1,4,6,1,0,0,0,0,0,0,0,0],"split_type":[0,0,0,0,0,0,0,0,0,0,0,0,0,0,0],"sum_hessian":[2.0169521E3,1.046304E3,9.706482E2,2.2790297E2,8.1840094E2,7.42408E2,2.2824019E2,1.07130936E2,1.2077204E2,8.928099E1,7.2912E2,2.4956963E2,4.9283838E2,1.8119928E2,4.7040905E1],"tree_param":{"num_deleted":"0","num_feature":"7","num_nodes":"15","size_leaf_vector":"1"}},{"base_weights":[-4.3779545E-4,2.9275045E-2,-7.7219474E-1,4.8328444E-2,-9.6839494E-1,7.7385914E-1,-8.663292E-1,4.308566E-2,1.4395256E-3,-2.8512193E-2,-5.8934804E-2,7.9608865E-2,-8.362845E-3,3.889453E-2,-4.516974E-2],"categories":[],"categories_nodes":[],"categories_segments":[],"categories_sizes":[],"default_left":[0,0,0,0,0,0,0,0,0,0,0,0,0,0,0],"id":45,"left_children":[1,3,5,7,9,11,13,-1,-1,-1,-1,-1,-1,-1,-1],"loss_changes":[4.617025E1,3.690155E1,1.1533867E1,3.022413E1,2.374073E0,3.9723246E0,5.0195084E0,0E0,0E0,0E0,0E0,0E0,0E0,0E0,0E0],"parents":[2147483647,0,0,1,1,2,2,3,3,4,4,5,5,6,6],"right_children":[2,4,6,8,10,12,14,-1,-1,-1,-1,-1,-1,-1,-1],"split_conditions":[6.771654E-1,9.5467263E-1,-4.0875404E-4,4.6456695E-1,9.606641E-1,1.6666666E1,8.469789E-1,4.308566E-2,1.4395256E-3,-2.8512193E-2,-5.8934804E-2,7.9608865E-2,-8.362845E-3,3.889453E-2,-4.516974E-2],"split_indices":[0,1,6,0,1,4,1,0,0,0,0,0,0,0,0],"split_type":[0,0,0,0,0,0,0,0,0,0,0,0,0,0,0],"sum_hessian":[2.0114487E3,1.9378048E3,7.364391E1,1.9024241E3,3.538074E1,3.8121886E0,6.9831726E1,4.3614204E1,1.8588098E3,1.3511584E1,2.1869158E1,1.669088E0,2.1431005E0,1.0988795E0,6.873285E1],"tree_param":{"num_deleted":"0","num_feature":"7","num_nodes":"15","size_leaf_vector":"1"}},{"base_weights":[-4.3154636E-4,2.782814E-2,-7.567637E-1,1.5446764E-1,-1.159187E-1,7.463029E-1,-8.5178125E-1,5.462341E-3,3.257591E-2,-4.27613E-3,-5.3593438E-2,7.635289E-2,-8.088048E-3,3.7400663E-2,-4.447941E-2],"categories":[],"categories_nodes":[],"categories_segments":[],"categories_sizes":[],"default_left":[0,0,0,0,0,0,0,0,0,0,0,0,0,0,0],"id":46,"left_children":[1,3,5,7,9,11,13,-1,-1,-1,-1,-1,-1,-1,-1],"loss_changes":[4.2929962E1,3.5264748E1,1.0967731E1,2.3075363E1,2.627552E1,3.6744792E0,4.8091316E0,0E0,0E0,0E0,0E0,0E0,0E0,0E0,0E0],"parents":[2147483647,0,0,1,1,2,2,3,3,4,4,5,5,6,6],"right_children":[2,4,6,8,10,12,14,-1,-1,-1,-1,-1,-1,-1,-1],"split_conditions":[6.771654E-1,8.864243E-1,-4.0875404E-4,5.06682E-5,9.5603675E-1,1.6666666E1,8.469789E-1,5.462341E-3,3.257591E-2,-4.27613E-3,-5.3593438E-2,7.635289E-2,-8.088048E-3,3.7400663E-2,-4.447941E-2],"split_indices":[0,1,6,5,1,4,1,0,0,0,0,0,0,0,0],"split_type":[0,0,0,0,0,0,0,0,0,0,0,0,0,0,0],"sum_hessian":[2.0065553E3,1.935211E3,7.134426E1,1.0287863E3,9.0642474E2,3.8343878E0,6.750987E1,9.441123E2,8.467396E1,8.795475E2,2.6877285E1,1.6951938E0,2.139194E0,1.1248988E0,6.638497E1],"tree_param":{"num_deleted":"0","num_feature":"7","num_nodes":"15","size_leaf_vector":"1"}},{"base_weights":[-4.2170795E-4,2.6474476E-2,-7.415164E-1,4.3863785E-2,-9.3478924E-1,7.204587E-1,-8.3733565E-1,2.9414427E-3,-4.923342E-2,-2.684155E-2,-5.7686407E-2,7.3379286E-2,-7.8222845E-3,3.597516E-2,-4.3793667E-2],"categories":[],"categories_nodes":[],"categories_segments":[],"categories_sizes":[],"default_left":[0,0,0,0,0,0,0,0,0,0,0,0,0,0,0],"id":47,"left_children":[1,3,5,7,9,11,13,-1,-1,-1,-1,-1,-1,-1,-1],"loss_changes":[3.9913345E1,3.2340782E1,1.042709E1,2.9286238E1,2.3760452E0,3.4077873E0,4.6065826E0,0E0,0E0,0E0,0E0,0E0,0E0,0E0,0E0],"parents":[2147483647,0,0,1,1,2,2,3,3,4,4,5,5,6,6],"right_children":[2,4,6,8,10,12,14,-1,-1,-1,-1,-1,-1,-1,-1],"split_conditions":[6.771654E-1,9.5467263E-1,-4.0875404E-4,3.4978703E-4,9.606641E-1,1.6666666E1,8.469789E-1,2.9414427E-3,-4.923342E-2,-2.684155E-2,-5.7686407E-2,7.3379286E-2,-7.8222845E-3,3.597516E-2,-4.3793667E-2],"split_indices":[0,1,6,6,1,4,1,0,0,0,0,0,0,0,0],"split_type":[0,0,0,0,0,0,0,0,0,0,0,0,0,0,0],"sum_hessian":[2.0004283E3,1.9313008E3,6.9127464E1,1.8979216E3,3.3379128E1,3.851021E0,6.527644E1,1.8716323E3,2.6289316E1,1.307148E1,2.0307648E1,1.7156662E0,2.1353548E0,1.1499721E0,6.412647E1],"tree_param":{"num_deleted":"0","num_feature":"7","num_nodes":"15","size_leaf_vector":"1"}},{"base_weights":[-4.7461354E-4,1.3239433E-1,-1.446533E-1,4.2069253E-1,5.2457016E-2,-2.4492563E-1,1.831532E-1,-3.5036962E-2,2.2732278E-2,2.5256315E-2,-1.6776622E-4,-2.6433667E-2,-5.099136E-3,1.863198E-2,-2.8977886E-2],"categories":[],"categories_nodes":[],"categories_segments":[],"categories_sizes":[],"default_left":[0,0,0,0,0,0,0,0,0,0,0,0,0,0,0],"id":48,"left_children":[1,3,5,7,9,11,13,-1,-1,-1,-1,-1,-1,-1,-1],"loss_changes":[3.8293976E1,2.3952173E1,3.155664E1,8.911781E0,2.0607502E1,2.9739212E1,3.2752758E1,0E0,0E0,0E0,0E0,0E0,0E0,0E0,0E0],"parents":[2147483647,0,0,1,1,2,2,3,3,4,4,5,5,6,6],"right_children":[2,4,6,8,10,12,14,-1,-1,-1,-1,-1,-1,-1,-1],"split_conditions":[5.9055114E-1,2.8590392E-5,4.6239493E-5,7.740732E-1,2.8571428E1,-2.6776115E-5,9.4600195E-1,-3.5036962E-2,2.2732278E-2,2.5256315E-2,-1.6776622E-4,-2.6433667E-2,-5.099136E-3,1.863198E-2,-2.8977886E-2],"split_indices":[0,5,5,1,4,6,1,0,0,0,0,0,0,0,0],"split_type":[0,0,0,0,0,0,0,0,0,0,0,0,0,0,0],"sum_hessian":[1.9969688E3,1.0392875E3,9.5768134E2,2.2468526E2,8.146022E2,7.3354956E2,2.2413174E2,6.0256634E0,2.1865959E2,8.8529335E1,7.260728E2,2.4483778E2,4.887118E2,1.7993938E2,4.419236E1],"tree_param":{"num_deleted":"0","num_feature":"7","num_nodes":"15","size_leaf_vector":"1"}},{"base_weights":[-4.7472623E-4,2.4821648E-2,-7.221372E-1,1.4319746E-1,-1.0950687E-1,7.2209823E-1,-8.205885E-1,5.009804E-2,5.8349324E-3,-4.1142157E-3,-5.1779725E-2,7.171502E-2,-6.6128173E-3,3.437185E-2,-4.2999722E-2],"categories":[],"categories_nodes":[],"categories_segments":[],"categories_sizes":[],"default_left":[0,0,0,0,0,0,0,0,0,0,0,0,0,0,0],"id":49,"left_children":[1,3,5,7,9,11,13,-1,-1,-1,-1,-1,-1,-1,-1],"loss_changes":[3.641075E1,3.0657177E1,1.0196678E1,2.3202509E1,2.2685806E1,3.136268E0,4.376766E0,0E0,0E0,0E0,0E0,0E0,0E0,0E0,0E0],"parents":[2147483647,0,0,1,1,2,2,3,3,4,4,5,5,6,6],"right_children":[2,4,6,8,10,12,14,-1,-1,-1,-1,-1,-1,-1,-1],"split_conditions":[6.771654E-1,8.864243E-1,-4.0875404E-4,4.5669293E-1,9.5603675E-1,1.6666666E1,8.469789E-1,5.009804E-2,5.8349324E-3,-4.1142157E-3,-5.1779725E-2,7.171502E-2,-6.6128173E-3,3.437185E-2,-4.2999722E-2],"split_indices":[0,1,6,0,1,4,1,0,0,0,0,0,0,0,0],"split_type":[0,0,0,0,0,0,0,0,0,0,0,0,0,0,0],"sum_hessian":[1.9925327E3,1.9259869E3,6.654585E1,1.0237501E3,9.0223676E2,3.8425684E0,6.2703285E1,2.954233E1,9.9420776E2,8.775304E2,2.470635E1,1.7254214E0,2.117147E0,1.1779844E0,6.15253E1],"tree_param":{"num_deleted":"0","num_feature":"7","num_nodes":"15","size_leaf_vector":"1"}},{"base_weights":[-4.4170566E-4,2.3639401E-2,-7.071892E-1,9.93067E-1,8.60369E-3,3.729008E-2,-9.05766E-1,5.2677363E-2,-1.3147746E-2,3.4408826E-2,-6.2820676E-4,4.665525E-2,-1.5618116E-2,-5.334831E-2,-3.1224782E-2],"categories":[],"categories_nodes":[],"categories_segments":[],"categories_sizes":[],"default_left":[0,0,0,0,0,0,0,0,0,0,0,0,0,0,0],"id":50,"left_children":[1,3,5,7,9,11,13,-1,-1,-1,-1,-1,-1,-1,-1],"loss_changes":[3.3836365E1,2.8015774E1,9.718445E0,2.5070229E0,2.7257935E1,4.9129596E0,1.680294E0,0E0,0E0,0E0,0E0,0E0,0E0,0E0,0E0],"parents":[2147483647,0,0,1,1,2,2,3,3,4,4,5,5,6,6],"right_children":[2,4,6,8,10,12,14,-1,-1,-1,-1,-1,-1,-1,-1],"split_conditions":[6.771654E-1,4.5669293E-1,3.2432434E1,2.6655634E-4,2.1261936E-5,-4.0875404E-4,9.334987E-1,5.2677363E-2,-1.3147746E-2,3.4408826E-2,-6.2820676E-4,4.665525E-2,-1.5618116E-2,-5.334831E-2,-3.1224782E-2],"split_indices":[0,0,4,6,5,6,1,0,0,0,0,0,0,0,0],"split_type":[0,0,0,0,0,0,0,0,0,0,0,0,0,0,0],"sum_hessian":[1.9861395E3,1.92163E3,6.4509415E1,2.8355595E1,1.8932744E3,1.37546015E1,5.0754818E1,2.7206732E1,1.1488628E0,5.623977E1,1.8370347E3,3.393005E0,1.0361596E1,3.0488205E1,2.0266611E1],"tree_param":{"num_deleted":"0","num_feature":"7","num_nodes":"15","size_leaf_vector":"1"}},{"base_weights":[-4.1251755E-4,1.545284E-1,-1.04862906E-1,1.7964867E-1,-8.550625E-1,-2.4589133E-1,4.5682564E-2,5.0873972E-2,7.4147345E-3,-8.442776E-2,-1.3153399E-2,3.0498767E-2,-1.5055048E-2,5.709515E-3,-3.0397693E-2],"categories":[],"categories_nodes":[],"categories_segments":[],"categories_sizes":[],"default_left":[0,0,0,0,0,0,0,0,0,0,0,0,0,0,0],"id":51,"left_children":[1,3,5,7,9,11,13,-1,-1,-1,-1,-1,-1,-1,-1],"loss_changes":[3.212047E1,2.042254E1,2.5181618E1,2.0355831E1,9.215292E0,2.9114883E1,2.5784487E1,0E0,0E0,0E0,0E0,0E0,0E0,0E0,0E0],"parents":[2147483647,0,0,1,1,2,2,3,3,4,4,5,5,6,6],"right_children":[2,4,6,8,10,12,14,-1,-1,-1,-1,-1,-1,-1,-1],"split_conditions":[8.719537E-1,3.357449E-4,2.8239489E-5,4.5669293E-1,8.0370826E-1,-2.9285738E-4,8.1818184E1,5.0873972E-2,7.4147345E-3,-8.442776E-2,-1.3153399E-2,3.0498767E-2,-1.5055048E-2,5.709515E-3,-3.0397693E-2],"split_indices":[1,6,6,0,1,6,4,0,0,0,0,0,0,0,0],"split_type":[0,0,0,0,0,0,0,0,0,0,0,0,0,0,0],"sum_hessian":[1.9827483E3,7.982101E2,1.1845382E3,7.7963354E2,1.8576504E1,6.112739E2,5.732643E2,2.6989069E1,7.526445E2,6.9454346E0,1.163107E1,3.6433216E1,5.748407E2,5.196274E2,5.3636917E1],"tree_param":{"num_deleted":"0","num_feature":"7","num_nodes":"15","size_leaf_vector":"1"}},{"base_weights":[-4.1149065E-4,6.3782826E-2,-2.481966E-1,9.7642267E-1,4.7761E-2,1.103211E0,-2.846557E-1,5.2073427E-2,-1.3589173E-2,-3.711516E-2,3.246945E-3,6.976304E-3,8.5298076E-2,-3.30409E-2,-6.5315748E-3],"categories":[],"categories_nodes":[],"categories_segments":[],"categories_sizes":[],"default_left":[0,0,0,0,0,0,0,0,0,0,0,0,0,0,0],"id":52,"left_children":[1,3,5,7,9,11,13,-1,-1,-1,-1,-1,-1,-1,-1],"loss_changes":[3.1491096E1,2.294544E1,2.0385471E1,2.4814339E0,2.1034536E1,6.097193E0,2.29418E1,0E0,0E0,0E0,0E0,0E0,0E0,0E0,0E0],"parents":[2147483647,0,0,1,1,2,2,3,3,4,4,5,5,6,6],"right_children":[2,4,6,8,10,12,14,-1,-1,-1,-1,-1,-1,-1,-1],"split_conditions":[6.2992126E-1,4.5669293E-1,1.1764706E1,2.6655634E-4,7.8982776E-1,-2.3890991E-4,-5.7021403E-5,5.2073427E-2,-1.3589173E-2,-3.711516E-2,3.246945E-3,6.976304E-3,8.5298076E-2,-3.30409E-2,-6.5315748E-3],"split_indices":[0,0,4,6,1,6,6,0,0,0,0,0,0,0,0],"split_type":[0,0,0,0,0,0,0,0,0,0,0,0,0,0,0],"sum_hessian":[1.9777804E3,1.571413E3,4.063674E2,2.6076784E1,1.5453362E3,9.906594E0,3.964608E2,2.4942617E1,1.1341674E0,3.1986088E1,1.5133501E3,4.2858334E0,5.6207614E0,1.14219734E2,2.8224106E2],"tree_param":{"num_deleted":"0","num_feature":"7","num_nodes":"15","size_leaf_vector":"1"}},{"base_weights":[-3.6590028E-4,2.2065917E-2,-6.8509185E-1,3.5517808E-2,-1.0169042E0,5.0938934E-2,-8.876376E-1,-4.2599588E-4,1.6948305E-2,-2.318257E-2,-5.642152E-2,4.425014E-2,-1.4343451E-2,-5.2723315E-2,-3.0058125E-2],"categories":[],"categories_nodes":[],"categories_segments":[],"categories_sizes":[],"default_left":[0,0,0,0,0,0,0,0,0,0,0,0,0,0,0],"id":53,"left_children":[1,3,5,7,9,11,13,-1,-1,-1,-1,-1,-1,-1,-1],"loss_changes":[3.0353952E1,2.6779999E1,9.390686E0,2.5259953E1,9.880333E-1,4.331919E0,1.7181358E0,0E0,0E0,0E0,0E0,0E0,0E0,0E0,0E0],"parents":[2147483647,0,0,1,1,2,2,3,3,4,4,5,5,6,6],"right_children":[2,4,6,8,10,12,14,-1,-1,-1,-1,-1,-1,-1,-1],"split_conditions":[6.771654E-1,9.5603675E-1,3.2432434E1,4.863732E-5,3.6363636E1,-4.0875404E-4,9.334987E-1,-4.2599588E-4,1.6948305E-2,-2.318257E-2,-5.642152E-2,4.425014E-2,-1.4343451E-2,-5.2723315E-2,-3.0058125E-2],"split_indices":[0,1,4,5,4,6,1,0,0,0,0,0,0,0,0],"split_type":[0,0,0,0,0,0,0,0,0,0,0,0,0,0,0],"sum_hessian":[1.97423E3,1.9125424E3,6.168766E1,1.8890499E3,2.3492342E1,1.3473788E1,4.821387E1,1.650495E3,2.3855502E2,4.8063893E0,1.8685951E1,3.4170613E0,1.0056727E1,2.8775595E1,1.9438276E1],"tree_param":{"num_deleted":"0","num_feature":"7","num_nodes":"15","size_leaf_vector":"1"}},{"base_weights":[-4.3625227E-4,1.1511817E-1,-1.2644657E-1,1.3465446E-1,-9.3735665E-1,-2.2322613E-1,1.9115889E-1,2.110803E-2,3.2328644E-3,-7.6083235E-2,1.684145E-2,-2.1689964E-2,-2.7128E-3,1.8219348E-2,-2.6786253E-2],"categories":[],"categories_nodes":[],"categories_segments":[],"categories_sizes":[],"default_left":[0,0,0,0,0,0,0,0,0,0,0,0,0,0,0],"id":54,"left_children":[1,3,5,7,9,11,13,-1,-1,-1,-1,-1,-1,-1,-1],"loss_changes":[2.8734303E1,2.1292046E1,2.9058289E1,2.0328915E1,1.4572916E1,2.5735764E1,2.8023275E1,0E0,0E0,0E0,0E0,0E0,0E0,0E0,0E0],"parents":[2147483647,0,0,1,1,2,2,3,3,4,4,5,5,6,6],"right_children":[2,4,6,8,10,12,14,-1,-1,-1,-1,-1,-1,-1,-1],"split_conditions":[5.9055114E-1,3.357449E-4,4.6239493E-5,2.805928E-5,3.865472E-5,2.3595054E-5,9.4600195E-1,2.110803E-2,3.2328644E-3,-7.6083235E-2,1.684145E-2,-2.1689964E-2,-2.7128E-3,1.8219348E-2,-2.6786253E-2],"split_indices":[0,6,5,5,5,6,1,0,0,0,0,0,0,0,0],"split_type":[0,0,0,0,0,0,0,0,0,0,0,0,0,0,0],"sum_hessian":[1.9713678E3,1.0283933E3,9.429744E2,1.0105081E3,1.7885235E1,7.2297064E2,2.2000377E2,1.9686687E2,8.136413E2,1.212898E1,5.7562556E0,3.211639E2,4.0180673E2,1.7806639E2,4.1937366E1],"tree_param":{"num_deleted":"0","num_feature":"7","num_nodes":"15","size_leaf_vector":"1"}},{"base_weights":[-4.5770954E-4,1.4495394E-2,-9.461218E-1,2.7785532E-2,-9.049594E-1,1.954347E-2,-5.310421E-2,1.0197888E-2,-2.2020438E-3,3.0160807E-3,-5.8116604E-2],"categories":[],"categories_nodes":[],"categories_segments":[],"categories_sizes":[],"default_left":[0,0,0,0,0,0,0,0,0,0,0],"id":55,"left_children":[1,3,5,7,9,-1,-1,-1,-1,-1,-1],"loss_changes":[2.7842466E1,2.3711197E1,5.167021E0,2.4199339E1,6.938957E0,0E0,0E0,0E0,0E0,0E0,0E0],"parents":[2147483647,0,0,1,1,2,2,3,3,4,4],"right_children":[2,4,6,8,10,-1,-1,-1,-1,-1,-1],"split_conditions":[9.584976E-1,3.4978703E-4,-4.0875404E-4,8.577854E-1,5.1968503E-1,1.954347E-2,-5.310421E-2,1.0197888E-2,-2.2020438E-3,3.0160807E-3,-5.8116604E-2],"split_indices":[1,6,6,1,0,0,0,0,0,0,0],"split_type":[0,0,0,0,0,0,0,0,0,0,0],"sum_hessian":[1.9670018E3,1.9373525E3,2.9649286E1,1.9107043E3,2.6648243E1,2.177147E0,2.747214E1,5.5285345E2,1.3578508E3,5.770711E0,2.0877533E1],"tree_param":{"num_deleted":"0","num_feature":"7","num_nodes":"11","size_leaf_vector":"1"}},{"base_weights":[-4.882516E-4,2.0473182E-2,-6.640969E-1,6.583168E-1,1.012732E-3,7.036722E-2,-8.7167555E-1,4.3086298E-2,-6.398312E-2,4.8192997E-2,-6.150826E-4,4.2985816E-2,-1.3073072E-2,-5.2271683E-2,-2.861174E-2],"categories":[],"categories_nodes":[],"categories_segments":[],"categories_sizes":[],"default_left":[0,0,0,0,0,0,0,0,0,0,0,0,0,0,0],"id":56,"left_children":[1,3,5,7,9,11,13,-1,-1,-1,-1,-1,-1,-1,-1],"loss_changes":[2.7334673E1,2.364476E1,9.234877E0,2.333451E1,2.372241E1,3.9399376E0,1.8464966E0,0E0,0E0,0E0,0E0,0E0,0E0,0E0,0E0],"parents":[2147483647,0,0,1,1,2,2,3,3,4,4,5,5,6,6],"right_children":[2,4,6,8,10,12,14,-1,-1,-1,-1,-1,-1,-1,-1],"split_conditions":[6.771654E-1,2.1261936E-5,3.2432434E1,8.1818184E1,4.5669293E-1,-4.0875404E-4,9.334987E-1,4.3086298E-2,-6.398312E-2,4.8192997E-2,-6.150826E-4,4.2985816E-2,-1.3073072E-2,-5.2271683E-2,-2.861174E-2],"split_indices":[0,5,4,4,0,6,1,0,0,0,0,0,0,0,0],"split_type":[0,0,0,0,0,0,0,0,0,0,0,0,0,0,0],"sum_hessian":[1.9631052E3,1.9039347E3,5.9170517E1,5.5396847E1,1.8485378E3,1.3183845E1,4.598667E1,5.063733E1,4.7595162E0,2.4239426E1,1.8242983E3,3.4311152E0,9.752729E0,2.7523922E1,1.8462748E1],"tree_param":{"num_deleted":"0","num_feature":"7","num_nodes":"15","size_leaf_vector":"1"}},{"base_weights":[-4.776981E-4,1.3748464E-2,-9.3606704E-1,9.5660675E-1,1.5950341E-3,1.7280197E-2,-5.2618444E-2,5.140267E-2,-1.4791715E-2,3.0577753E-2,-8.4302743E-4],"categories":[],"categories_nodes":[],"categories_segments":[],"categories_sizes":[],"default_left":[0,0,0,0,0,0,0,0,0,0,0],"id":57,"left_children":[1,3,5,7,9,-1,-1,-1,-1,-1,-1],"loss_changes":[2.6113194E1,2.2143986E1,4.743952E0,2.5047283E0,2.150025E1,0E0,0E0,0E0,0E0,0E0,0E0],"parents":[2147483647,0,0,1,1,2,2,3,3,4,4],"right_children":[2,4,6,8,10,-1,-1,-1,-1,-1,-1],"split_conditions":[9.584976E-1,4.5669293E-1,-4.0875404E-4,2.6655634E-4,2.1261936E-5,1.7280197E-2,-5.2618444E-2,5.140267E-2,-1.4791715E-2,3.0577753E-2,-8.4302743E-4],"split_indices":[1,0,6,6,5,0,0,0,0,0,0],"split_type":[0,0,0,0,0,0,0,0,0,0,0],"sum_hessian":[1.9599788E3,1.931593E3,2.8385654E1,2.359241E1,1.9080006E3,2.19747E0,2.6188185E1,2.2488682E1,1.1037279E0,5.509119E1,1.8529094E3],"tree_param":{"num_deleted":"0","num_feature":"7","num_nodes":"11","size_leaf_vector":"1"}},{"base_weights":[-4.3697676E-4,1.9373424E-2,-6.4783216E-1,3.0906128E-2,-9.727604E-1,7.268602E-2,-8.5739183E-1,-5.1962223E-4,1.5764719E-2,-1.968119E-2,-5.4754104E-2,1.7179288E-2,-4.1498497E-2,-5.1826548E-2,-2.750859E-2],"categories":[],"categories_nodes":[],"categories_segments":[],"categories_sizes":[],"default_left":[0,0,0,0,0,0,0,0,0,0,0,0,0,0,0],"id":58,"left_children":[1,3,5,7,9,11,13,-1,-1,-1,-1,-1,-1,-1,-1],"loss_changes":[2.5132072E1,2.1786192E1,8.847517E0,2.2090017E1,1.1189022E0,3.7162502E0,1.9146767E0,0E0,0E0,0E0,0E0,0E0,0E0,0E0,0E0],"parents":[2147483647,0,0,1,1,2,2,3,3,4,4,5,5,6,6],"right_children":[2,4,6,8,10,12,14,-1,-1,-1,-1,-1,-1,-1,-1],"split_conditions":[6.771654E-1,9.5603675E-1,3.2432434E1,4.863732E-5,3.6363636E1,7.007874E-1,9.334987E-1,-5.1962223E-4,1.5764719E-2,-1.968119E-2,-5.4754104E-2,1.7179288E-2,-4.1498497E-2,-5.1826548E-2,-2.750859E-2],"split_indices":[0,1,4,5,4,0,1,0,0,0,0,0,0,0,0],"split_type":[0,0,0,0,0,0,0,0,0,0,0,0,0,0,0],"sum_hessian":[1.9576128E3,1.9004294E3,5.718338E1,1.8795502E3,2.0879309E1,1.3031385E1,4.4151997E1,1.6420559E3,2.3749422E2,4.3765078E0,1.65028E1,1.0499654E1,2.531732E0,2.6390099E1,1.7761898E1],"tree_param":{"num_deleted":"0","num_feature":"7","num_nodes":"15","size_leaf_vector":"1"}},{"base_weights":[-5.255193E-4,1.3448615E-1,-9.11931E-2,1.5724188E-1,-7.641772E-1,-1.6111146E-1,1.892927E-1,4.93177E-2,6.552017E-3,-7.747714E-2,-1.0385919E-2,1.0242538E-2,-1.2069175E-2,3.4389205E-2,-5.431445E-3],"categories":[],"categories_nodes":[],"categories_segments":[],"categories_sizes":[],"default_left":[0,0,0,0,0,0,0,0,0,0,0,0,0,0,0],"id":59,"left_children":[1,3,5,7,9,11,13,-1,-1,-1,-1,-1,-1,-1,-1],"loss_changes":[2.3957611E1,1.6199543E1,2.2992016E1,1.654824E1,8.23904E0,2.7597502E1,3.4839054E1,0E0,0E0,0E0,0E0,0E0,0E0,0E0,0E0],"parents":[2147483647,0,0,1,1,2,2,3,3,4,4,5,5,6,6],"right_children":[2,4,6,8,10,12,14,-1,-1,-1,-1,-1,-1,-1,-1],"split_conditions":[8.719537E-1,3.357449E-4,4.645653E-5,4.5669293E-1,8.0370826E-1,2.7450871E-5,8.994075E-1,4.93177E-2,6.552017E-3,-7.747714E-2,-1.0385919E-2,1.0242538E-2,-1.2069175E-2,3.4389205E-2,-5.431445E-3],"split_indices":[1,6,5,0,1,5,1,0,0,0,0,0,0,0,0],"split_type":[0,0,0,0,0,0,0,0,0,0,0,0,0,0,0],"sum_hessian":[1.9551304E3,7.852876E2,1.1698427E3,7.666985E2,1.8589123E1,9.3675726E2,2.3308543E2,2.2364346E1,7.4433417E2,6.9688683E0,1.16202545E1,1.682319E2,7.685254E2,8.67029E1,1.4638252E2],"tree_param":{"num_deleted":"0","num_feature":"7","num_nodes":"15","size_leaf_vector":"1"}},{"base_weights":[-4.962254E-4,1.8352477E-2,-6.321583E-1,3.1004641E-2,-8.493436E-1,6.993129E-2,-8.4400725E-1,2.1950302E-3,-4.1125815E-2,4.420443E-3,-5.5316653E-2,4.040983E-2,-1.2362156E-2,-5.1412005E-2,-2.6608441E-2],"categories":[],"categories_nodes":[],"categories_segments":[],"categories_sizes":[],"default_left":[0,0,0,0,0,0,0,0,0,0,0,0,0,0,0],"id":60,"left_children":[1,3,5,7,9,11,13,-1,-1,-1,-1,-1,-1,-1,-1],"loss_changes":[2.3244728E1,2.0838957E1,8.473049E0,2.0613949E1,6.6724052E0,3.4865336E0,1.9538479E0,0E0,0E0,0E0,0E0,0E0,0E0,0E0,0E0],"parents":[2147483647,0,0,1,1,2,2,3,3,4,4,5,5,6,6],"right_children":[2,4,6,8,10,12,14,-1,-1,-1,-1,-1,-1,-1,-1],"split_conditions":[6.771654E-1,3.4978703E-4,3.2432434E1,9.5467263E-1,5.1968503E-1,-4.0875404E-4,9.334987E-1,2.1950302E-3,-4.1125815E-2,4.420443E-3,-5.5316653E-2,4.040983E-2,-1.2362156E-2,-5.1412005E-2,-2.6608441E-2],"split_indices":[0,6,4,1,0,6,1,0,0,0,0,0,0,0,0],"split_type":[0,0,0,0,0,0,0,0,0,0,0,0,0,0,0],"sum_hessian":[1.9503779E3,1.8948081E3,5.556985E1,1.8685269E3,2.628134E1,1.3036251E1,4.25336E1,1.8416497E3,2.687717E1,5.794227E0,2.0487114E1,3.4523463E0,9.583905E0,2.5293158E1,1.724044E1],"tree_param":{"num_deleted":"0","num_feature":"7","num_nodes":"15","size_leaf_vector":"1"}},{"base_weights":[-5.708524E-4,1.1253024E-1,-1.0140262E-1,1.3290404E-1,-8.918574E-1,-2.7798828E-1,6.6349044E-2,4.0737553E-3,2.6549164E-2,-6.843318E-2,1.2459159E-2,-1.9478774E-2,3.8046099E-3,6.8744496E-3,-2.8972654E-2],"categories":[],"categories_nodes":[],"categories_segments":[],"categories_sizes":[],"default_left":[0,0,0,0,0,0,0,0,0,0,0,0,0,0,0],"id":61,"left_children":[1,3,5,7,9,11,13,-1,-1,-1,-1,-1,-1,-1,-1],"loss_changes":[2.2234522E1,1.8922869E1,3.0551765E1,1.841368E1,1.0351387E1,1.987767E1,2.4401646E1,0E0,0E0,0E0,0E0,0E0,0E0,0E0,0E0],"parents":[2147483647,0,0,1,1,2,2,3,3,4,4,5,5,6,6],"right_children":[2,4,6,8,10,12,14,-1,-1,-1,-1,-1,-1,-1,-1],"split_conditions":[5.826771E-1,3.357449E-4,2.9809906E-5,7.428571E1,3.865472E-5,4.7206417E-5,8.1818184E1,4.0737553E-3,2.6549164E-2,-6.843318E-2,1.2459159E-2,-1.9478774E-2,3.8046099E-3,6.8744496E-3,-2.8972654E-2],"split_indices":[0,6,6,4,5,5,4,0,0,0,0,0,0,0,0],"split_type":[0,0,0,0,0,0,0,0,0,0,0,0,0,0,0],"sum_hessian":[1.9476809E3,9.179348E2,1.0297462E3,9.005353E2,1.7399496E1,5.0134384E2,5.2840234E2,7.985705E2,1.0196482E2,1.2130882E1,5.2686133E0,3.811314E2,1.2021241E2,4.766796E2,5.1722736E1],"tree_param":{"num_deleted":"0","num_feature":"7","num_nodes":"15","size_leaf_vector":"1"}},{"base_weights":[-5.8152113E-4,1.2030342E-2,-9.070448E-1,9.386527E-1,1.0536191E-3,1.4899156E-2,-5.1407494E-2,5.0801612E-2,-1.5540751E-2,-3.7806954E-2,7.444692E-4],"categories":[],"categories_nodes":[],"categories_segments":[],"categories_sizes":[],"default_left":[0,0,0,0,0,0,0,0,0,0,0],"id":62,"left_children":[1,3,5,7,9,-1,-1,-1,-1,-1,-1],"loss_changes":[2.224779E1,1.9521822E1,4.2035007E0,2.4882584E0,1.989468E1,0E0,0E0,0E0,0E0,0E0,0E0],"parents":[2147483647,0,0,1,1,2,2,3,3,4,4],"right_children":[2,4,6,8,10,-1,-1,-1,-1,-1,-1],"split_conditions":[9.584976E-1,4.5669293E-1,-4.0875404E-4,2.6655634E-4,7.8982776E-1,1.4899156E-2,-5.1407494E-2,5.0801612E-2,-1.5540751E-2,-3.7806954E-2,7.444692E-4],"split_indices":[1,0,6,6,1,0,0,0,0,0,0],"split_type":[0,0,0,0,0,0,0,0,0,0,0],"sum_hessian":[1.9441107E3,1.9184061E3,2.570456E1,2.1469875E1,1.8969363E3,2.214011E0,2.349055E1,2.039372E1,1.0761553E0,3.3076935E1,1.8638594E3],"tree_param":{"num_deleted":"0","num_feature":"7","num_nodes":"11","size_leaf_vector":"1"}},{"base_weights":[-5.6869787E-4,1.7151004E-2,-6.14451E-1,6.000736E-1,-3.6773615E-4,7.8014165E-2,-8.2887226E-1,3.9969172E-2,-6.327819E-2,6.1584054E-3,-4.217787E-3,1.6716784E-2,-4.068849E-2,-5.0966986E-2,-2.5457997E-2],"categories":[],"categories_nodes":[],"categories_segments":[],"categories_sizes":[],"default_left":[0,0,0,0,0,0,0,0,0,0,0,0,0,0,0],"id":63,"left_children":[1,3,5,7,9,11,13,-1,-1,-1,-1,-1,-1,-1,-1],"loss_changes":[2.1154152E1,1.9302856E1,8.165556E0,2.1518385E1,1.906017E1,3.4296644E0,2.0230637E0,0E0,0E0,0E0,0E0,0E0,0E0,0E0,0E0],"parents":[2147483647,0,0,1,1,2,2,3,3,4,4,5,5,6,6],"right_children":[2,4,6,8,10,12,14,-1,-1,-1,-1,-1,-1,-1,-1],"split_conditions":[6.771654E-1,2.1261936E-5,3.2432434E1,8.1818184E1,8.719537E-1,7.007874E-1,9.334987E-1,3.9969172E-2,-6.327819E-2,6.1584054E-3,-4.217787E-3,1.6716784E-2,-4.068849E-2,-5.0966986E-2,-2.5457997E-2],"split_indices":[0,5,4,4,1,0,1,0,0,0,0,0,0,0,0],"split_type":[0,0,0,0,0,0,0,0,0,0,0,0,0,0,0],"sum_hessian":[1.942738E3,1.8891791E3,5.355906E1,5.414931E1,1.8350297E3,1.2813743E1,4.0745316E1,4.9439148E1,4.710162E0,7.424752E2,1.0925546E3,1.0438534E1,2.3752081E0,2.416237E1,1.6582945E1],"tree_param":{"num_deleted":"0","num_feature":"7","num_nodes":"15","size_leaf_vector":"1"}},{"base_weights":[-6.1365386E-4,1.1336942E-2,-8.950677E-1,9.295975E-1,9.23192E-4,1.4007221E-2,-1.0186352E0,5.050492E-2,-1.5251662E-2,-3.589454E-2,7.1188546E-4,-2.3768643E-2,-5.2945424E-2],"categories":[],"categories_nodes":[],"categories_segments":[],"categories_sizes":[],"default_left":[0,0,0,0,0,0,0,0,0,0,0,0,0],"id":64,"left_children":[1,3,5,7,9,-1,11,-1,-1,-1,-1,-1,-1],"loss_changes":[2.074077E1,1.8309538E1,4.000414E0,2.442068E0,1.8140255E1,0E0,7.8105927E-3,0E0,0E0,0E0,0E0,0E0,0E0],"parents":[2147483647,0,0,1,1,2,2,3,3,4,4,6,6],"right_children":[2,4,6,8,10,-1,12,-1,-1,-1,-1,-1,-1],"split_conditions":[9.584976E-1,4.5669293E-1,-4.0875404E-4,2.6655634E-4,7.8982776E-1,1.4007221E-2,9.606641E-1,5.050492E-2,-1.5251662E-2,-3.589454E-2,7.1188546E-4,-2.3768643E-2,-5.2945424E-2],"split_indices":[1,0,6,6,1,0,1,0,0,0,0,0,0],"split_type":[0,0,0,0,0,0,0,0,0,0,0,0,0],"sum_hessian":[1.9383881E3,1.9138055E3,2.4582592E1,2.0470802E1,1.8933347E3,2.2182605E0,2.2364332E1,1.938849E1,1.0823128E0,3.3469894E1,1.8598649E3,2.427153E0,1.993718E1],"tree_param":{"num_deleted":"0","num_feature":"7","num_nodes":"13","size_leaf_vector":"1"}},{"base_weights":[-6.120926E-4,1.0788051E-2,-8.842566E-1,2.0440202E-2,-9.5290893E-1,1.35130575E-2,-1.0103589E0,-8.8525267E-4,1.385392E-2,-1.319773E-2,-6.3037485E-2,-2.326464E-2,-5.25859E-2],"categories":[],"categories_nodes":[],"categories_segments":[],"categories_sizes":[],"default_left":[0,0,0,0,0,0,0,0,0,0,0,0,0],"id":65,"left_children":[1,3,5,7,9,-1,11,-1,-1,-1,-1,-1,-1],"loss_changes":[1.9533258E1,1.7826706E1,3.8686962E0,1.856968E1,3.6979504E0,0E0,1.7343521E-2,0E0,0E0,0E0,0E0,0E0,0E0],"parents":[2147483647,0,0,1,1,2,2,3,3,4,4,6,6],"right_children":[2,4,6,8,10,-1,12,-1,-1,-1,-1,-1,-1],"split_conditions":[9.584976E-1,3.7557786E-4,-4.0875404E-4,4.863732E-5,8.534908E-1,1.35130575E-2,9.606641E-1,-8.8525267E-4,1.385392E-2,-1.319773E-2,-6.3037485E-2,-2.326464E-2,-5.25859E-2],"split_indices":[1,6,6,5,1,0,1,0,0,0,0,0,0],"split_type":[0,0,0,0,0,0,0,0,0,0,0,0,0],"sum_hessian":[1.9370931E3,1.9133956E3,2.3697458E1,1.8953907E3,1.8004974E1,2.2209117E0,2.1476547E1,1.6509359E3,2.4445482E2,6.13412E0,1.1870855E1,2.378654E0,1.9097893E1],"tree_param":{"num_deleted":"0","num_feature":"7","num_nodes":"13","size_leaf_vector":"1"}},{"base_weights":[-6.595766E-4,1.610188E-2,-5.9869576E-1,5.759189E-1,-6.025295E-4,7.3383905E-2,-8.144892E-1,3.8449805E-2,-6.0717173E-2,4.59923E-2,-5.468418E-4,1.580275E-2,-4.0083677E-2,-5.0593197E-2,-2.4094338E-2],"categories":[],"categories_nodes":[],"categories_segments":[],"categories_sizes":[],"default_left":[0,0,0,0,0,0,0,0,0,0,0,0,0,0,0],"id":66,"left_children":[1,3,5,7,9,11,13,-1,-1,-1,-1,-1,-1,-1,-1],"loss_changes":[1.942529E1,1.7628616E1,7.7222023E0,1.9813911E1,1.743137E1,3.174949E0,2.1432152E0,0E0,0E0,0E0,0E0,0E0,0E0,0E0,0E0],"parents":[2147483647,0,0,1,1,2,2,3,3,4,4,5,5,6,6],"right_children":[2,4,6,8,10,12,14,-1,-1,-1,-1,-1,-1,-1,-1],"split_conditions":[6.771654E-1,2.1261936E-5,3.2432434E1,8.1818184E1,4.5669293E-1,7.007874E-1,9.334987E-1,3.8449805E-2,-6.0717173E-2,4.59923E-2,-5.468418E-4,1.580275E-2,-4.0083677E-2,-5.0593197E-2,-2.4094338E-2],"split_indices":[0,5,4,4,0,0,1,0,0,0,0,0,0,0,0],"split_type":[0,0,0,0,0,0,0,0,0,0,0,0,0,0,0],"sum_hessian":[1.9359244E3,1.8840912E3,5.1833282E1,5.3620583E1,1.8304706E3,1.2758231E1,3.907505E1,4.8915565E1,4.7050166E0,1.9346226E1,1.8111244E3,1.0488403E1,2.2698278E0,2.3240993E1,1.5834058E1],"tree_param":{"num_deleted":"0","num_feature":"7","num_nodes":"15","size_leaf_vector":"1"}},{"base_weights":[-6.6803454E-4,1.0279131E-1,-9.299501E-2,1.2165482E-1,-8.2632136E-1,-2.6397085E-1,6.870448E-2,3.6206467E-3,2.5294265E-2,-6.3718446E-2,1.2095621E-2,-1.856015E-2,3.8180777E-3,6.7728944E-3,-2.7098922E-2],"categories":[],"categories_nodes":[],"categories_segments":[],"categories_sizes":[],"default_left":[0,0,0,0,0,0,0,0,0,0,0,0,0,0,0],"id":67,"left_children":[1,3,5,7,9,11,13,-1,-1,-1,-1,-1,-1,-1,-1],"loss_changes":[1.8487219E1,1.6096542E1,2.8293127E1,1.690446E1,9.062042E0,1.8177475E1,2.1532806E1,0E0,0E0,0E0,0E0,0E0,0E0,0E0,0E0],"parents":[2147483647,0,0,1,1,2,2,3,3,4,4,5,5,6,6],"right_children":[2,4,6,8,10,12,14,-1,-1,-1,-1,-1,-1,-1,-1],"split_conditions":[5.826771E-1,3.357449E-4,2.9809906E-5,7.428571E1,3.865472E-5,4.7206417E-5,8.1818184E1,3.6206467E-3,2.5294265E-2,-6.3718446E-2,1.2095621E-2,-1.856015E-2,3.8180777E-3,6.7728944E-3,-2.7098922E-2],"split_indices":[0,6,6,4,5,5,4,0,0,0,0,0,0,0,0],"split_type":[0,0,0,0,0,0,0,0,0,0,0,0,0,0,0],"sum_hessian":[1.9334104E3,9.116851E2,1.02172534E3,8.9439557E2,1.7289595E1,4.963103E2,5.2541504E2,7.9384686E2,1.00548706E2,1.2044726E1,5.244868E0,3.7733017E2,1.1898013E2,4.7434305E2,5.107198E1],"tree_param":{"num_deleted":"0","num_feature":"7","num_nodes":"15","size_leaf_vector":"1"}},{"base_weights":[-6.717007E-4,1.0198911E-2,-8.7413263E-1,7.255665E-1,-1.777043E-3,1.2567681E-2,-1.002105E0,4.3791335E-2,-1.7944694E-2,3.026314E-2,-7.984767E-4,-2.2674022E-2,-5.224038E-2],"categories":[],"categories_nodes":[],"categories_segments":[],"categories_sizes":[],"default_left":[0,0,0,0,0,0,0,0,0,0,0,0,0],"id":68,"left_children":[1,3,5,7,9,-1,11,-1,-1,-1,-1,-1,-1],"loss_changes":[1.834378E1,1.6349604E1,3.6723595E0,5.4346333E0,1.6187853E1,0E0,3.045845E-2,0E0,0E0,0E0,0E0,0E0,0E0],"parents":[2147483647,0,0,1,1,2,2,3,3,4,4,6,6],"right_children":[2,4,6,8,10,-1,12,-1,-1,-1,-1,-1,-1],"split_conditions":[9.584976E-1,4.6456695E-1,-4.0875404E-4,1.9774662E-4,-2.9285738E-4,1.2567681E-2,9.606641E-1,4.3791335E-2,-1.7944694E-2,3.026314E-2,-7.984767E-4,-2.2674022E-2,-5.224038E-2],"split_indices":[1,0,6,6,6,0,1,0,0,0,0,0,0],"split_type":[0,0,0,0,0,0,0,0,0,0,0,0,0],"sum_hessian":[1.929991E3,1.9072428E3,2.2748165E1,3.0422298E1,1.8768206E3,2.2240508E0,2.0524115E1,2.6889006E1,3.5332923E0,4.192584E1,1.8348947E3,2.3212416E0,1.8202873E1],"tree_param":{"num_deleted":"0","num_feature":"7","num_nodes":"13","size_leaf_vector":"1"}},{"base_weights":[-6.41759E-4,1.5177679E-2,-5.8202654E-1,5.560489E-1,-7.960731E-4,7.234646E-2,-7.993978E-1,3.713187E-2,-5.854726E-2,5.68772E-3,-3.920147E-3,1.5104796E-2,-3.936136E-2,-5.015601E-2,-2.3015395E-2],"categories":[],"categories_nodes":[],"categories_segments":[],"categories_sizes":[],"default_left":[0,0,0,0,0,0,0,0,0,0,0,0,0,0,0],"id":69,"left_children":[1,3,5,7,9,11,13,-1,-1,-1,-1,-1,-1,-1,-1],"loss_changes":[1.7752728E1,1.6235773E1,7.3307037E0,1.824039E1,1.6243998E1,2.9367597E0,2.1953468E0,0E0,0E0,0E0,0E0,0E0,0E0,0E0,0E0],"parents":[2147483647,0,0,1,1,2,2,3,3,4,4,5,5,6,6],"right_children":[2,4,6,8,10,12,14,-1,-1,-1,-1,-1,-1,-1,-1],"split_conditions":[6.771654E-1,2.1261936E-5,3.2432434E1,8.1818184E1,8.719537E-1,7.007874E-1,9.334987E-1,3.713187E-2,-5.854726E-2,5.68772E-3,-3.920147E-3,1.5104796E-2,-3.936136E-2,-5.015601E-2,-2.3015395E-2],"split_indices":[0,5,4,4,1,0,1,0,0,0,0,0,0,0,0],"split_type":[0,0,0,0,0,0,0,0,0,0,0,0,0,0,0],"sum_hessian":[1.9282753E3,1.878145E3,5.0130295E1,5.2906906E1,1.825238E3,1.2666454E1,3.746384E1,4.82625E1,4.6444087E0,7.369735E2,1.0882646E3,1.0506734E1,2.1597204E0,2.2180006E1,1.5283834E1],"tree_param":{"num_deleted":"0","num_feature":"7","num_nodes":"15","size_leaf_vector":"1"}},{"base_weights":[-6.80172E-4,9.646416E-3,-8.62753E-1,9.046756E-1,6.134995E-4,1.1811342E-2,-9.931034E-1,4.9746882E-2,-1.6120233E-2,-2.4384392E-2,9.645132E-4,-2.2024559E-2,-5.1863987E-2],"categories":[],"categories_nodes":[],"categories_segments":[],"categories_sizes":[],"default_left":[0,0,0,0,0,0,0,0,0,0,0,0,0],"id":70,"left_children":[1,3,5,7,9,-1,11,-1,-1,-1,-1,-1,-1],"loss_changes":[1.7147558E1,1.5388437E1,3.5008163E0,2.4271564E0,1.7204483E1,0E0,4.537201E-2,0E0,0E0,0E0,0E0,0E0,0E0],"parents":[2147483647,0,0,1,1,2,2,3,3,4,4,6,6],"right_children":[2,4,6,8,10,-1,12,-1,-1,-1,-1,-1,-1],"split_conditions":[9.584976E-1,4.5669293E-1,-4.0875404E-4,2.6655634E-4,8.015357E-1,1.1811342E-2,9.606641E-1,4.9746882E-2,-1.6120233E-2,-2.4384392E-2,9.645132E-4,-2.2024559E-2,-5.1863987E-2],"split_indices":[1,0,6,6,1,0,1,0,0,0,0,0,0],"split_type":[0,0,0,0,0,0,0,0,0,0,0,0,0],"sum_hessian":[1.9242659E3,1.9024655E3,2.1800423E1,1.8017754E1,1.8844476E3,2.2254546E0,1.9574968E1,1.6959429E1,1.0583249E0,6.8496796E1,1.8159508E3,2.2611318E0,1.7313835E1],"tree_param":{"num_deleted":"0","num_feature":"7","num_nodes":"13","size_leaf_vector":"1"}},{"base_weights":[-6.7024835E-4,1.4356179E-2,-5.671508E-1,2.340225E-2,-8.89419E-1,6.807993E-2,-7.855982E-1,5.4099876E-3,-3.5580096E-3,-5.042186E-2,2.4072673E-2,1.4360926E-2,-3.8815316E-2,-4.9765553E-2,-2.2014793E-2],"categories":[],"categories_nodes":[],"categories_segments":[],"categories_sizes":[],"default_left":[0,0,0,0,0,0,0,0,0,0,0,0,0,0,0],"id":71,"left_children":[1,3,5,7,9,11,13,-1,-1,-1,-1,-1,-1,-1,-1],"loss_changes":[1.638818E1,1.535464E1,6.956978E0,1.4905917E1,3.5222921E0,2.7488606E0,2.2482681E0,0E0,0E0,0E0,0E0,0E0,0E0,0E0,0E0],"parents":[2147483647,0,0,1,1,2,2,3,3,4,4,5,5,6,6],"right_children":[2,4,6,8,10,12,14,-1,-1,-1,-1,-1,-1,-1,-1],"split_conditions":[6.771654E-1,3.7557786E-4,3.2432434E1,8.864243E-1,4.4187975E-1,7.007874E-1,9.334987E-1,5.4099876E-3,-3.5580096E-3,-5.042186E-2,2.4072673E-2,1.4360926E-2,-3.8815316E-2,-4.9765553E-2,-2.2014793E-2],"split_indices":[0,6,4,1,2,0,1,0,0,0,0,0,0,0,0],"split_type":[0,0,0,0,0,0,0,0,0,0,0,0,0,0,0],"sum_hessian":[1.923306E3,1.8745564E3,4.874971E1,1.856944E3,1.7612423E1,1.2650689E1,3.6099022E1,9.7894495E2,8.7799896E2,1.644874E1,1.163684E0,1.0567911E1,2.0827782E0,2.128783E1,1.4811191E1],"tree_param":{"num_deleted":"0","num_feature":"7","num_nodes":"15","size_leaf_vector":"1"}},{"base_weights":[-7.152904E-4,9.093555E-3,-8.5150504E-1,-2.5302088E-2,2.3749843E-1,1.1104277E-2,-9.842417E-1,2.96651E-3,-9.735218E-3,1.4781155E-2,-6.080256E-2,-2.1395652E-2,-5.149734E-2],"categories":[],"categories_nodes":[],"categories_segments":[],"categories_sizes":[],"default_left":[0,0,0,0,0,0,0,0,0,0,0,0,0],"id":72,"left_children":[1,3,5,7,9,-1,11,-1,-1,-1,-1,-1,-1],"loss_changes":[1.603698E1,1.4931523E1,3.339838E0,2.3697598E1,2.1375795E1,0E0,5.9597015E-2,0E0,0E0,0E0,0E0,0E0,0E0],"parents":[2147483647,0,0,1,1,2,2,3,3,4,4,6,6],"right_children":[2,4,6,8,10,-1,12,-1,-1,-1,-1,-1,-1],"split_conditions":[9.584976E-1,4.863732E-5,-4.0875404E-4,6.062992E-1,8.830616E-5,1.1104277E-2,9.606641E-1,2.96651E-3,-9.735218E-3,1.4781155E-2,-6.080256E-2,-2.1395652E-2,-5.149734E-2],"split_indices":[1,5,6,0,5,0,1,0,0,0,0,0,0],"split_type":[0,0,0,0,0,0,0,0,0,0,0,0,0],"sum_hessian":[1.919758E3,1.8988552E3,2.0902792E1,1.6511036E3,2.4775159E2,2.2259455E0,1.8676847E1,1.1014674E3,5.496363E2,2.389914E2,8.760188E0,2.204601E0,1.6472246E1],"tree_param":{"num_deleted":"0","num_feature":"7","num_nodes":"13","size_leaf_vector":"1"}},{"base_weights":[-7.5416383E-4,1.1360604E-2,-6.524496E-1,5.686872E-1,-2.913087E-3,-5.1681157E-2,-1.7779244E-1,3.897592E-2,-5.6203067E-2,-1.9511313E-3,1.1448332E-2,4.767488E-2,-3.3136096E-2],"categories":[],"categories_nodes":[],"categories_segments":[],"categories_sizes":[],"default_left":[0,0,0,0,0,0,0,0,0,0,0,0,0],"id":73,"left_children":[1,3,5,7,9,-1,11,-1,-1,-1,-1,-1,-1],"loss_changes":[1.514732E1,1.4985972E1,6.1512737E0,1.7664618E1,1.5395019E1,0E0,9.849747E0,0E0,0E0,0E0,0E0,0E0,0E0],"parents":[2147483647,0,0,1,1,2,2,3,3,4,4,6,6],"right_children":[2,4,6,8,10,-1,12,-1,-1,-1,-1,-1,-1],"split_conditions":[6.850394E-1,2.0922274E-5,9.201301E-1,8.1818184E1,4.863732E-5,-5.1681157E-2,9.4117004E-1,3.897592E-2,-5.6203067E-2,-1.9511313E-3,1.1448332E-2,4.767488E-2,-3.3136096E-2],"split_indices":[0,5,1,4,5,0,1,0,0,0,0,0,0],"split_type":[0,0,0,0,0,0,0,0,0,0,0,0,0],"sum_hessian":[1.9166238E3,1.8826094E3,3.4014416E1,4.604156E1,1.8365677E3,1.8211803E1,1.5802612E1,4.1421967E1,4.6195946E0,1.5898237E3,2.4674405E2,4.451489E0,1.1351124E1],"tree_param":{"num_deleted":"0","num_feature":"7","num_nodes":"13","size_leaf_vector":"1"}},{"base_weights":[-7.4973924E-4,8.591184E-3,-8.393424E-1,8.9463174E-1,4.1779636E-5,1.1364748E-2,-9.767852E-1,4.9444593E-2,-1.6054971E-2,-2.3378752E-2,9.031934E-4,-2.0871215E-2,-5.1197212E-2],"categories":[],"categories_nodes":[],"categories_segments":[],"categories_sizes":[],"default_left":[0,0,0,0,0,0,0,0,0,0,0,0,0],"id":74,"left_children":[1,3,5,7,9,-1,11,-1,-1,-1,-1,-1,-1],"loss_changes":[1.501679E1,1.4362566E1,3.3180304E0,2.3939734E0,1.5842776E1,0E0,7.1056366E-2,0E0,0E0,0E0,0E0,0E0,0E0],"parents":[2147483647,0,0,1,1,2,2,3,3,4,4,6,6],"right_children":[2,4,6,8,10,-1,12,-1,-1,-1,-1,-1,-1],"split_conditions":[9.584976E-1,4.5669293E-1,-4.0875404E-4,2.6655634E-4,8.015357E-1,1.1364748E-2,9.606641E-1,4.9444593E-2,-1.6054971E-2,-2.3378752E-2,9.031934E-4,-2.0871215E-2,-5.1197212E-2],"split_indices":[1,0,6,6,1,0,1,0,0,0,0,0,0],"split_type":[0,0,0,0,0,0,0,0,0,0,0,0,0],"sum_hessian":[1.915142E3,1.8950233E3,2.0118547E1,1.711984E1,1.8779036E3,2.2218592E0,1.7896688E1,1.606115E1,1.0586928E0,6.876341E1,1.8091401E3,2.1575127E0,1.5739175E1],"tree_param":{"num_deleted":"0","num_feature":"7","num_nodes":"13","size_leaf_vector":"1"}},{"base_weights":[-7.352433E-4,1.3862701E-1,-5.6301635E-2,5.4837006E-1,5.349979E-2,-1.9296025E-1,8.521253E-2,3.5153277E-2,2.574286E-3,3.9744683E-2,7.214836E-4,3.188879E-2,-1.2234354E-2,3.415844E-4,2.9246425E-2],"categories":[],"categories_nodes":[],"categories_segments":[],"categories_sizes":[],"default_left":[0,0,0,0,0,0,0,0,0,0,0,0,0,0,0],"id":75,"left_children":[1,3,5,7,9,11,13,-1,-1,-1,-1,-1,-1,-1,-1],"loss_changes":[1.4839289E1,1.9024107E1,2.6511154E1,7.178261E0,1.3121718E1,3.0118511E1,2.6385141E1,0E0,0E0,0E0,0E0,0E0,0E0,0E0,0E0],"parents":[2147483647,0,0,1,1,2,2,3,3,4,4,5,5,6,6],"right_children":[2,4,6,8,10,12,14,-1,-1,-1,-1,-1,-1,-1,-1],"split_conditions":[8.577854E-1,3.6363636E1,2.6509442E-5,5.9055114E-1,4.6456695E-1,-2.9285738E-4,4.819213E-5,3.5153277E-2,2.574286E-3,3.9744683E-2,7.214836E-4,3.188879E-2,-1.2234354E-2,3.415844E-4,2.9246425E-2],"split_indices":[1,4,6,0,0,6,5,0,0,0,0,0,0,0,0],"split_type":[0,0,0,0,0,0,0,0,0,0,0,0,0,0,0],"sum_hessian":[1.914258E3,5.452526E2,1.3690054E3,9.285786E1,4.5239474E2,6.9626587E2,6.7273956E2,7.049548E1,2.236237E1,2.1678507E1,4.3071625E2,4.0148525E1,6.561174E2,5.824029E2,9.033668E1],"tree_param":{"num_deleted":"0","num_feature":"7","num_nodes":"15","size_leaf_vector":"1"}},{"base_weights":[-6.170531E-4,8.35437E-3,-8.324824E-1,1.4565762E-2,-1.1997449E0,9.859934E-3,-9.6939135E-1,-1.0895991E-3,1.327156E-2,6.266883E-3,-6.948337E-2,-2.0513045E-2,-5.089277E-2],"categories":[],"categories_nodes":[],"categories_segments":[],"categories_sizes":[],"default_left":[0,0,0,0,0,0,0,0,0,0,0,0,0],"id":76,"left_children":[1,3,5,7,9,-1,11,-1,-1,-1,-1,-1,-1],"loss_changes":[1.4273208E1,1.4216413E1,3.0678377E0,1.718497E1,2.6130037E0,0E0,7.505798E-2,0E0,0E0,0E0,0E0,0E0,0E0],"parents":[2147483647,0,0,1,1,2,2,3,3,4,4,6,6],"right_children":[2,4,6,8,10,-1,12,-1,-1,-1,-1,-1,-1],"split_conditions":[9.584976E-1,8.830616E-5,-4.0875404E-4,4.863732E-5,6.062992E-1,9.859934E-3,9.606641E-1,-1.0895991E-3,1.327156E-2,6.266883E-3,-6.948337E-2,-2.0513045E-2,-5.089277E-2],"split_indices":[1,5,6,5,0,0,1,0,0,0,0,0,0],"split_type":[0,0,0,0,0,0,0,0,0,0,0,0,0],"sum_hessian":[1.9105935E3,1.8911876E3,1.9405943E1,1.8824968E3,8.690836E0,2.2257662E0,1.7180178E1,1.6450011E3,2.3749568E2,1.1321217E0,7.5587144E0,2.1253417E0,1.5054835E1],"tree_param":{"num_deleted":"0","num_feature":"7","num_nodes":"13","size_leaf_vector":"1"}},{"base_weights":[-6.5616594E-4,1.0836066E-2,-6.373477E-1,5.494733E-1,-2.8273582E-3,-5.1369764E-2,-1.6146049E-1,3.7721958E-2,-5.385703E-2,3.7243974E-4,-3.5397783E-2,4.462425E-2,-3.2370877E-2],"categories":[],"categories_nodes":[],"categories_segments":[],"categories_sizes":[],"default_left":[0,0,0,0,0,0,0,0,0,0,0,0,0],"id":77,"left_children":[1,3,5,7,9,-1,11,-1,-1,-1,-1,-1,-1],"loss_changes":[1.3986364E1,1.3820383E1,6.124814E0,1.6301266E1,1.3281379E1,0E0,9.004024E0,0E0,0E0,0E0,0E0,0E0,0E0],"parents":[2147483647,0,0,1,1,2,2,3,3,4,4,6,6],"right_children":[2,4,6,8,10,-1,12,-1,-1,-1,-1,-1,-1],"split_conditions":[6.850394E-1,2.0922274E-5,9.201301E-1,8.1818184E1,3.4978703E-4,-5.1369764E-2,9.4117004E-1,3.7721958E-2,-5.385703E-2,3.7243974E-4,-3.5397783E-2,4.462425E-2,-3.2370877E-2],"split_indices":[0,5,1,4,6,0,1,0,0,0,0,0,0],"split_type":[0,0,0,0,0,0,0,0,0,0,0,0,0],"sum_hessian":[1.9095433E3,1.8766528E3,3.2890453E1,4.545657E1,1.8311963E3,1.7438541E1,1.5451914E1,4.084587E1,4.610702E0,1.8058679E3,2.5328293E1,4.612265E0,1.0839649E1],"tree_param":{"num_deleted":"0","num_feature":"7","num_nodes":"13","size_leaf_vector":"1"}},{"base_weights":[-6.816042E-4,1.3193876E-1,-5.341355E-2,-1.7471993E-1,2.3686205E-1,-1.8479954E-1,8.2435384E-2,3.0295918E-2,-2.1627916E-2,2.076072E-2,-1.1670971E-2,3.035804E-2,-1.1713234E-2,4.249648E-4,2.7798427E-2],"categories":[],"categories_nodes":[],"categories_segments":[],"categories_sizes":[],"default_left":[0,0,0,0,0,0,0,0,0,0,0,0,0,0,0],"id":78,"left_children":[1,3,5,7,9,11,13,-1,-1,-1,-1,-1,-1,-1,-1],"loss_changes":[1.3357741E1,1.7525883E1,2.4408142E1,2.8260899E1,3.4092056E1,2.7370302E1,2.3544018E1,0E0,0E0,0E0,0E0,0E0,0E0,0E0,0E0],"parents":[2147483647,0,0,1,1,2,2,3,3,4,4,5,5,6,6],"right_children":[2,4,6,8,10,12,14,-1,-1,-1,-1,-1,-1,-1,-1],"split_conditions":[8.577854E-1,8.158583E-1,2.6509442E-5,1.8528932E-6,4.1817937E-5,-2.9285738E-4,4.819213E-5,3.0295918E-2,-2.1627916E-2,2.076072E-2,-1.1670971E-2,3.035804E-2,-1.1713234E-2,4.249648E-4,2.7798427E-2],"split_indices":[1,1,6,6,5,6,5,0,0,0,0,0,0,0,0],"split_type":[0,0,0,0,0,0,0,0,0,0,0,0,0,0,0],"sum_hessian":[1.9080612E3,5.42408E2,1.3656531E3,1.3810478E2,4.0430322E2,6.9404694E2,6.716062E2,3.395419E1,1.041506E2,2.932184E2,1.1108481E2,4.0138344E1,6.5390857E2,5.817858E2,8.98204E1],"tree_param":{"num_deleted":"0","num_feature":"7","num_nodes":"15","size_leaf_vector":"1"}},{"base_weights":[-5.938867E-4,7.957051E-3,-8.2239723E-1,1.3940799E-2,-1.1723053E0,9.218936E-3,-9.6158135E-1,-1.0241288E-3,1.2582715E-2,5.8093197E-3,-6.7916766E-2,-2.0033857E-2,-5.058204E-2],"categories":[],"categories_nodes":[],"categories_segments":[],"categories_sizes":[],"default_left":[0,0,0,0,0,0,0,0,0,0,0,0,0],"id":79,"left_children":[1,3,5,7,9,-1,11,-1,-1,-1,-1,-1,-1],"loss_changes":[1.3399888E1,1.3345164E1,2.9289398E0,1.5378887E1,2.4425688E0,0E0,8.357811E-2,0E0,0E0,0E0,0E0,0E0,0E0],"parents":[2147483647,0,0,1,1,2,2,3,3,4,4,6,6],"right_children":[2,4,6,8,10,-1,12,-1,-1,-1,-1,-1,-1],"split_conditions":[9.584976E-1,8.830616E-5,-4.0875404E-4,4.863732E-5,6.062992E-1,9.218936E-3,9.606641E-1,-1.0241288E-3,1.2582715E-2,5.8093197E-3,-6.7916766E-2,-2.0033857E-2,-5.058204E-2],"split_indices":[1,5,6,5,0,0,1,0,0,0,0,0,0],"split_type":[0,0,0,0,0,0,0,0,0,0,0,0,0],"sum_hessian":[1.9049319E3,1.8862952E3,1.8636751E1,1.8777633E3,8.531782E0,2.2241135E0,1.6412638E1,1.641038E3,2.3672542E2,1.1237613E0,7.4080215E0,2.082519E0,1.4330119E1],"tree_param":{"num_deleted":"0","num_feature":"7","num_nodes":"13","size_leaf_vector":"1"}},{"base_weights":[-6.3359994E-4,6.640117E-3,-9.5017856E-1,8.785112E-1,-1.1729683E-3,-5.0468218E-2,-4.0323776E-1,4.8987422E-2,-1.6352843E-2,-6.1936516E-2,2.610916E-4,-2.7758602E-2,-2.7944956E-3],"categories":[],"categories_nodes":[],"categories_segments":[],"categories_sizes":[],"default_left":[0,0,0,0,0,0,0,0,0,0,0,0,0],"id":80,"left_children":[1,3,5,7,9,-1,11,-1,-1,-1,-1,-1,-1],"loss_changes":[1.31629305E1,1.2885343E1,6.197834E-2,2.3708801E0,1.4849941E1,0E0,1.3151336E-1,0E0,0E0,0E0,0E0,0E0,0E0],"parents":[2147483647,0,0,1,1,2,2,3,3,4,4,6,6],"right_children":[2,4,6,8,10,-1,12,-1,-1,-1,-1,-1,-1],"split_conditions":[7.007874E-1,4.5669293E-1,1.1325289E-4,2.6655634E-4,7.6995754E-1,-5.0468218E-2,9.0007365E-1,4.8987422E-2,-1.6352843E-2,-6.1936516E-2,2.610916E-4,-2.7758602E-2,-2.7944956E-3],"split_indices":[0,0,6,6,1,0,1,0,0,0,0,0,0],"split_type":[0,0,0,0,0,0,0,0,0,0,0,0,0],"sum_hessian":[1.903901E3,1.8904131E3,1.3487961E1,1.5800285E1,1.8746128E3,1.1408E1,2.0799606E0,1.4749052E1,1.0512333E0,8.646183E0,1.8659666E3,1.0307714E0,1.0491892E0],"tree_param":{"num_deleted":"0","num_feature":"7","num_nodes":"13","size_leaf_vector":"1"}},{"base_weights":[-6.5421936E-4,1.963952E-1,-3.497062E-2,-4.1129014E-1,3.3878303E-1,5.8223385E-1,-5.218607E-2,4.809537E-2,-2.8978974E-2,2.074395E-2,-4.985902E-2,-2.6465362E-2,4.048261E-2,3.5991545E-3,-6.8105385E-3],"categories":[],"categories_nodes":[],"categories_segments":[],"categories_sizes":[],"default_left":[0,0,0,0,0,0,0,0,0,0,0,0,0,0,0],"id":81,"left_children":[1,3,5,7,9,11,13,-1,-1,-1,-1,-1,-1,-1,-1],"loss_changes":[1.2881692E1,2.458776E1,